{"input_size":5,"layers":[{"input_size":5,"size":256,"prev_input":[40,1,52,36,53],"input_error":[-0.010706196279258834,-0.011734110580167153,-0.014698331319322846,-0.010678476414114775,-0.013443736240479228],"prev_output":[0.16622441989662928,0.054632198807956875,0.0748478172266718,0.08550676986460236,0.044895260029472445,0.01926160515983992,0.049296985352004524,0.5657937554162399,0.09668292615141096,0.03241504036787384,0.04200804682094261,0.1911488349827514,0.011861911434059232,0.028557164516371324,0.11272091537010895,0.043962075438838545,0.036567766789913435,0.047990710054495504,0.04148164255322603,0.09436550293339642,0.021488682189748403,0.10188732274209797,0.053857264258757344,0.056749367552123633,0.1649032461314939,0.09008389051235867,0.11080594006878752,0.028222745287781705,0.013504505195971081,0.013114152673892914,0.10599506451486564,0.029311384780251686,0.023310990608581533,0.05886963877773622,0.043807284895352946,0.009763180245160173,0.21371308520469887,0.053787029596240606,0.030143793313797705,0.09092566764773899,0.028694042741397915,0.030430646215723486,0.009342127406837724,0.04043592346153088,0.020481026857952275,0.03263034873562021,0.05614810861943783,0.01766938219614075,0.05012796966706734,0.05143797829208376,0.9356171073927759,0.04170979310312012,0.03344576475051169,0.05735137460018767,0.05448948748336908,0.042634676496372044,0.024534962484514904,0.016948906152054175,0.05591157459941015,0.014268975098050416,0.017612557919735965,0.0184339756269769,0.039480993836007026,0.05861987040148307,0.17660743496007392,0.12556374905819018,0.03726774867508377,0.05483743174703752,0.02152000830747308,0.04622266707908662,0.018405433237700743,0.03615367603190328,0.1287714769314903,0.1854242237285291,0.040071551067685895,0.02192491739489812,0.10879975584014573,0.02495179550630011,0.07379211916711767,0.019074721216308776,0.042827257397305654,0.047317562750874294,0.040526743966163604,0.04855039534149645,0.039005559604774497,0.07924614099136075,0.076725108129559,0.07494480609702389,0.029989784174261305,0.033505676010296546,0.09761949828764728,0.028668858170967922,0.19856423125533312,0.0772247212457763,0.04186969947165169,0.04909208412656131,0.16294112807200395,0.05341840258530449,0.04822549900006892,0.04491938669924711,0.04169817509324936,0.04301402903665288,0.01991407853275931,0.0507410701482218,0.027600556481241285,0.04250981498889317,0.04969938798566369,0.05062687552614057,0.49517830647345906,0.023599268562395463,0.04322671091545011,0.015260852780654198,0.08497734054659897,0.016743527975475167,0.051206568420349,0.013724513940343727,0.10783125503160408,0.042849859465208764,0.06203134256948947,0.0865682351673501,0.034122635279813594,0.07801976426890679,0.03823893254272292,0.025058917933753012,0.029242735126525678,0.05381352923309599,0.03813635169436989,0.01661046687945718,0.0464102925911121,0.02388208079915105,0.5340322508106112,0.028823499495497375,0.07845284551471475,0.06566410742958258,0.3005100458132588,0.06937951755744147,0.031055894446268436,0.11506838433202804,0.9525559585453373,0.026883188054698866,0.05281333896614023,0.019981339733765185,0.07170879724058266,0.05912397434658184,0.04202088564281822,0.03976979017191573,0.11508541635382577,0.10655043519245162,0.0498886159766139,0.07502580514150096,0.032624858935612115,0.008448715303735706,0.027520619491727714,0.04571072648365192,0.07490109434664288,0.03808442981703472,0.04841470746426127,0.02632053222750923,0.12513076351069413,0.03387732861696894,0.05618685265299831,0.026844190087596538,0.08427192496284226,0.05292058683136639,0.020801556415812286,0.3039344988050973,0.13157547197803598,0.024015753613315486,0.08542642310292459,0.13761421611854655,0.15201576590919655,0.14014884222783358,0.026155340379352576,0.13115200113170933,0.014476332015104506,0.029011744461352473,0.14062650747279828,0.1433031907624526,0.16416512000379244,0.010850168501574876,0.023348375512670917,0.04896705488505587,0.02919907828776237,0.02995523878292065,0.11516606045597912,0.08148257589888111,0.02897622002750231,0.05682750588973174,0.061587807139680754,0.017596714285709112,0.04923725750840715,0.09515023612368516,0.1410479822663218,0.015609026029812168,0.007238658613757639,0.028609401551755776,0.08146842690387747,0.057307740466101605,0.064893185150297,0.0816506239225134,0.009307656071416997,0.03346150107983417,0.039199471681353786,0.09223083365251511,0.023919361858818287,0.03758248930773673,0.04779080147377326,0.037070669008262794,0.0610697711567324,0.0517735549319528,0.037419627162687784,0.07812306939417694,0.041567962038060256,0.04386903023068284,0.18067549298084803,0.18332685222753664,0.0487785450086163,0.028245393227844574,0.021900749714731844,0.02214001353995963,0.03884320856054864,0.028605860129964935,0.04192316691183438,0.04618604371462309,0.037291653106536586,0.06410271745474469,0.06399683503317952,0.03275365647521795,0.025842288591616806,0.14002747163520932,0.017895086737107407,0.08488592563124751,0.025682062175042108,0.0640861880447455,0.051724023129992705,0.021643415192613848,0.06975842014517021,0.013450917849946625,0.11304870808592181,0.06692479312472348,0.08906144107305716,0.028964101075489582,0.1001465506393136,0.04792220240262838,0.072565143939408,0.032332804055209,0.053219235214049185,0.035164250747108765,0.05196068433384062,0.04597995750712159,0.09289846614367663,0.12156371851285075,0.22488608864326334,0.010128471119163804,0.01173398526402918,0.06271016278357622],"prev_output_error":[-0.11295502086807668,-0.12088033306766817,-0.11433173325077,-0.11522916906330374,-0.1291848848818506,-0.1246124487704997,-0.13503835690308436,-0.10614856307463279,-0.12174054529131759,-0.13707251604212012,-0.13450099490003065,-0.11110185053584098,-0.1423581490374041,-0.13021108363916017,-0.116344475623015,-0.10959070360340988,-0.1365398579808886,-0.12898767905431588,-0.11471811692072986,-0.11675242609818731,-0.12747153999629046,-0.12381422366377709,-0.12950352734659853,-0.11466268652182889,-0.11183266718568653,-0.11894229925294107,-0.1076746032645765,-0.12887333532870282,-0.13829759411019218,-0.13251305912499714,-0.12913720646358723,-0.13611895135961144,-0.1409979380373141,-0.12353496741798295,-0.12440918191168687,-0.13382086581734348,-0.11147963029205182,-0.12608808916861816,-0.13043555493314052,-0.11502555632306098,-0.12651037225038075,-0.1348188818394713,-0.15026678925422873,-0.11961214577164063,-0.11961726074425463,-0.13498866659705794,-0.12061307694499078,-0.13578199373318245,-0.10904996172370507,-0.12712170350461224,-0.09863581545275081,-0.12607074103270804,-0.1337446411675818,-0.12621927654676468,-0.13028270849857138,-0.13427182349449487,-0.1181749034675189,-0.13527550447167608,-0.1292292719048298,-0.14910505948272487,-0.13530605934516043,-0.13869214075859132,-0.11793884202821776,-0.1158311205866504,-0.11104041749645027,-0.1212694630988762,-0.1256689672392389,-0.13646028718902886,-0.1355084299465785,-0.12821664778172093,-0.13250354097338024,-0.13031649402201323,-0.1146467053288952,-0.1182887429102269,-0.12522156605676546,-0.12794291051722093,-0.11265829759943471,-0.13935880632713113,-0.12382255749212158,-0.1578397684117676,-0.12491884949258393,-0.12401792347982872,-0.10825300876223268,-0.12575412429975566,-0.11722937404483844,-0.1119783009885072,-0.1254755477767441,-0.12818827328774265,-0.12686619212665093,-0.12024032423698003,-0.11047138971252368,-0.13084851710535475,-0.10721197278799321,-0.1293618656554315,-0.14036544245925625,-0.12263312263253885,-0.11411475594350942,-0.12382764341180173,-0.1331038020753185,-0.12773413417857638,-0.12793655471798157,-0.13357287154572692,-0.1208050293109085,-0.13854557266871378,-0.1376595365580649,-0.11508386971500496,-0.11675736309964557,-0.12805707103745181,-0.08932943957833868,-0.1108677546415951,-0.12363763426726386,-0.1340780574641134,-0.12138268977203794,-0.13647115976494084,-0.1197158760597425,-0.1254861021741978,-0.11641028564119349,-0.1302529390597353,-0.13523712926692874,-0.11365143912992148,-0.1252068463571652,-0.12869359942868056,-0.11500041881526712,-0.14035226315254593,-0.11906585001107231,-0.12858824165972774,-0.13374805490821567,-0.11729562153242312,-0.11536327273850575,-0.1438408123050207,-0.09643682233242316,-0.12417305457677334,-0.11325145238320374,-0.12798902014395677,-0.11226968615999926,-0.1246348289930781,-0.1188391934209231,-0.11930590297560385,-0.09798858973482426,-0.12522994416716826,-0.11658788795509267,-0.13228152107777294,-0.12063294874070402,-0.11185328058801994,-0.13169596114001572,-0.12376170449372312,-0.10796992682586823,-0.12510360720112115,-0.1126286744582995,-0.11877092877374162,-0.11060965052978433,-0.14399248541670417,-0.1218994461886271,-0.11804946833370807,-0.11884809407966435,-0.11480105599335658,-0.1324575644409431,-0.13059654935090367,-0.11359553772768156,-0.13309347259567703,-0.12699130259366095,-0.1360583749619383,-0.12252010234350005,-0.1202534350275035,-0.1286520842110392,-0.10007714105665673,-0.11355254005264859,-0.13371405507056433,-0.12648256235537927,-0.1140794500947056,-0.11242015489565817,-0.10540481944415189,-0.1324571156938354,-0.11376247500303673,-0.14120825949508986,-0.13642497983872381,-0.10738719064459004,-0.10262645324654131,-0.12332380550252048,-0.1291709975020906,-0.14369600505148822,-0.12042925328678268,-0.11902859317368795,-0.1278490784298636,-0.11462606639163132,-0.10304552006170224,-0.1328833023243535,-0.13096515439457845,-0.11936679764263122,-0.12262542412880087,-0.1287637315275132,-0.10819150584604,-0.12373950493241828,-0.13958634756340257,-0.1264545900492505,-0.13259860405555107,-0.11036405711231159,-0.11396068375940198,-0.13052452217270147,-0.11635859320285387,-0.13863180575730336,-0.1290604964491921,-0.13414414888412893,-0.11787121273599552,-0.12769832112802781,-0.11534677499727371,-0.12368323836692187,-0.11189824032067704,-0.11823491992604113,-0.11492358289801602,-0.13086516153636077,-0.12122336817692579,-0.12129762921890123,-0.12670950485140234,-0.11069928144981125,-0.11031098620479406,-0.12530223432478743,-0.12348698665152144,-0.1384178419827877,-0.12089307287229524,-0.13297869152786224,-0.14546341876876742,-0.1278336524419057,-0.1297954531577516,-0.13419904179105802,-0.10966097784718404,-0.12211845331396966,-0.13483845795448648,-0.1449792520507783,-0.10604689389584922,-0.1388226415003144,-0.11591408965307688,-0.13000496263519742,-0.1290932961324499,-0.12121154313105587,-0.14776043441294007,-0.10360904599131783,-0.13006315856058207,-0.1189654324720187,-0.11455382591123174,-0.1143566460310951,-0.13265075399809045,-0.11428956996088996,-0.12537870812186133,-0.11457927807080463,-0.1215005075522131,-0.12775982361517374,-0.1295732905012542,-0.12155990419396848,-0.11905387532706602,-0.12055936537882339,-0.11096374582515033,-0.10879637559196015,-0.13019334338781244,-0.14383692103233367,-0.11923498834770467],"nodes":[{"input_size":5,"size":256,"prev_input":[40,1,52,36,53],"pre_activation_output":0.16760655800000002,"prev_output":0.16622441989662928,"temperature":0.0001,"weights":[0.000259377,0.000606171,0.001494427,0.00098632,0.000819011],"input_errors":[-0.0000292979501603765,-0.00006847003309559891,-0.0001688035273788527,-0.00011140979529520682,-0.00009251166454890508]},{"input_size":5,"size":256,"prev_input":[40,1,52,36,53],"pre_activation_output":0.054680593,"prev_output":0.054632198807956875,"temperature":0.0001,"weights":[0.000039195,0.000090147,0.000441329,0.000395426,0.000298834],"input_errors":[-0.000004737907577966572,-0.000010897040459485398,-0.00005334821779920828,-0.00004779921156755234,-0.000036123321748802846]},{"input_size":5,"size":256,"prev_input":[40,1,52,36,53],"pre_activation_output":0.074972446,"prev_output":0.0748478172266718,"temperature":0.0001,"weights":[0.000339991,0.000278894,0.000976261,0.000098607,0.000127896],"input_errors":[-0.00003887181192766742,-0.00003188645432080285,-0.0001116179875019287,-0.000011273971968520052,-0.000014622586569086966]},{"input_size":5,"size":256,"prev_input":[40,1,52,36,53],"pre_activation_output":0.085692763,"prev_output":0.08550676986460236,"temperature":0.0001,"weights":[0.00057362,0.000040452,0.000844523,0.00024356,0.000189135],"input_errors":[-0.00006609785962769223,-0.000004661216584506034,-0.00009731398095227492,-0.000028065272907257248,-0.000021793945226025027]},{"input_size":5,"size":256,"prev_input":[40,1,52,36,53],"pre_activation_output":0.044922102,"prev_output":0.044895260029472445,"temperature":0.0001,"weights":[0.000291718,0.000324688,0.000257972,0.000192086,0.000237718],"input_errors":[-0.000037685596388663934,-0.0000419448404962064,-0.000033326171014101466,-0.00002481460799804407,-0.00003070966523915568]},{"input_size":5,"size":256,"prev_input":[40,1,52,36,53],"pre_activation_output":0.019263723,"prev_output":0.01926160515983992,"temperature":0.0001,"weights":[0.000228247,0.00028419,0.000090281,0.000105623,0.000025521],"input_errors":[-0.000028442477138491145,-0.0000354136819069249,-0.000011250173114206727,-0.00001316201427696494,-0.000003180226618358515]},{"input_size":5,"size":256,"prev_input":[40,1,52,36,53],"pre_activation_output":0.04933253,"prev_output":0.049296985352004524,"temperature":0.0001,"weights":[0.000148554,0.000113546,0.000325956,0.000198641,0.000361812],"input_errors":[-0.000020060490345626862,-0.00001533307738780026,-0.00004401669788727799,-0.000026824191480329377,-0.00004885871546598569]},{"input_size":5,"size":256,"prev_input":[40,1,52,36,53],"pre_activation_output":0.6317206169999999,"prev_output":0.5657937554162399,"temperature":0.0001,"weights":[0.004170291,0.001394422,0.005929769,0.003409072,0.000612075],"input_errors":[-0.0004426672960821646,-0.00014801473062940645,-0.0006294336819938477,-0.00036186548582394277,-0.00006497055698173283]},{"input_size":5,"size":256,"prev_input":[40,1,52,36,53],"pre_activation_output":0.096952104,"prev_output":0.09668292615141096,"temperature":0.0001,"weights":[0.000407685,0.000052448,0.000657791,0.000216459,0.0007282],"input_errors":[-0.00004963182071112936,-0.000006385027850193431,-0.00008008012861345403,-0.000026351886359622027,-0.00008865175320239302]},{"input_size":5,"size":256,"prev_input":[40,1,52,36,53],"pre_activation_output":0.032425138,"prev_output":0.03241504036787384,"temperature":0.0001,"weights":[0.000113644,0.000131302,0.000092846,0.000197829,0.00029808],"input_errors":[-0.000015577430094610144,-0.00001799791178304177,-0.000012726646382532722,-0.00002711690436152312,-0.00004085880451207571]},{"input_size":5,"size":256,"prev_input":[40,1,52,36,53],"pre_activation_output":0.042030033,"prev_output":0.04200804682094261,"temperature":0.0001,"weights":[0.000188553,0.000104398,0.00031582,0.000004619,0.000335747],"input_errors":[-0.00002536064094134765,-0.000014041638650285795,-0.00004247823634265446,-6.213268323393532e-7,-0.00004515845114529673]},{"input_size":5,"size":256,"prev_input":[40,1,52,36,53],"pre_activation_output":0.193261289,"prev_output":0.1911488349827514,"temperature":0.0001,"weights":[0.000143125,0.001314346,0.001978929,0.000562212,0.001190151],"input_errors":[-0.000015901454675815087,-0.00014602611077725242,-0.0002198631691115148,-0.0000624628085859647,-0.00013222824806162842]},{"input_size":5,"size":256,"prev_input":[40,1,52,36,53],"pre_activation_output":0.011862405999999999,"prev_output":0.011861911434059232,"temperature":0.0001,"weights":[0.000047792,0.000104363,0.00011444,0.000003128,0.000071375],"input_errors":[-0.0000068036207876725176,-0.000014856985876678034,-0.000016291548965512426,-4.452355429901796e-7,-0.000010160924236183225]},{"input_size":5,"size":256,"prev_input":[40,1,52,36,53],"pre_activation_output":0.028564067999999998,"prev_output":0.028557164516371324,"temperature":0.0001,"weights":[0.000057534,0.000254958,0.000309299,0.000016729,0.000175886],"input_errors":[-0.0000074916268007002745,-0.0000331983641241518,-0.00004027428655312242,-0.000002178364653704046,-0.000022902355305415184]},{"input_size":5,"size":256,"prev_input":[40,1,52,36,53],"pre_activation_output":0.113148302,"prev_output":0.11272091537010895,"temperature":0.0001,"weights":[0.000635271,0.000145026,0.000719104,0.000280964,0.000756308],"input_errors":[-0.00007391036629247247,-0.000016872930153015104,-0.00008366406397627151,-0.0000326885978882409,-0.00008799257723397513]},{"input_size":5,"size":256,"prev_input":[40,1,52,36,53],"pre_activation_output":0.043987277000000005,"prev_output":0.043962075438838545,"temperature":0.0001,"weights":[0.00010185,0.000936575,0.000418332,0.000220999,0.000174858],"input_errors":[-0.000011161776661864055,-0.00010263997054166193,-0.00004584545744475083,-0.000024219404771316636,-0.000019162863546227747]},{"input_size":5,"size":256,"prev_input":[40,1,52,36,53],"pre_activation_output":0.036582266,"prev_output":0.036567766789913435,"temperature":0.0001,"weights":[0.000162665,0.000140914,0.000396974,0.000101552,0.000106344],"input_errors":[-0.00002221030960485352,-0.000019240423814309933,-0.0000542030289178146,-0.000013865970385082388,-0.000014520212129709187]},{"input_size":5,"size":256,"prev_input":[40,1,52,36,53],"pre_activation_output":0.048023500999999996,"prev_output":0.047990710054495504,"temperature":0.0001,"weights":[0.000043359,0.000074032,0.000238667,0.000288718,0.000441709],"input_errors":[-0.000005592835607254231,-0.000009549156385988318,-0.00003078526238685484,-0.00003724110686910703,-0.00005697520021825995]},{"input_size":5,"size":256,"prev_input":[40,1,52,36,53],"pre_activation_output":0.041502812,"prev_output":0.04148164255322603,"temperature":0.0001,"weights":[0.000166721,0.000191976,0.000423833,0.000117958,0.000157664],"input_errors":[-0.000019125959485108272,-0.000022023149359682214,-0.000048621557366132896,-0.000013531913386793955,-0.0000180869673957999]},{"input_size":5,"size":256,"prev_input":[40,1,52,36,53],"pre_activation_output":0.09461572299999998,"prev_output":0.09436550293339642,"temperature":0.0001,"weights":[0.000330303,0.000338872,0.001084671,0.000518132,0.000113379],"input_errors":[-0.00003856366393802569,-0.000039564172505493664,-0.00012663848773767996,-0.000060493255152956474,-0.000013237354185132258]},{"input_size":5,"size":256,"prev_input":[40,1,52,36,53],"pre_activation_output":0.021491623,"prev_output":0.021488682189748403,"temperature":0.0001,"weights":[0.000003349,0.000088099,0.00029166,0.0000112,0.000107548],"input_errors":[-4.2685403475469186e-7,-0.000011230066580150382,-0.0000371784478504532,-0.0000014276539470607914,-0.000013709354859508933]},{"input_size":5,"size":256,"prev_input":[40,1,52,36,53],"pre_activation_output":0.10220253399999998,"prev_output":0.10188732274209797,"temperature":0.0001,"weights":[0.000378818,0.000240254,0.00079439,0.000310849,0.000647372],"input_errors":[-0.000046903098022465614,-0.000029746869019104215,-0.00009835718869200865,-0.00003848759642806308,-0.00008015418637691881]},{"input_size":5,"size":256,"prev_input":[40,1,52,36,53],"pre_activation_output":0.053903625999999996,"prev_output":0.053857264258757344,"temperature":0.0001,"weights":[0.000229557,0.000550633,0.000150818,0.000423865,0.000397529],"input_errors":[-0.000029728495993288786,-0.00007130900328326711,-0.000019531569922628076,-0.00005489209278817091,-0.00005148164446227725]},{"input_size":5,"size":256,"prev_input":[40,1,52,36,53],"pre_activation_output":0.056803616,"prev_output":0.056749367552123633,"temperature":0.0001,"weights":[0.000095576,0.000337443,0.000556766,0.000280477,0.000256493],"input_errors":[-0.000010958975341726203,-0.000038692150929910546,-0.00006384057400631826,-0.00003216028399930586,-0.000029410224894777915]},{"input_size":5,"size":256,"prev_input":[40,1,52,36,53],"pre_activation_output":0.166252354,"prev_output":0.1649032461314939,"temperature":0.0001,"weights":[0.00082173,0.000344755,0.000477369,0.000680051,0.001579875],"input_errors":[-0.0000918962756825813,-0.00003855486745084735,-0.000053385597844047466,-0.00007605189757559845,-0.00017668218269905678]},{"input_size":5,"size":256,"prev_input":[40,1,52,36,53],"pre_activation_output":0.09030147699999999,"prev_output":0.09008389051235867,"temperature":0.0001,"weights":[0.000469094,0.000250043,0.000652568,0.000030453,0.00068411],"input_errors":[-0.000055795185687624806,-0.000029740706931761746,-0.0000776182393957535,-0.0000036221453625210727,-0.0000813698999025837]},{"input_size":5,"size":256,"prev_input":[40,1,52,36,53],"pre_activation_output":0.11121181499999999,"prev_output":0.11080594006878752,"temperature":0.0001,"weights":[0.000312846,0.000906694,0.000779845,0.000318204,0.000863849],"input_errors":[-0.00003368557456447959,-0.0000976279068607961,-0.00008396981862051127,-0.000034262520154514396,-0.00009301486359733394]},{"input_size":5,"size":256,"prev_input":[40,1,52,36,53],"pre_activation_output":0.028229409,"prev_output":0.028222745287781705,"temperature":0.0001,"weights":[0.00029312,0.000329281,0.000117851,0.00022701,0.000035372],"input_errors":[-0.00003777543691238039,-0.00004243559581770809,-0.00001518785697743952,-0.000029255562340472233,-0.000004558480401380526]},{"input_size":5,"size":256,"prev_input":[40,1,52,36,53],"pre_activation_output":0.013505234999999999,"prev_output":0.013504505195971081,"temperature":0.0001,"weights":[0.000140152,0.000217798,0.00007293,0.000100512,0.000005105],"input_errors":[-0.000019382736662932788,-0.000030120985426180234,-0.000010086137052907546,-0.000013900647254947077,-7.06081246889771e-7]},{"input_size":5,"size":256,"prev_input":[40,1,52,36,53],"pre_activation_output":0.013114820999999999,"prev_output":0.013114152673892914,"temperature":0.0001,"weights":[0.000075476,0.000039598,0.000138537,0.00003603,0.000029343],"input_errors":[-0.00001000150298241988,-0.000005247293172598347,-0.000018358078399333923,-0.0000047744677258248164,-0.00000388838850084076]},{"input_size":5,"size":256,"prev_input":[40,1,52,36,53],"pre_activation_output":0.106350128,"prev_output":0.10599506451486564,"temperature":0.0001,"weights":[0.00043648,0.000630772,0.000750537,0.000453789,0.000620676],"input_errors":[-0.00005636582133749596,-0.00008145613998100087,-0.000096922670325581,-0.000058601142996417553,-0.00008015261402261143]},{"input_size":5,"size":256,"prev_input":[40,1,52,36,53],"pre_activation_output":0.02931885,"prev_output":0.029311384780251686,"temperature":0.0001,"weights":[0.000129906,0.000132195,0.000240015,0.000155019,0.000111867],"input_errors":[-0.000017682683531103488,-0.00001799428670016113,-0.00003267074322908985,-0.000021101028640439182,-0.00001522734687691284]},{"input_size":5,"size":256,"prev_input":[40,1,52,36,53],"pre_activation_output":0.023314744999999998,"prev_output":0.023310990608581533,"temperature":0.0001,"weights":[0.000003054,0.000185491,0.000199488,0.000175433,0.00011921],"input_errors":[-4.305551340664593e-7,-0.000026153849656485236,-0.000028127563682011492,-0.000024735766160010048,-0.00001680843732323462]},{"input_size":5,"size":256,"prev_input":[40,1,52,36,53],"pre_activation_output":0.058930206,"prev_output":0.05886963877773622,"temperature":0.0001,"weights":[0.000235109,0.00048946,0.000109023,0.000226326,0.000664518],"input_errors":[-0.000029044269309914913,-0.00006046540790598698,-0.00001346825428713089,-0.000027959254541876215,-0.00008209155356847334]},{"input_size":5,"size":256,"prev_input":[40,1,52,36,53],"pre_activation_output":0.043832221000000005,"prev_output":0.043807284895352946,"temperature":0.0001,"weights":[0.000047576,0.000432428,0.000245576,0.000111945,0.000465977],"input_errors":[-0.000005918873792875023,-0.000053798007426558875,-0.00003055197788829968,-0.00001392703614737767,-0.000057972000139723194]},{"input_size":5,"size":256,"prev_input":[40,1,52,36,53],"pre_activation_output":0.009763456,"prev_output":0.009763180245160173,"temperature":0.0001,"weights":[0.000125075,0.000107827,0.000067212,0.0000098,0.000015185],"input_errors":[-0.00001673767845019576,-0.000014429561338192193,-0.000008994444237153698,-0.0000013114183148608893,-0.0000020321299243411727]},{"input_size":5,"size":256,"prev_input":[40,1,52,36,53],"pre_activation_output":0.216680951,"prev_output":0.21371308520469887,"temperature":0.0001,"weights":[0.000411003,0.001034501,0.002283547,0.000877531,0.00092209],"input_errors":[-0.000045818429835695405,-0.00011532569160296454,-0.0002545696046954825,-0.00009782673463631873,-0.0001027944450719674]},{"input_size":5,"size":256,"prev_input":[40,1,52,36,53],"pre_activation_output":0.05383321,"prev_output":0.053787029596240606,"temperature":0.0001,"weights":[0.000014722,0.00003814,0.000430939,0.000358887,0.00033731],"input_errors":[-0.0000018563209836004184,-0.000004808942287255082,-0.00005433644609838959,-0.00004525139576653109,-0.000042530965413260735]},{"input_size":5,"size":256,"prev_input":[40,1,52,36,53],"pre_activation_output":0.030151913000000002,"prev_output":0.030143793313797705,"temperature":0.0001,"weights":[0.000079077,0.000379029,0.000007091,0.000305272,0.00028776],"input_errors":[-0.000010314404111970222,-0.000049438830228890664,-9.249791002765787e-7,-0.00003981837122268831,-0.00003753432914253636]},{"input_size":5,"size":256,"prev_input":[40,1,52,36,53],"pre_activation_output":0.09114942999999999,"prev_output":0.09092566764773899,"temperature":0.0001,"weights":[0.000336745,0.000453944,0.000633494,0.000658721,0.000388114],"input_errors":[-0.00003873427942206472,-0.0000522151942889595,-0.00007286821973140689,-0.00007576983525106974,-0.000044643192854456017]},{"input_size":5,"size":256,"prev_input":[40,1,52,36,53],"pre_activation_output":0.028701046,"prev_output":0.028694042741397915,"temperature":0.0001,"weights":[0.000026151,0.000087227,0.000278311,0.000088292,0.000187115],"input_errors":[-0.0000033083722626695087,-0.000011035185493460253,-0.00003520937546679484,-0.000011169884879250422,-0.000023672094055766003]},{"input_size":5,"size":256,"prev_input":[40,1,52,36,53],"pre_activation_output":0.030439,"prev_output":0.030430646215723486,"temperature":0.0001,"weights":[0.000010599,0.000207589,0.000239409,0.000212945,0.000182871],"input_errors":[-0.0000014289064418402507,-0.000027986876985886854,-0.00003227703729536665,-0.00002870902469692184,-0.000024654632772298458]},{"input_size":5,"size":256,"prev_input":[40,1,52,36,53],"pre_activation_output":0.009342369,"prev_output":0.009342127406837724,"temperature":0.0001,"weights":[0.000055103,0.000059647,0.000003791,0.000079531,0.000075818],"input_errors":[-0.000008280157092347977,-0.00000896290944030832,-5.695984191152259e-7,-0.000011950848704517437,-0.000011392940106819567]},{"input_size":5,"size":256,"prev_input":[40,1,52,36,53],"pre_activation_output":0.040455531,"prev_output":0.04043592346153088,"temperature":0.0001,"weights":[0.000388414,0.000454224,0.000139587,0.000012777,0.000315967],"input_errors":[-0.000046459078768709766,-0.00005433074454917324,-0.00001669641235646243,-0.0000015282578904959833,-0.000037793659892111226]},{"input_size":5,"size":256,"prev_input":[40,1,52,36,53],"pre_activation_output":0.020483573,"prev_output":0.020481026857952275,"temperature":0.0001,"weights":[0.000155527,0.000280905,0.000081988,0.000027864,0.000164436],"input_errors":[-0.00001860374446226114,-0.000033601113830731054,-0.000009807175068327183,-0.0000033330509683670278,-0.000019669494889924946]},{"input_size":5,"size":256,"prev_input":[40,1,52,36,53],"pre_activation_output":0.032640649,"prev_output":0.03263034873562021,"temperature":0.0001,"weights":[0.000014102,0.00020813,0.000247797,0.000078656,0.000304743],"input_errors":[-0.0000019036798833930795,-0.00002809518557990658,-0.000033449907169615846,-0.000010617691213615592,-0.00004113706840064933]},{"input_size":5,"size":256,"prev_input":[40,1,52,36,53],"pre_activation_output":0.056200649000000005,"prev_output":0.05614810861943783,"temperature":0.0001,"weights":[0.000369121,0.000056675,0.000671082,0.000031983,0.000100594],"input_errors":[-0.00004452080611392073,-0.000006835716094603121,-0.00008094160597970475,-0.0000038575239253481485,-0.000012132976834517625]},{"input_size":5,"size":256,"prev_input":[40,1,52,36,53],"pre_activation_output":0.017671017,"prev_output":0.01766938219614075,"temperature":0.0001,"weights":[0.000071008,0.00004798,0.000198893,0.000031738,0.000062221],"input_errors":[-0.00000964162134235309,-0.000006514804866974568,-0.00002700625888533726,-0.000004309470509003068,-0.00000844858876361377]},{"input_size":5,"size":256,"prev_input":[40,1,52,36,53],"pre_activation_output":0.050165344,"prev_output":0.05012796966706734,"temperature":0.0001,"weights":[0.000033319,0.000457149,0.000006312,0.000041829,0.000878139],"input_errors":[-0.0000036334270879632098,-0.00004985207158556266,-6.882770975851931e-7,-0.000004561484306446054,-0.00009576129722587398]},{"input_size":5,"size":256,"prev_input":[40,1,52,36,53],"pre_activation_output":0.051478363,"prev_output":0.05143797829208376,"temperature":0.0001,"weights":[0.000116471,0.000365568,0.000443365,0.000047469,0.000409247],"input_errors":[-0.000014806044250950003,-0.000046471630175146145,-0.00005636160763044954,-0.000006034405653029435,-0.000052024427254829215]},{"input_size":5,"size":256,"prev_input":[40,1,52,36,53],"pre_activation_output":1.539949104,"prev_output":0.9356171073927759,"temperature":0.0001,"weights":[0.011113189,0.012394979,0.007519006,0.009959113,0.006292645],"input_errors":[-0.0010961130654332711,-0.0012225375408265033,-0.0007416143459701268,-0.0009822843957401543,-0.0006206557967013039]},{"input_size":5,"size":256,"prev_input":[40,1,52,36,53],"pre_activation_output":0.041731314000000005,"prev_output":0.04170979310312012,"temperature":0.0001,"weights":[0.000248686,0.000117919,0.000466912,0.000027733,0.000120531],"input_errors":[-0.00003135202653969584,-0.000014866161640676451,-0.00005886419578799951,-0.000003496332963684201,-0.00001519551228764322]},{"input_size":5,"size":256,"prev_input":[40,1,52,36,53],"pre_activation_output":0.033456857,"prev_output":0.03344576475051169,"temperature":0.0001,"weights":[0.000102055,0.000090481,0.000213273,0.000167054,0.000229812],"input_errors":[-0.000013649288112515703,-0.000012101315653215747,-0.000028524301368597016,-0.000022342660550843706,-0.00003073619604054967]},{"input_size":5,"size":256,"prev_input":[40,1,52,36,53],"pre_activation_output":0.05740737,"prev_output":0.05735137460018767,"temperature":0.0001,"weights":[0.000079345,0.000008436,0.000388524,0.000363027,0.000395338],"input_errors":[-0.000010014816167092112,-0.000001064830219339053,-0.000049039402822962604,-0.00004582103241250317,-0.00004989945748284389]},{"input_size":5,"size":256,"prev_input":[40,1,52,36,53],"pre_activation_output":0.054537503,"prev_output":0.05448948748336908,"temperature":0.0001,"weights":[0.00016444,0.000191013,0.000254327,0.000205542,0.000512158],"input_errors":[-0.000021423741917664103,-0.000024885716786661214,-0.00003313451277949498,-0.000026778530405125135,-0.00006672560488454173]},{"input_size":5,"size":256,"prev_input":[40,1,52,36,53],"pre_activation_output":0.042657662,"prev_output":0.042634676496372044,"temperature":0.0001,"weights":[0.000037289,0.000296024,0.000477114,0.000304991,0.000095858],"input_errors":[-0.000005006863069531366,-0.00003974765579843036,-0.00006406326282220004,-0.00004095170816913592,-0.000012871040701391436]},{"input_size":5,"size":256,"prev_input":[40,1,52,36,53],"pre_activation_output":0.024539339999999996,"prev_output":0.024534962484514904,"temperature":0.0001,"weights":[0.000199413,0.000234179,0.00022724,0.000108659,0.000011329],"input_errors":[-0.000023565623802635752,-0.000027674130562565743,-0.000026854127800340667,-0.000012840720632506705,-0.0000013388164327726244]},{"input_size":5,"size":256,"prev_input":[40,1,52,36,53],"pre_activation_output":0.016950349,"prev_output":0.016948906152054175,"temperature":0.0001,"weights":[0.000031109,0.000084335,0.000220423,0.000034194,0.000055258],"input_errors":[-0.000004208308291945285,-0.000011408486272400854,-0.000029817931435120885,-0.000004625602501414893,-0.000007475126052124974]},{"input_size":5,"size":256,"prev_input":[40,1,52,36,53],"pre_activation_output":0.055963453,"prev_output":0.05591157459941015,"temperature":0.0001,"weights":[0.000370043,0.000376468,0.000413698,0.000267114,0.000182205],"input_errors":[-0.000047820443113661194,-0.00004865073393758066,-0.00005346212913880752,-0.00003451896698074102,-0.00002354631230297632]},{"input_size":5,"size":256,"prev_input":[40,1,52,36,53],"pre_activation_output":0.014269836,"prev_output":0.014268975098050416,"temperature":0.0001,"weights":[0.000033757,0.000135752,0.00012706,0.00012507,0.000031588],"input_errors":[-0.0000050333168789096,-0.000020241323028248513,-0.000018945408547320258,-0.00001864862237668691,-0.000004709926433578253]},{"input_size":5,"size":256,"prev_input":[40,1,52,36,53],"pre_activation_output":0.017614177,"prev_output":0.017612557919735965,"temperature":0.0001,"weights":[0.00001033,0.000142005,0.00004989,0.000113742,0.00019566],"input_errors":[-0.0000013976797332339143,-0.000019214097825753563,-0.000006750498700746881,-0.000015389977586594254,-0.000026474046984728226]},{"input_size":5,"size":256,"prev_input":[40,1,52,36,53],"pre_activation_output":0.018435832,"prev_output":0.0184339756269769,"temperature":0.0001,"weights":[0.0000561,0.000181695,0.000125762,0.000019657,0.000165337],"input_errors":[-0.000007780601228454351,-0.00002519972005101488,-0.000017442229108811838,-0.0000027262624668201855,-0.00002293107379935821]},{"input_size":5,"size":256,"prev_input":[40,1,52,36,53],"pre_activation_output":0.039499243999999996,"prev_output":0.039480993836007026,"temperature":0.0001,"weights":[0.000091052,0.000141118,0.000410406,0.000103867,0.000200674],"input_errors":[-0.000010738559275820169,-0.00001664331914294477,-0.00004840298451928718,-0.000012249966627206674,-0.000023667300306329516]},{"input_size":5,"size":256,"prev_input":[40,1,52,36,53],"pre_activation_output":0.058679669,"prev_output":0.05861987040148307,"temperature":0.0001,"weights":[0.000153191,0.000031015,0.00035192,0.000125599,0.00056037],"input_errors":[-0.000017744314667674727,-0.0000035925594417630893,-0.000040763482115164945,-0.000014548324165544228,-0.00006490854027122989]},{"input_size":5,"size":256,"prev_input":[40,1,52,36,53],"pre_activation_output":0.178268449,"prev_output":0.17660743496007392,"temperature":0.0001,"weights":[0.000612333,0.000571291,0.000723465,0.00094269,0.001540506],"input_errors":[-0.0000679937090682544,-0.00006343636023647172,-0.00008033414621989731,-0.00010467674526394989,-0.00017105894786735782]},{"input_size":5,"size":256,"prev_input":[40,1,52,36,53],"pre_activation_output":0.126155511,"prev_output":0.12556374905819018,"temperature":0.0001,"weights":[0.000119141,0.000844109,0.001105839,0.000689018,0.000721462],"input_errors":[-0.000014448197025827946,-0.0001023645847294899,-0.00013410502941541772,-0.00008355686087113112,-0.00008749154161779905]},{"input_size":5,"size":256,"prev_input":[40,1,52,36,53],"pre_activation_output":0.037283097,"prev_output":0.03726774867508377,"temperature":0.0001,"weights":[0.000360542,0.000224288,0.000256896,0.000145464,0.000076261],"input_errors":[-0.000045308955737132184,-0.00002818599383831521,-0.00003228394199475883,-0.000018280299945319133,-0.000009583700734017752]},{"input_size":5,"size":256,"prev_input":[40,1,52,36,53],"pre_activation_output":0.054886374,"prev_output":0.05483743174703752,"temperature":0.0001,"weights":[0.000312787,0.00020757,0.000233735,0.000315693,0.000351852],"input_errors":[-0.00004268306634655378,-0.000028325034503495886,-0.0000318956754548794,-0.00004307955677483001,-0.00004801401186737845]},{"input_size":5,"size":256,"prev_input":[40,1,52,36,53],"pre_activation_output":0.021522962,"prev_output":0.02152000830747308,"temperature":0.0001,"weights":[0.000142355,0.000138087,0.000088843,0.000083429,0.000152215],"input_errors":[-0.000019290334445149397,-0.000018712002349313218,-0.000012039062984645409,-0.000011305325881833675,-0.000020626514314505385]},{"input_size":5,"size":256,"prev_input":[40,1,52,36,53],"pre_activation_output":0.04625196299999999,"prev_output":0.04622266707908662,"temperature":0.0001,"weights":[0.000288014,0.000205332,0.000157866,0.00012494,0.000411683],"input_errors":[-0.00003692828044068737,-0.00002632696470193144,-0.000020241091114397987,-0.000016019395710175812,-0.00005278487604427812]},{"input_size":5,"size":256,"prev_input":[40,1,52,36,53],"pre_activation_output":0.018407281,"prev_output":0.018405433237700743,"temperature":0.0001,"weights":[0.00006935,0.000150583,0.000124235,0.000067318,0.00012451],"input_errors":[-0.000009189141211611416,-0.000019952729313117766,-0.000016461694191987992,-0.000008919830353436612,-0.00001649802594096836]},{"input_size":5,"size":256,"prev_input":[40,1,52,36,53],"pre_activation_output":0.036167688,"prev_output":0.03615367603190328,"temperature":0.0001,"weights":[0.00022947,0.000361964,0.000048977,0.000207221,0.000313588],"input_errors":[-0.000029903733080987788,-0.00004716989625335187,-0.000006382601639945473,-0.00002700438722723364,-0.00004086589361369357]},{"input_size":5,"size":256,"prev_input":[40,1,52,36,53],"pre_activation_output":0.12941005300000002,"prev_output":0.1287714769314903,"temperature":0.0001,"weights":[0.000906664,0.00062194,0.000637727,0.000254951,0.000946821],"input_errors":[-0.00010394610350901428,-0.0000713033726371121,-0.00007311350425833778,-0.000029229291542898646,-0.00010855021833281183]},{"input_size":5,"size":256,"prev_input":[40,1,52,36,53],"pre_activation_output":0.187350136,"prev_output":0.1854242237285291,"temperature":0.0001,"weights":[0.000990287,0.000890735,0.001312865,0.000034386,0.001459265],"input_errors":[-0.0001171397955351827,-0.00010536387666216615,-0.00015529761565524224,-0.00000406743011962993,-0.00017261506264417092]},{"input_size":5,"size":256,"prev_input":[40,1,52,36,53],"pre_activation_output":0.040090633,"prev_output":0.040071551067685895,"temperature":0.0001,"weights":[0.000125793,0.000196892,0.000287994,0.000229821,0.000219109],"input_errors":[-0.000015752022289888947,-0.000024655102871431856,-0.00003606315379830991,-0.0000287785270012627,-0.00002743729392823985]},{"input_size":5,"size":256,"prev_input":[40,1,52,36,53],"pre_activation_output":0.021928041000000002,"prev_output":0.02192491739489812,"temperature":0.0001,"weights":[0.000021613,0.000120757,0.000185359,0.000198498,0.000078456],"input_errors":[-0.000002765179449608827,-0.00001544997060352459,-0.000023715492053536394,-0.000025396407455032535,-0.000010037905331049422]},{"input_size":5,"size":256,"prev_input":[40,1,52,36,53],"pre_activation_output":0.10918388700000001,"prev_output":0.10879975584014573,"temperature":0.0001,"weights":[0.000054051,0.000192965,0.000933805,0.000802731,0.000554202],"input_errors":[-0.000006089301059304585,-0.000021739147524635635,-0.00010520127040797265,-0.00009043434199188985,-0.00006243570648264811]},{"input_size":5,"size":256,"prev_input":[40,1,52,36,53],"pre_activation_output":0.024956400000000004,"prev_output":0.02495179550630011,"temperature":0.0001,"weights":[0.000102771,0.000064814,0.000158737,0.000197975,0.000101874],"input_errors":[-0.000014322108879190597,-0.000009032394244350796,-0.00002212145103147057,-0.000027589545907597077,-0.0000141970606479803]},{"input_size":5,"size":256,"prev_input":[40,1,52,36,53],"pre_activation_output":0.073911538,"prev_output":0.07379211916711767,"temperature":0.0001,"weights":[0.000310191,0.000315551,0.000265032,0.000452041,0.000587419],"input_errors":[-0.00003840872594199336,-0.000039072384368869315,-0.000032817055176313586,-0.0000559728805321141,-0.00007273600043651611]},{"input_size":5,"size":256,"prev_input":[40,1,52,36,53],"pre_activation_output":0.019076778,"prev_output":0.019074721216308776,"temperature":0.0001,"weights":[0.000076247,0.000090724,0.000154908,0.000041233,0.00012069],"input_errors":[-0.000012034791687159074,-0.000014319844387051038,-0.000024450827271998963,-0.000006508171027059015,-0.000019049754703723486]},{"input_size":5,"size":256,"prev_input":[40,1,52,36,53],"pre_activation_output":0.042850556,"prev_output":0.042827257397305654,"temperature":0.0001,"weights":[0.000266152,0.000230953,0.000062464,0.000227019,0.000387787],"input_errors":[-0.00003324745465684186,-0.000028850342033512586,-0.000007802907527171792,-0.000028358998252550597,-0.000048442122436323736]},{"input_size":5,"size":256,"prev_input":[40,1,52,36,53],"pre_activation_output":0.047348992,"prev_output":0.047317562750874294,"temperature":0.0001,"weights":[0.000328908,0.000170515,0.000121092,0.000302093,0.000317925],"input_errors":[-0.000040790575444512564,-0.000021146922769535585,-0.000015017679134451049,-0.00003746492727649215,-0.000039428519750917214]},{"input_size":5,"size":256,"prev_input":[40,1,52,36,53],"pre_activation_output":0.040546484,"prev_output":0.040526743966163604,"temperature":0.0001,"weights":[0.000351537,0.000869726,0.000138743,0.000112089,0.000271046],"input_errors":[-0.00003805500848012173,-0.00009415048749554606,-0.000015019380608691312,-0.000012134018919897507,-0.00002934160136138697]},{"input_size":5,"size":256,"prev_input":[40,1,52,36,53],"pre_activation_output":0.048584348,"prev_output":0.04855039534149645,"temperature":0.0001,"weights":[0.00029886,0.000210703,0.000283213,0.000329067,0.000185769],"input_errors":[-0.00003758296134524977,-0.000026496745480467496,-0.00003561539862226004,-0.00004138152515991271,-0.000023361356508251724]},{"input_size":5,"size":256,"prev_input":[40,1,52,36,53],"pre_activation_output":0.039023158,"prev_output":0.039005559604774497,"temperature":0.0001,"weights":[0.000191711,0.000278354,0.000097702,0.000379686,0.000232588],"input_errors":[-0.000022474134824750928,-0.000032631266051309286,-0.000011453587395852174,-0.00004451044499109701,-0.000027266251394956192]},{"input_size":5,"size":256,"prev_input":[40,1,52,36,53],"pre_activation_output":0.07939411299999999,"prev_output":0.07924614099136075,"temperature":0.0001,"weights":[0.000380742,0.000052998,0.000560123,0.000074047,0.000609799],"input_errors":[-0.00004263486295253994,-0.000005934602342702644,-0.00006272183722760979,-0.000008291691455148798,-0.00006828450653038678]},{"input_size":5,"size":256,"prev_input":[40,1,52,36,53],"pre_activation_output":0.07685937300000001,"prev_output":0.076725108129559,"temperature":0.0001,"weights":[0.000074903,0.000322651,0.000401479,0.000583101,0.000597586],"input_errors":[-0.000009398566061861043,-0.00004048477667229437,-0.00005037601921194062,-0.00007316502161340996,-0.00007498270129296993]},{"input_size":5,"size":256,"prev_input":[40,1,52,36,53],"pre_activation_output":0.075069921,"prev_output":0.07494480609702389,"temperature":0.0001,"weights":[0.000203078,0.000454645,0.000550389,0.000464069,0.000399348],"input_errors":[-0.000026032212048697507,-0.00005828021574330669,-0.00007055370017229376,-0.000059488282993131536,-0.00005119187282390093]},{"input_size":5,"size":256,"prev_input":[40,1,52,36,53],"pre_activation_output":0.02999778,"prev_output":0.029989784174261305,"temperature":0.0001,"weights":[0.000060827,0.00021211,0.000253498,0.000104907,0.000196114],"input_errors":[-0.000007716884667502713,-0.00002690961751764931,-0.00003216045872370503,-0.000013309189462437158,-0.000024880339636154527]},{"input_size":5,"size":256,"prev_input":[40,1,52,36,53],"pre_activation_output":0.033516828,"prev_output":0.033505676010296546,"temperature":0.0001,"weights":[0.000111548,0.000023419,0.000267485,0.000196961,0.000151541],"input_errors":[-0.000013412598019642183,-0.000002815922667000844,-0.00003216258231462258,-0.000023682653110739977,-0.000018221428300803678]},{"input_size":5,"size":256,"prev_input":[40,1,52,36,53],"pre_activation_output":0.097896603,"prev_output":0.09761949828764728,"temperature":0.0001,"weights":[0.000246922,0.000284646,0.00045182,0.000405083,0.000936933],"input_errors":[-0.000027277820659658756,-0.00003144523416979584,-0.00004991335667496025,-0.00004475006716940496,-0.00010350458991667015]},{"input_size":5,"size":256,"prev_input":[40,1,52,36,53],"pre_activation_output":0.028675843,"prev_output":0.028668858170967922,"temperature":0.0001,"weights":[0.000205808,0.000173088,0.00025175,0.000169444,0.000020367],"input_errors":[-0.000026929641574645985,-0.000022648251970566042,-0.00003294127162949884,-0.00002217145417439435,-0.0000026650151581997457]},{"input_size":5,"size":256,"prev_input":[40,1,52,36,53],"pre_activation_output":0.20093612,"prev_output":0.19856423125533312,"temperature":0.0001,"weights":[0.000524006,0.00169172,0.001536016,0.000990372,0.001184112],"input_errors":[-0.00005617974455130005,-0.0001813724626624821,-0.00016467971147386923,-0.00010617966523876651,-0.00012695128393001777]},{"input_size":5,"size":256,"prev_input":[40,1,52,36,53],"pre_activation_output":0.07736163199999999,"prev_output":0.0772247212457763,"temperature":0.0001,"weights":[0.000317387,0.00049068,0.000572464,0.000190204,0.00052],"input_errors":[-0.00004105782580160646,-0.00006347531381354092,-0.00007405533057863755,-0.00002460510086642598,-0.00006726847641894585]},{"input_size":5,"size":256,"prev_input":[40,1,52,36,53],"pre_activation_output":0.041891469,"prev_output":0.04186969947165169,"temperature":0.0001,"weights":[0.000218486,0.000263778,0.000357906,0.000224798,0.000116687],"input_errors":[-0.000030667870342523816,-0.000037025305224516965,-0.000050237828284731506,-0.00003155393808858656,-0.000016378837417370658]},{"input_size":5,"size":256,"prev_input":[40,1,52,36,53],"pre_activation_output":0.049127187,"prev_output":0.04909208412656131,"temperature":0.0001,"weights":[0.000461377,0.000172596,0.000262205,0.000119971,0.000236715],"input_errors":[-0.00005658018463326384,-0.000021166042443561795,-0.00003215514482334595,-0.000014712471883732887,-0.000029029153142323868]},{"input_size":5,"size":256,"prev_input":[40,1,52,36,53],"pre_activation_output":0.164242174,"prev_output":0.16294112807200395,"temperature":0.0001,"weights":[0.000445367,0.000569052,0.000954504,0.001214038,0.000990922],"input_errors":[-0.00005082298093792605,-0.00006493716961458436,-0.0001089233876619174,-0.00013853970041467423,-0.00011307917502955555]},{"input_size":5,"size":256,"prev_input":[40,1,52,36,53],"pre_activation_output":0.053463639,"prev_output":0.05341840258530449,"temperature":0.0001,"weights":[0.000195857,0.000268829,0.000460054,0.000277401,0.000216062],"input_errors":[-0.000024252596010314067,-0.00003328850371050441,-0.00005696767026472115,-0.000034349918363249304,-0.000026754489258797445]},{"input_size":5,"size":256,"prev_input":[40,1,52,36,53],"pre_activation_output":0.048258774000000004,"prev_output":0.04822549900006892,"temperature":0.0001,"weights":[0.000173689,0.000082078,0.000432615,0.000227935,0.000198632],"input_errors":[-0.000023118640256060176,-0.000010924946811973368,-0.000057582929706553224,-0.000030339009326216576,-0.00002643879057459616]},{"input_size":5,"size":256,"prev_input":[40,1,52,36,53],"pre_activation_output":0.044946271999999995,"prev_output":0.04491938669924711,"temperature":0.0001,"weights":[0.000178648,0.000353327,0.000446545,0.000145036,0.000169913],"input_errors":[-0.00002281952760219114,-0.000045131900800094726,-0.00005703923667639121,-0.000018526022339801177,-0.000021703751826010934]},{"input_size":5,"size":256,"prev_input":[40,1,52,36,53],"pre_activation_output":0.041719677999999996,"prev_output":0.04169817509324936,"temperature":0.0001,"weights":[0.000087073,0.000060651,0.000436434,0.000284412,0.000098919],"input_errors":[-0.00001113986316522531,-0.000007759436074955781,-0.00005583603878492569,-0.00003638674146571889,-0.000012655376468686942]},{"input_size":5,"size":256,"prev_input":[40,1,52,36,53],"pre_activation_output":0.043037634,"prev_output":0.04301402903665288,"temperature":0.0001,"weights":[0.000282306,0.000022971,0.000359041,0.000013619,0.000237019],"input_errors":[-0.00003770846322642374,-0.000003068300487868153,-0.00004795833691617724,-0.0000018190800200456536,-0.00003165941871913268]},{"input_size":5,"size":256,"prev_input":[40,1,52,36,53],"pre_activation_output":0.019916418999999998,"prev_output":0.01991407853275931,"temperature":0.0001,"weights":[0.000214702,0.000321464,0.000151479,0.000012162,0.000050795],"input_errors":[-0.00002593704995301713,-0.000038834487282556856,-0.000018299546444861462,-0.0000014691906504530337,-0.0000061363335469756705]},{"input_size":5,"size":256,"prev_input":[40,1,52,36,53],"pre_activation_output":0.050779833999999996,"prev_output":0.0507410701482218,"temperature":0.0001,"weights":[0.000175224,0.00023878,0.000421491,0.000229908,0.000251658],"input_errors":[-0.000024276471392249165,-0.00003308189590950761,-0.00005839597650862904,-0.00003185281824728938,-0.00003486627022225939]},{"input_size":5,"size":256,"prev_input":[40,1,52,36,53],"pre_activation_output":0.027606789000000003,"prev_output":0.027600556481241285,"temperature":0.0001,"weights":[0.000029759,0.000134861,0.000341721,0.000196779,0.000026944],"input_errors":[-0.0000040965501673258824,-0.000018564902413799828,-0.00004704138182573363,-0.00002708855466718867,-0.0000037091762856318415]},{"input_size":5,"size":256,"prev_input":[40,1,52,36,53],"pre_activation_output":0.042532599,"prev_output":0.04250981498889317,"temperature":0.0001,"weights":[0.000050676,0.00003601,0.000691983,0.000045263,0.000053905],"input_errors":[-0.00000583200465439263,-0.000004144180998344669,-0.00007963637474213222,-0.00000520902254683563,-0.00000620358903742424]},{"input_size":5,"size":256,"prev_input":[40,1,52,36,53],"pre_activation_output":0.049735811000000005,"prev_output":0.04969938798566369,"temperature":0.0001,"weights":[0.000207814,0.000004095,0.000005235,0.00020394,0.000637832],"input_errors":[-0.00002426385671968458,-4.780835885088299e-7,-6.111834862345057e-7,-0.000023811572060558103,-0.00007447190502179843]},{"input_size":5,"size":256,"prev_input":[40,1,52,36,53],"pre_activation_output":0.050665378,"prev_output":0.05062687552614057,"temperature":0.0001,"weights":[0.000091128,0.000236,0.00041036,0.000032846,0.000457794],"input_errors":[-0.00001166962984398946,-0.00003022149038040521,-0.00005254975551212808,-0.000004206121281679601,-0.000058623944103367584]},{"input_size":5,"size":256,"prev_input":[40,1,52,36,53],"pre_activation_output":0.537047957,"prev_output":0.49517830647345906,"temperature":0.0001,"weights":[0.00517597,0.003163284,0.003435687,0.000162356,0.002685761],"input_errors":[-0.00046236389047362233,-0.0002825726362583826,-0.00030690696418911816,-0.000014503089339887872,-0.00023991661481267282]},{"input_size":5,"size":256,"prev_input":[40,1,52,36,53],"pre_activation_output":0.023603164,"prev_output":0.023599268562395463,"temperature":0.0001,"weights":[0.000151738,0.000126549,0.000257573,0.000066909,0.000030275],"input_errors":[-0.000016822866874431636,-0.00001403026289982775,-0.00002855669006878358,-0.000007418017815162284,-0.000003356481149446216]},{"input_size":5,"size":256,"prev_input":[40,1,52,36,53],"pre_activation_output":0.04325066799999999,"prev_output":0.04322671091545011,"temperature":0.0001,"weights":[0.000092413,0.000422364,0.000194427,0.000235928,0.000387324],"input_errors":[-0.000011425786021520354,-0.000052220076532710885,-0.000024038569643867435,-0.000029169567273095727,-0.000047887958062934715]},{"input_size":5,"size":256,"prev_input":[40,1,52,36,53],"pre_activation_output":0.015261905999999999,"prev_output":0.015260852780654198,"temperature":0.0001,"weights":[0.000012415,0.000136155,0.000094869,0.00009633,0.000117511],"input_errors":[-0.0000016645157734279698,-0.00001825545192372882,-0.000012719943207140902,-0.00001291574390271458,-0.000015755770528130976]},{"input_size":5,"size":256,"prev_input":[40,1,52,36,53],"pre_activation_output":0.085159891,"prev_output":0.08497734054659897,"temperature":0.0001,"weights":[0.000207551,0.000777395,0.000487451,0.000627665,0.000530888],"input_errors":[-0.000025193128146775967,-0.00009436230492396992,-0.000059168367661513654,-0.00007618765964800386,-0.00006444088311211584]},{"input_size":5,"size":256,"prev_input":[40,1,52,36,53],"pre_activation_output":0.016744918999999997,"prev_output":0.016743527975475167,"temperature":0.0001,"weights":[0.000149481,0.000038687,0.000004975,0.000079469,0.000143536],"input_errors":[-0.000020399893084756236,-0.000005279714704143309,-6.788898431773873e-7,-0.000010845303132855987,-0.000019588604529004505]},{"input_size":5,"size":256,"prev_input":[40,1,52,36,53],"pre_activation_output":0.051246410000000006,"prev_output":0.051206568420349,"temperature":0.0001,"weights":[0.000063928,0.000192692,0.000545792,0.000178778,0.000258102],"input_errors":[-0.000007653247788458673,-0.00002306833811361171,-0.00006534024242517826,-0.000021402613964982004,-0.000030899045718929914]},{"input_size":5,"size":256,"prev_input":[40,1,52,36,53],"pre_activation_output":0.01372528,"prev_output":0.013724513940343727,"temperature":0.0001,"weights":[0.0000326,0.000340492,0.00007081,0.000072141,0.000109464],"input_errors":[-0.000004090909928894229,-0.000042727077760174716,-0.000008885728259543201,-0.000009052642431622198,-0.000013736307601421816]},{"input_size":5,"size":256,"prev_input":[40,1,52,36,53],"pre_activation_output":0.10820517500000001,"prev_output":0.10783125503160408,"temperature":0.0001,"weights":[0.00077389,0.00082065,0.000390203,0.000601617,0.000650569],"input_errors":[-0.00009008882102637888,-0.00009553213356720396,-0.00004542375323861359,-0.00007003443059293568,-0.00007573315622061076]},{"input_size":5,"size":256,"prev_input":[40,1,52,36,53],"pre_activation_output":0.042873195,"prev_output":0.042849859465208764,"temperature":0.0001,"weights":[0.0002679,0.000138487,0.000195187,0.000254957,0.000239444],"input_errors":[-0.000034894774994643996,-0.000018038337728380166,-0.000025423758400269763,-0.0000332088654938957,-0.00003118838123232627]},{"input_size":5,"size":256,"prev_input":[40,1,52,36,53],"pre_activation_output":0.062102217,"prev_output":0.06203134256948947,"temperature":0.0001,"weights":[0.000307579,0.000154561,0.000455937,0.000132038,0.000399668],"input_errors":[-0.000041596125844956275,-0.00002090236178468555,-0.00006165990432038661,-0.000017856469364824107,-0.000054050130008608465]},{"input_size":5,"size":256,"prev_input":[40,1,52,36,53],"pre_activation_output":0.086761261,"prev_output":0.0865682351673501,"temperature":0.0001,"weights":[0.000355164,0.000554696,0.000428568,0.000299014,0.000734905],"input_errors":[-0.000040364986393516456,-0.00006304197759817729,-0.000048707501266823574,-0.00003398340189815894,-0.00008352334018471603]},{"input_size":5,"size":256,"prev_input":[40,1,52,36,53],"pre_activation_output":0.034134415,"prev_output":0.034122635279813594,"temperature":0.0001,"weights":[0.000084876,0.000125961,0.000224315,0.000047298,0.000325402],"input_errors":[-0.00001062710379319793,-0.000015771169338029647,-0.00002808590516945731,-0.000005922012632012897,-0.000040742755592248936]},{"input_size":5,"size":256,"prev_input":[40,1,52,36,53],"pre_activation_output":0.078160957,"prev_output":0.07801976426890679,"temperature":0.0001,"weights":[0.000400862,0.000288086,0.00018646,0.00042399,0.000695827],"input_errors":[-0.00005158846260933546,-0.00003707478927257567,-0.000023996305917019566,-0.000054564802979194165,-0.00008954885523882831]},{"input_size":5,"size":256,"prev_input":[40,1,52,36,53],"pre_activation_output":0.038255513000000005,"prev_output":0.03823893254272292,"temperature":0.0001,"weights":[0.000154921,0.000108148,0.000354475,0.000335302,0.000027301],"input_errors":[-0.000017815959785728942,-0.000012437117030143524,-0.00004076496065578062,-0.00003855990047668997,-0.0000031396552875818137]},{"input_size":5,"size":256,"prev_input":[40,1,52,36,53],"pre_activation_output":0.025063582,"prev_output":0.025058917933753012,"temperature":0.0001,"weights":[0.000135502,0.000189578,0.000195136,0.000127384,0.000089076],"input_errors":[-0.00001901808950353783,-0.000026607655620171252,-0.00002738786824959291,-0.000017878659306129965,-0.000012502081782202953]},{"input_size":5,"size":256,"prev_input":[40,1,52,36,53],"pre_activation_output":0.029250148,"prev_output":0.029242735126525678,"temperature":0.0001,"weights":[0.000050454,0.000274383,0.000005928,0.000417235,0.000219413],"input_errors":[-0.0000060073859519595315,-0.00003266964898596304,-7.057765177931826e-7,-0.00004967850268660069,-0.000026124652416874447]},{"input_size":5,"size":256,"prev_input":[40,1,52,36,53],"pre_activation_output":0.05385977799999999,"prev_output":0.05381352923309599,"temperature":0.0001,"weights":[0.000279618,0.000491995,0.000407026,0.00026502,0.000216547],"input_errors":[-0.000035955665726860666,-0.00006326474204393725,-0.000052339013301685174,-0.000034078515492514744,-0.00002784553843959581]},{"input_size":5,"size":256,"prev_input":[40,1,52,36,53],"pre_activation_output":0.038152799,"prev_output":0.03813635169436989,"temperature":0.0001,"weights":[0.000068942,0.000284276,0.000217607,0.000266261,0.000268111],"input_errors":[-0.000009220860609504808,-0.00003802141845493182,-0.00002910458651529491,-0.00003561196397493288,-0.00003585953300353021]},{"input_size":5,"size":256,"prev_input":[40,1,52,36,53],"pre_activation_output":0.016611825,"prev_output":0.01661046687945718,"temperature":0.0001,"weights":[0.000051307,0.00028264,0.00015307,0.000026978,0.000100869],"input_errors":[-0.000006018066403874935,-0.000033152457771263974,-0.000017954528488470774,-0.000003164447451425011,-0.000011831490198718127]},{"input_size":5,"size":256,"prev_input":[40,1,52,36,53],"pre_activation_output":0.046439946999999995,"prev_output":0.0464102925911121,"temperature":0.0001,"weights":[0.000401967,0.000196373,0.000309108,0.00007053,0.000217966],"input_errors":[-0.000046372318617861996,-0.000022654216882004394,-0.000035659828733913876,-0.000008136615382852672,-0.000025145413282528565]},{"input_size":5,"size":256,"prev_input":[40,1,52,36,53],"pre_activation_output":0.023886118,"prev_output":0.02388208079915105,"temperature":0.0001,"weights":[0.000052967,0.000181608,0.000120848,0.000115643,0.000210162],"input_errors":[-0.0000076188876940332355,-0.000026122687753267963,-0.000017382901807014803,-0.00001663424105101501,-0.00003022997549637911]},{"input_size":5,"size":256,"prev_input":[40,1,52,36,53],"pre_activation_output":0.588058938,"prev_output":0.5340322508106112,"temperature":0.0001,"weights":[0.001003012,0.002594654,0.002881274,0.002993922,0.005428988],"input_errors":[-0.00009672647878670967,-0.0002502180365969554,-0.00027785927183752014,-0.0002887218602990099,-0.0005235511365867084]},{"input_size":5,"size":256,"prev_input":[40,1,52,36,53],"pre_activation_output":0.028830598000000002,"prev_output":0.028823499495497375,"temperature":0.0001,"weights":[0.000014213,0.000006672,0.000118215,0.000073644,0.000367114],"input_errors":[-0.0000017649236073879311,-8.285288519902283e-7,-0.000014679146059626092,-0.000009144616077808056,-0.00004558586623249868]},{"input_size":5,"size":256,"prev_input":[40,1,52,36,53],"pre_activation_output":0.07859640799999999,"prev_output":0.07845284551471475,"temperature":0.0001,"weights":[0.000090443,0.000048009,0.000804668,0.000384447,0.000363167],"input_errors":[-0.000010242834283498627,-0.000005437046644908418,-0.00009113012364223747,-0.000043539207287626995,-0.000041129275755564717]},{"input_size":5,"size":256,"prev_input":[40,1,52,36,53],"pre_activation_output":0.06574819900000001,"prev_output":0.06566410742958258,"temperature":0.0001,"weights":[0.000233056,0.000418947,0.000427547,0.000164565,0.000525476],"input_errors":[-0.00002982860898013316,-0.000053620679767351496,-0.00005472156371489477,-0.000021062528791433376,-0.00006725543040942406]},{"input_size":5,"size":256,"prev_input":[40,1,52,36,53],"pre_activation_output":0.30898065999999996,"prev_output":0.3005100458132588,"temperature":0.0001,"weights":[0.000913724,0.001850919,0.002849411,0.000787916,0.001774461],"input_errors":[-0.00010258331447637699,-0.00020780157529661265,-0.00031990273466129637,-0.00008845889565692569,-0.00019921831194341704]},{"input_size":5,"size":256,"prev_input":[40,1,52,36,53],"pre_activation_output":0.069478734,"prev_output":0.06937951755744147,"temperature":0.0001,"weights":[0.000139654,0.000436275,0.000737095,0.000486231,0.000143831],"input_errors":[-0.000017405724889829704,-0.000054375077744179855,-0.00009186807191230265,-0.000060601330888545,-0.00001792643029039622]},{"input_size":5,"size":256,"prev_input":[40,1,52,36,53],"pre_activation_output":0.031064774000000003,"prev_output":0.031055894446268436,"temperature":0.0001,"weights":[0.00013473,0.000067264,0.000322836,0.000198398,0.00003167],"input_errors":[-0.000016011203004181624,-0.000007993610481028311,-0.00003836572960296215,-0.000023577483673392117,-0.000003763682526896997]},{"input_size":5,"size":256,"prev_input":[40,1,52,36,53],"pre_activation_output":0.11552316900000001,"prev_output":0.11506838433202804,"temperature":0.0001,"weights":[0.000383672,0.000561374,0.000933838,0.000608595,0.000549923],"input_errors":[-0.00004577437305214609,-0.0000669752496518216,-0.00011141281531997153,-0.00007260904894760069,-0.00006560922786389183]},{"input_size":5,"size":256,"prev_input":[40,1,52,36,53],"pre_activation_output":1.6524590899999998,"prev_output":0.9525559585453373,"temperature":0.0001,"weights":[0.009932445,0.002582088,0.004348695,0.008365708,0.013684558],"input_errors":[-0.0009732162483205207,-0.0002530020343298187,-0.000426101529106002,-0.0008197016237987136,-0.0013408643951052892]},{"input_size":5,"size":256,"prev_input":[40,1,52,36,53],"pre_activation_output":0.026888946999999996,"prev_output":0.026883188054698866,"temperature":0.0001,"weights":[0.000186889,0.000070135,0.00014795,0.00010106,0.000151164],"input_errors":[-0.000023404111353300277,-0.000008782966720191145,-0.000018527835771854285,-0.00001265569673203721,-0.000018930299244806343]},{"input_size":5,"size":256,"prev_input":[40,1,52,36,53],"pre_activation_output":0.052857054,"prev_output":0.05281333896614023,"temperature":0.0001,"weights":[0.000129777,0.000542508,0.000653113,0.00027363,0.00006247],"input_errors":[-0.00001513046879596345,-0.00006324987809597014,-0.00007614532086064522,-0.00003190198952497633,-0.000007283215244993553]},{"input_size":5,"size":256,"prev_input":[40,1,52,36,53],"pre_activation_output":0.019983703999999998,"prev_output":0.019981339733765185,"temperature":0.0001,"weights":[0.000070566,0.000263395,0.00002085,0.000132421,0.000208421],"input_errors":[-0.000009334609759315775,-0.000034842324760320344,-0.0000027580744719218397,-0.000017516867676245973,-0.000027570394943627676]},{"input_size":5,"size":256,"prev_input":[40,1,52,36,53],"pre_activation_output":0.071818366,"prev_output":0.07170879724058266,"temperature":0.0001,"weights":[0.000342359,0.000081093,0.000575442,0.000131098,0.000441517],"input_errors":[-0.00004129986468202162,-0.000009782536174844455,-0.00006941756004631255,-0.000015814717371209475,-0.000053261723942801306]},{"input_size":5,"size":256,"prev_input":[40,1,52,36,53],"pre_activation_output":0.059185331,"prev_output":0.05912397434658184,"temperature":0.0001,"weights":[0.000233287,0.000875606,0.000297736,0.000097983,0.000565445],"input_errors":[-0.00002609398758252898,-0.0000979393978115361,-0.00003330291551334341,-0.000010959692723525289,-0.00006324704838874395]},{"input_size":5,"size":256,"prev_input":[40,1,52,36,53],"pre_activation_output":0.042042892,"prev_output":0.04202088564281822,"temperature":0.0001,"weights":[0.000093546,0.000361514,0.000301033,0.000089931,0.000359402],"input_errors":[-0.000012319636030938773,-0.000047609952539563445,-0.00003964499951585366,-0.000011843536724770156,-0.00004733200300719917]},{"input_size":5,"size":256,"prev_input":[40,1,52,36,53],"pre_activation_output":0.039788444,"prev_output":0.03976979017191573,"temperature":0.0001,"weights":[0.000291066,0.00012429,0.000097463,0.000376968,0.00017703],"input_errors":[-0.000036022924072906466,-0.0000153822900737766,-0.000012062187518581325,-0.000046654207992006116,-0.000021909559425825677]},{"input_size":5,"size":256,"prev_input":[40,1,52,36,53],"pre_activation_output":0.115540404,"prev_output":0.11508541635382577,"temperature":0.0001,"weights":[0.001126122,0.000933709,0.000718119,0.000757197,0.000093595],"input_errors":[-0.00012158737760069665,-0.00010081248882269742,-0.00007753546921489473,-0.00008175454987163713,-0.000010105520997488424]},{"input_size":5,"size":256,"prev_input":[40,1,52,36,53],"pre_activation_output":0.10691113299999999,"prev_output":0.10655043519245162,"temperature":0.0001,"weights":[0.000258856,0.000087254,0.000866082,0.000497938,0.000632219],"input_errors":[-0.000032383793225205306,-0.000010915822260469189,-0.00010835039136643323,-0.00006229387750621072,-0.00007909310997606112]},{"input_size":5,"size":256,"prev_input":[40,1,52,36,53],"pre_activation_output":0.049925457,"prev_output":0.0498886159766139,"temperature":0.0001,"weights":[0.000258784,0.000017649,0.000020484,0.000411908,0.000446464],"input_errors":[-0.00002914658346569367,-0.0000019877319811033303,-0.0000023071446133476328,-0.000046392717041566685,-0.00005028484202955191]},{"input_size":5,"size":256,"prev_input":[40,1,52,36,53],"pre_activation_output":0.07515132699999999,"prev_output":0.07502580514150096,"temperature":0.0001,"weights":[0.00037471,0.000686631,0.000423724,0.000527805,0.000347956],"input_errors":[-0.000044504693580518356,-0.00008155177339113109,-0.000050326277523308275,-0.00006268798961453382,-0.00004132722088135422]},{"input_size":5,"size":256,"prev_input":[40,1,52,36,53],"pre_activation_output":0.032635154,"prev_output":0.032624858935612115,"temperature":0.0001,"weights":[0.000339029,0.000481102,0.000033619,0.000122372,0.000234704],"input_errors":[-0.00003749995152178696,-0.000053214586967897134,-0.0000037185452841571276,-0.00001353549961109647,-0.000025960669626583064]},{"input_size":5,"size":256,"prev_input":[40,1,52,36,53],"pre_activation_output":0.008448894,"prev_output":0.008448715303735706,"temperature":0.0001,"weights":[0.000046202,0.000042377,0.000025438,0.000105978,0.000026801],"input_errors":[-0.0000066527714956495494,-0.000006101902074974439,-0.0000036628318805812488,-0.000015260075501254577,-0.000003859191273603219]},{"input_size":5,"size":256,"prev_input":[40,1,52,36,53],"pre_activation_output":0.027526797999999998,"prev_output":0.027520619491727714,"temperature":0.0001,"weights":[0.000203594,0.000070731,0.000115562,0.000172719,0.000133683],"input_errors":[-0.00002481797197191924,-0.000008622086255512288,-0.000014087041620055217,-0.00002105430873649629,-0.00001629596781971074]},{"input_size":5,"size":256,"prev_input":[40,1,52,36,53],"pre_activation_output":0.045739059,"prev_output":0.04571072648365192,"temperature":0.0001,"weights":[0.000024387,0.000050902,0.000338678,0.000067302,0.000465633],"input_errors":[-0.0000028788232414398737,-0.000006008927562036407,-0.00003998085941286524,-0.000007944921968277494,-0.000054967874180538515]},{"input_size":5,"size":256,"prev_input":[40,1,52,36,53],"pre_activation_output":0.07502599000000001,"prev_output":0.07490109434664288,"temperature":0.0001,"weights":[0.000215343,0.000158042,0.000309209,0.000464617,0.000631116],"input_errors":[-0.00002559309791376373,-0.00001878299953775241,-0.000036749056079662646,-0.000055218833074255,-0.00007500721625716849]},{"input_size":5,"size":256,"prev_input":[40,1,52,36,53],"pre_activation_output":0.03810081,"prev_output":0.03808442981703472,"temperature":0.0001,"weights":[0.000321178,0.000288438,0.000006694,0.000520364,0.00011102],"input_errors":[-0.00003687156178824884,-0.0000331130542340882,-7.684238594204404e-7,-0.00005973833353872247,-0.000012745274269462123]},{"input_size":5,"size":256,"prev_input":[40,1,52,36,53],"pre_activation_output":0.048448376,"prev_output":0.04841470746426127,"temperature":0.0001,"weights":[0.000234776,0.000019131,0.000241652,0.000316069,0.000284789],"input_errors":[-0.00003109789109822745,-0.00000253408794369274,-0.00003200877154441693,-0.000041865783719146404,-0.00003772257908162638]},{"input_size":5,"size":256,"prev_input":[40,1,52,36,53],"pre_activation_output":0.026325937,"prev_output":0.02632053222750923,"temperature":0.0001,"weights":[0.000213959,0.000025031,0.000046815,0.000003656,0.00028635],"input_errors":[-0.00002794235775061901,-0.000003268904983578008,-0.00000611387880147123,-4.774080213419082e-7,-0.00003739642961916479]},{"input_size":5,"size":256,"prev_input":[40,1,52,36,53],"pre_activation_output":0.12571638899999998,"prev_output":0.12513076351069413,"temperature":0.0001,"weights":[0.000412713,0.001018879,0.001286715,0.000164592,0.000667066],"input_errors":[-0.00004688235566243594,-0.00011574004732174914,-0.00014616551847525364,-0.00001869696786364618,-0.00007577597822151768]},{"input_size":5,"size":256,"prev_input":[40,1,52,36,53],"pre_activation_output":0.033888855999999995,"prev_output":0.03387732861696894,"temperature":0.0001,"weights":[0.000221812,0.000245435,0.000053116,0.000159485,0.000306933],"input_errors":[-0.000029521805906411823,-0.000032665749050622215,-0.000007069464679930585,-0.00002122648217191532,-0.00004085090595477478]},{"input_size":5,"size":256,"prev_input":[40,1,52,36,53],"pre_activation_output":0.056239502000000004,"prev_output":0.05618685265299831,"temperature":0.0001,"weights":[0.000352875,0.000441934,0.00016169,0.00026619,0.000447016],"input_errors":[-0.000044812080982987525,-0.000056121796003571644,-0.00002053333643926184,-0.000033803803448133526,-0.000056767425776753915]},{"input_size":5,"size":256,"prev_input":[40,1,52,36,53],"pre_activation_output":0.026849924,"prev_output":0.026844190087596538,"temperature":0.0001,"weights":[0.000210356,0.000039703,0.000069763,0.00014063,0.000183125],"input_errors":[-0.000028620703938535565,-0.000005401892203702093,-0.000009491879436804177,-0.000019133863466403034,-0.00002491574098197654]},{"input_size":5,"size":256,"prev_input":[40,1,52,36,53],"pre_activation_output":0.084449955,"prev_output":0.08427192496284226,"temperature":0.0001,"weights":[0.000163661,0.000266386,0.0005573,0.000537546,0.000552941],"input_errors":[-0.000020051764334718064,-0.00003263763870848185,-0.00006828074918953435,-0.000065860181221147,-0.0000677466557952741]},{"input_size":5,"size":256,"prev_input":[40,1,52,36,53],"pre_activation_output":0.052964569,"prev_output":0.05292058683136639,"temperature":0.0001,"weights":[0.000057247,0.000016105,0.00068198,0.000053044,0.00025068],"input_errors":[-0.000006884133107281495,-0.0000019366590602065775,-0.00008201079181531016,-0.000006378785480365941,-0.000030145271193358352]},{"input_size":5,"size":256,"prev_input":[40,1,52,36,53],"pre_activation_output":0.020804224000000003,"prev_output":0.020801556415812286,"temperature":0.0001,"weights":[0.000068275,0.000072638,0.000083025,0.000220205,0.000108602],"input_errors":[-0.000008783689440007526,-0.00000934497390620635,-0.000010681425693705993,-0.00002832980219460506,-0.000013971877604793882]},{"input_size":5,"size":256,"prev_input":[40,1,52,36,53],"pre_activation_output":0.312708882,"prev_output":0.3039344988050973,"temperature":0.0001,"weights":[0.002032569,0.000229106,0.001971159,0.001634613,0.00131756],"input_errors":[-0.00020341345090186305,-0.000022928242596188128,-0.00019726819473454385,-0.00016358716888242335,-0.00013185778755672744]},{"input_size":5,"size":256,"prev_input":[40,1,52,36,53],"pre_activation_output":0.13225695799999998,"prev_output":0.13157547197803598,"temperature":0.0001,"weights":[0.000278375,0.000184279,0.001031523,0.000528333,0.000910915],"input_errors":[-0.00003161023815942878,-0.000020925289169732004,-0.00011713244657977175,-0.000059993559690894,-0.0001034370035916656]},{"input_size":5,"size":256,"prev_input":[40,1,52,36,53],"pre_activation_output":0.024019859,"prev_output":0.024015753613315486,"temperature":0.0001,"weights":[0.000072472,0.000048214,0.000312482,0.000024875,0.000074117],"input_errors":[-0.000009690567223164796,-0.0000064469043524402265,-0.00004178340096215801,-0.0000033261546780603843,-0.000009910471822434394]},{"input_size":5,"size":256,"prev_input":[40,1,52,36,53],"pre_activation_output":0.085611891,"prev_output":0.08542642310292459,"temperature":0.0001,"weights":[0.000059751,0.000455451,0.000817947,0.000428941,0.00046776],"input_errors":[-0.00000755749440192188,-0.000057606651757454833,-0.00010345640180005473,-0.000054253612355640076,-0.00005916365669327981]},{"input_size":5,"size":256,"prev_input":[40,1,52,36,53],"pre_activation_output":0.138394621,"prev_output":0.13761421611854655,"temperature":0.0001,"weights":[0.00086309,0.000008318,0.001095259,0.000445325,0.000582595],"input_errors":[-0.00009846086710951657,-9.489598673094035e-7,-0.00012494692538360806,-0.00005080246730824856,-0.00006646233123274775]},{"input_size":5,"size":256,"prev_input":[40,1,52,36,53],"pre_activation_output":0.1530702,"prev_output":0.15201576590919655,"temperature":0.0001,"weights":[0.000184214,0.000284885,0.000911033,0.000715473,0.001363887],"input_errors":[-0.000020709368703100956,-0.000032026822107314965,-0.00010241880216982085,-0.00008043358837042258,-0.0001533288738506753]},{"input_size":5,"size":256,"prev_input":[40,1,52,36,53],"pre_activation_output":0.140973495,"prev_output":0.14014884222783358,"temperature":0.0001,"weights":[0.000987779,0.000981281,0.000978522,0.000444375,0.00063397],"input_errors":[-0.00010411674402773126,-0.00010343168839156206,-0.00010314124357193909,-0.00004683926216556544,-0.00006682364958027307]},{"input_size":5,"size":256,"prev_input":[40,1,52,36,53],"pre_activation_output":0.026160644000000004,"prev_output":0.026155340379352576,"temperature":0.0001,"weights":[0.000157126,0.000320935,0.000111095,0.000160178,0.000151157],"input_errors":[-0.000020812457568503473,-0.00004251014864577771,-0.000014715410894852616,-0.000021216769253850013,-0.000020021859580438428]},{"input_size":5,"size":256,"prev_input":[40,1,52,36,53],"pre_activation_output":0.131826886,"prev_output":0.13115200113170933,"temperature":0.0001,"weights":[0.000424851,0.000479504,0.000871577,0.000177609,0.001181838],"input_errors":[-0.000048332167447686255,-0.00005454952032495228,-0.00009915307948266718,-0.00002020521335595073,-0.00013444919014441361]},{"input_size":5,"size":256,"prev_input":[40,1,52,36,53],"pre_activation_output":0.014477231,"prev_output":0.014476332015104506,"temperature":0.0001,"weights":[0.000163436,0.000094081,0.000058692,0.000033045,0.000068002],"input_errors":[-0.000023078563302760673,-0.000013285085561779037,-0.000008287774152362975,-0.000004666253995898719,-0.000009602522135474174]},{"input_size":5,"size":256,"prev_input":[40,1,52,36,53],"pre_activation_output":0.029018982999999998,"prev_output":0.029011744461352473,"temperature":0.0001,"weights":[0.000142494,0.000136448,0.000131229,0.000143063,0.000211483],"input_errors":[-0.000019439811520336486,-0.000018614892820118338,-0.00001790304780908825,-0.000019517383165706815,-0.0000288517422054182]},{"input_size":5,"size":256,"prev_input":[40,1,52,36,53],"pre_activation_output":0.141459684,"prev_output":0.14062650747279828,"temperature":0.0001,"weights":[0.000342939,0.001342778,0.000530288,0.001598646,0.000778738],"input_errors":[-0.00003682722891953543,-0.00014419713577571973,-0.000056946335580673154,-0.00017167414857992896,-0.00008362674959093541]},{"input_size":5,"size":256,"prev_input":[40,1,52,36,53],"pre_activation_output":0.144185233,"prev_output":0.1433031907624526,"temperature":0.0001,"weights":[0.000649745,0.001608876,0.001098399,0.001013376,0.000433741],"input_errors":[-0.0000666810782807671,-0.00016511316316303591,-0.00011272515849551341,-0.00010399920139523968,-0.000044513455115043036]},{"input_size":5,"size":256,"prev_input":[40,1,52,36,53],"pre_activation_output":0.165496009,"prev_output":0.16416512000379244,"temperature":0.0001,"weights":[0.000649438,0.000327668,0.001266139,0.000629798,0.000956205],"input_errors":[-0.00008009125025166679,-0.00004040922425260586,-0.00015614558541079257,-0.00007766905729882713,-0.0001179232544628854]},{"input_size":5,"size":256,"prev_input":[40,1,52,36,53],"pre_activation_output":0.010850547000000002,"prev_output":0.010850168501574876,"temperature":0.0001,"weights":[0.000127969,0.000251859,0.00006652,0.000047432,0.000005912],"input_errors":[-0.00001652992353687255,-0.00003253283145954953,-0.000008592496664172402,-0.000006126807009282012,-7.63718088416194e-7]},{"input_size":5,"size":256,"prev_input":[40,1,52,36,53],"pre_activation_output":0.023352148,"prev_output":0.023348375512670917,"temperature":0.0001,"weights":[0.000137702,0.000125803,0.000147554,0.000082409,0.000133561],"input_errors":[-0.000019787312280617434,-0.00001807743999226648,-0.000021202990512845208,-0.000011841881608088548,-0.00001919226351788153]},{"input_size":5,"size":256,"prev_input":[40,1,52,36,53],"pre_activation_output":0.04900189,"prev_output":0.04896705488505587,"temperature":0.0001,"weights":[0.000255793,0.000011814,0.00022107,0.000392004,0.000248124],"input_errors":[-0.00003080497516913119,-0.0000014227612640106517,-0.00002662336772585941,-0.00004720880112272644,-0.00002988154687443807]},{"input_size":5,"size":256,"prev_input":[40,1,52,36,53],"pre_activation_output":0.029206457999999998,"prev_output":0.02919907828776237,"temperature":0.0001,"weights":[0.000039916,0.000299623,0.000194215,0.000098193,0.000258039],"input_errors":[-0.000004751177312869465,-0.000035663697111961446,-0.000023117176594209825,-0.000011687812562135057,-0.00003071409256051739]},{"input_size":5,"size":256,"prev_input":[40,1,52,36,53],"pre_activation_output":0.029963207,"prev_output":0.02995523878292065,"temperature":0.0001,"weights":[0.000081637,0.000171051,0.00018554,0.000027831,0.00029956],"input_errors":[-0.000010437202552832866,-0.000021868707271206436,-0.000023721221985391866,-0.000003558170130143262,-0.00003829867757789839]},{"input_size":5,"size":256,"prev_input":[40,1,52,36,53],"pre_activation_output":0.11562201,"prev_output":0.11516606045597912,"temperature":0.0001,"weights":[0.000347348,0.000680343,0.001151749,0.000153041,0.000672591],"input_errors":[-0.000039815190651272084,-0.00007798498862750286,-0.00013202091806922977,-0.000017542497268356398,-0.00007709672544938135]},{"input_size":5,"size":256,"prev_input":[40,1,52,36,53],"pre_activation_output":0.081643465,"prev_output":0.08148257589888111,"temperature":0.0001,"weights":[0.000593489,0.001419076,0.000175524,0.000247054,0.000725729],"input_errors":[-0.00006115646179549477,-0.0001462294964279013,-0.000018087064229286482,-0.000025457795388068963,-0.00007478340008933165]},{"input_size":5,"size":256,"prev_input":[40,1,52,36,53],"pre_activation_output":0.028983432000000003,"prev_output":0.02897622002750231,"temperature":0.0001,"weights":[0.000229341,0.000124803,0.000149802,0.000088219,0.000164517],"input_errors":[-0.000030475645858319095,-0.000016584208390640806,-0.000019906212677624432,-0.0000117228537320391,-0.00002186167693275659]},{"input_size":5,"size":256,"prev_input":[40,1,52,36,53],"pre_activation_output":0.056881979,"prev_output":0.05682750588973174,"temperature":0.0001,"weights":[0.000228386,0.000381564,0.000178059,0.000370659,0.000467211],"input_errors":[-0.000029910641980247493,-0.0000499716635141208,-0.000023319667620995632,-0.000048543389869011734,-0.00006118859181656977]},{"input_size":5,"size":256,"prev_input":[40,1,52,36,53],"pre_activation_output":0.06165716999999999,"prev_output":0.061587807139680754,"temperature":0.0001,"weights":[0.000284212,0.000334638,0.000697568,0.00022824,0.000103092],"input_errors":[-0.00003392552169655216,-0.00003994472247250983,-0.0000832667264552871,-0.000027244314847263948,-0.00001230577059875009]},{"input_size":5,"size":256,"prev_input":[40,1,52,36,53],"pre_activation_output":0.017598329000000003,"prev_output":0.017596714285709112,"temperature":0.0001,"weights":[0.00030189,0.000349321,0.000010685,0.000061804,0.000045148],"input_errors":[-0.000037019484940521285,-0.00004283559607037263,-0.0000013102718690147205,-0.000007578697947441553,-0.000005536312295951874]},{"input_size":5,"size":256,"prev_input":[40,1,52,36,53],"pre_activation_output":0.049272673,"prev_output":0.04923725750840715,"temperature":0.0001,"weights":[0.000293897,0.00029198,0.0003699,0.000127985,0.000252501],"input_errors":[-0.00003784326766123212,-0.00003759648722239253,-0.00004762992619067372,-0.00001647985619730433,-0.000032513061801605526]},{"input_size":5,"size":256,"prev_input":[40,1,52,36,53],"pre_activation_output":0.095406772,"prev_output":0.09515023612368516,"temperature":0.0001,"weights":[0.000448822,0.000069246,0.001104342,0.000091714,0.000314286],"input_errors":[-0.000048558737299746685,-0.000007491840045394239,-0.00011948082099988926,-0.000009922631554207559,-0.0000340031361005811]},{"input_size":5,"size":256,"prev_input":[40,1,52,36,53],"pre_activation_output":0.141888729,"prev_output":0.1410479822663218,"temperature":0.0001,"weights":[0.000741376,0.000591717,0.000857262,0.000607411,0.000852784],"input_errors":[-0.00009173759161400149,-0.00007321874757279112,-0.00010607758788053216,-0.00007516073361110473,-0.00010552346133519234]},{"input_size":5,"size":256,"prev_input":[40,1,52,36,53],"pre_activation_output":0.015610153000000002,"prev_output":0.015609026029812168,"temperature":0.0001,"weights":[0.000086639,0.000003626,0.00009087,0.000077198,0.000087483],"input_errors":[-0.000012093683193111544,-5.060880605322115e-7,-0.000012684330238646793,-0.000010775783207608415,-0.000012211509092860459]},{"input_size":5,"size":256,"prev_input":[40,1,52,36,53],"pre_activation_output":0.007238771,"prev_output":0.007238658613757639,"temperature":0.0001,"weights":[0.000097613,0.000027624,0.000010147,0.000062909,0.000009703],"input_errors":[-0.000012343564031336424,-0.000003493123001275469,-0.0000012831622953627094,-0.000007955080746739448,-0.0000012270127508134584]},{"input_size":5,"size":256,"prev_input":[40,1,52,36,53],"pre_activation_output":0.028616342999999995,"prev_output":0.028609401551755776,"temperature":0.0001,"weights":[0.000011202,0.000290368,0.00025204,0.000077313,0.000226199],"input_errors":[-0.0000014853274412784785,-0.000038502431468719306,-0.00003342029959728831,-0.000010251631747041919,-0.00002999378919815165]},{"input_size":5,"size":256,"prev_input":[40,1,52,36,53],"pre_activation_output":0.081629232,"prev_output":0.08146842690387747,"temperature":0.0001,"weights":[0.000586193,0.000419368,0.000040696,0.000833289,0.000483916],"input_errors":[-0.0000646946715912088,-0.00004628317879289285,-0.0000044914462283835665,-0.00009196527147452395,-0.00005340711138253949]},{"input_size":5,"size":256,"prev_input":[40,1,52,36,53],"pre_activation_output":0.057363608,"prev_output":0.057307740466101605,"temperature":0.0001,"weights":[0.000326122,0.000833303,0.000585451,0.000152107,0.000142757],"input_errors":[-0.00003716507665836995,-0.00009496381058931673,-0.00006671860194472645,-0.000017334230468015684,-0.000016268720146931587]},{"input_size":5,"size":256,"prev_input":[40,1,52,36,53],"pre_activation_output":0.064974345,"prev_output":0.064893185150297,"temperature":0.0001,"weights":[0.000309641,0.000391565,0.000473278,0.000276936,0.000332396],"input_errors":[-0.00004041576260463467,-0.00005110885497472911,-0.00006177460002995133,-0.00003614694510664769,-0.0000433860299070357]},{"input_size":5,"size":256,"prev_input":[40,1,52,36,53],"pre_activation_output":0.081812513,"prev_output":0.0816506239225134,"temperature":0.0001,"weights":[0.000219549,0.000095085,0.000720788,0.000548392,0.00029646],"input_errors":[-0.00002554646324992042,-0.00001106390600608644,-0.00008387017143042557,-0.00006381016979206329,-0.00003449573151802064]},{"input_size":5,"size":256,"prev_input":[40,1,52,36,53],"pre_activation_output":0.009307895,"prev_output":0.009307656071416997,"temperature":0.0001,"weights":[0.000041785,0.000077433,0.000008761,0.000068803,0.000087294],"input_errors":[-0.0000057927521209632135,-0.000010734746548954403,-0.0000012145903026457652,-0.00000953833864882395,-0.000012101737087707693]},{"input_size":5,"size":256,"prev_input":[40,1,52,36,53],"pre_activation_output":0.033472609,"prev_output":0.03346150107983417,"temperature":0.0001,"weights":[0.000228258,0.000142641,0.000359942,0.000044347,0.000073324],"input_errors":[-0.00002945907441581256,-0.000018409368471909397,-0.00004645453034829345,-0.000005723512288491206,-0.000009463225662012697]},{"input_size":5,"size":256,"prev_input":[40,1,52,36,53],"pre_activation_output":0.039217334,"prev_output":0.039199471681353786,"temperature":0.0001,"weights":[0.000062557,0.000113972,0.000335973,0.000056384,0.000322654],"input_errors":[-0.000008391607415868542,-0.000015288637542082095,-0.00004506894516106513,-0.000007563534544188311,-0.000043282280003640855]},{"input_size":5,"size":256,"prev_input":[40,1,52,36,53],"pre_activation_output":0.092464402,"prev_output":0.09223083365251511,"temperature":0.0001,"weights":[0.000545638,0.000393681,0.000142331,0.00026309,0.001007033],"input_errors":[-0.00006431509138773391,-0.00004640371320342236,-0.000016776840648234817,-0.00003101077826512804,-0.00011870062777636621]},{"input_size":5,"size":256,"prev_input":[40,1,52,36,53],"pre_activation_output":0.023923418000000002,"prev_output":0.023919361858818287,"temperature":0.0001,"weights":[0.000093934,0.000236138,0.000152391,0.000327423,0.00000412],"input_errors":[-0.000011995254921794084,-0.000030154401516050388,-0.00001946018364451175,-0.00004181136560269267,-5.260750449960032e-7]},{"input_size":5,"size":256,"prev_input":[40,1,52,36,53],"pre_activation_output":0.03759823,"prev_output":0.03758248930773673,"temperature":0.0001,"weights":[0.000440883,0.000594921,0.000295105,0.000094269,0.000011865],"input_errors":[-0.00005085443365937232,-0.00006862229331514892,-0.00003403951027336134,-0.000010873680383032389,-0.000001368589652378904]},{"input_size":5,"size":256,"prev_input":[40,1,52,36,53],"pre_activation_output":0.047823184000000005,"prev_output":0.04779080147377326,"temperature":0.0001,"weights":[0.000293616,0.000284369,0.000085641,0.000033681,0.000568459],"input_errors":[-0.000036315412845349094,-0.00003517167814305449,-0.000010592451559982336,-0.0000041657428566029395,-0.00007030917342307383]},{"input_size":5,"size":256,"prev_input":[40,1,52,36,53],"pre_activation_output":0.037085774999999994,"prev_output":0.037070669008262794,"temperature":0.0001,"weights":[0.000562152,0.000331022,0.000096042,0.000047914,0.000142445],"input_errors":[-0.00006290387636293013,-0.00003704079691244927,-0.00001074699167079542,-0.000005361518354666122,-0.000015939367124949013]},{"input_size":5,"size":256,"prev_input":[40,1,52,36,53],"pre_activation_output":0.061137396,"prev_output":0.0610697711567324,"temperature":0.0001,"weights":[0.00018959,0.000071919,0.000511291,0.000025203,0.000490329],"input_errors":[-0.000022416221244325025,-0.000008503396152591762,-0.000060452721465000375,-0.0000029798499842301785,-0.00005797421019949857]},{"input_size":5,"size":256,"prev_input":[40,1,52,36,53],"pre_activation_output":0.05181473599999999,"prev_output":0.0517735549319528,"temperature":0.0001,"weights":[0.000144692,0.00024053,0.000226823,0.000189162,0.000512866],"input_errors":[-0.00001662855600402266,-0.000027642613283990114,-0.000026067419964140334,-0.000021739237503146852,-0.00005894061481105559]},{"input_size":5,"size":256,"prev_input":[40,1,52,36,53],"pre_activation_output":0.037435164,"prev_output":0.037419627162687784,"temperature":0.0001,"weights":[0.00009286,0.000052537,0.000241425,0.000175808,0.000278963],"input_errors":[-0.000012152130535569917,-0.000006875294128583527,-0.00003159428377604841,-0.000023007121627341816,-0.00003650673226672665]},{"input_size":5,"size":256,"prev_input":[40,1,52,36,53],"pre_activation_output":0.07826482500000001,"prev_output":0.07812306939417694,"temperature":0.0001,"weights":[0.000425288,0.00006254,0.000685889,0.000032015,0.000459849],"input_errors":[-0.00005155493246038247,-0.000007581367805833946,-0.0000831461347971578,-0.000003880939901904458,-0.00005574459700977153]},{"input_size":5,"size":256,"prev_input":[40,1,52,36,53],"pre_activation_output":0.041589264,"prev_output":0.041567962038060256,"temperature":0.0001,"weights":[0.000368291,0.000617493,0.000097231,0.000535885,0.000035703],"input_errors":[-0.000044672838471007254,-0.00007490041995774244,-0.00001179395152284937,-0.00006500157956675307,-0.000004330736573458594]},{"input_size":5,"size":256,"prev_input":[40,1,52,36,53],"pre_activation_output":0.04389407199999999,"prev_output":0.04386903023068284,"temperature":0.0001,"weights":[0.000211408,0.000070925,0.000336058,0.000172171,0.000220635],"input_errors":[-0.000026787381287186997,-0.000008986842206058005,-0.000042581963244908666,-0.000021815671555366685,-0.000027956669288274543]},{"input_size":5,"size":256,"prev_input":[40,1,52,36,53],"pre_activation_output":0.182455427,"prev_output":0.18067549298084803,"temperature":0.0001,"weights":[0.000553786,0.000514113,0.001783781,0.000724128,0.000772918],"input_errors":[-0.00006130373561652378,-0.00005691193655658643,-0.00019746376936455068,-0.00008016046272436725,-0.00008556167539877647]},{"input_size":5,"size":256,"prev_input":[40,1,52,36,53],"pre_activation_output":0.18518732599999999,"prev_output":0.18332685222753664,"temperature":0.0001,"weights":[0.001178783,0.002002694,0.000112454,0.001656147,0.001331404],"input_errors":[-0.00013003272170680492,-0.0002209191101846721,-0.000012404938712510574,-0.0001826912797457848,-0.00014686887454403913]},{"input_size":5,"size":256,"prev_input":[40,1,52,36,53],"pre_activation_output":0.048812979,"prev_output":0.0487785450086163,"temperature":0.0001,"weights":[0.000396949,0.000193737,0.000313077,0.000081791,0.000255034],"input_errors":[-0.000049738610383768706,-0.000024275706842232573,-0.00003922943478439348,-0.000010248640059638124,-0.00003195643110196181]},{"input_size":5,"size":256,"prev_input":[40,1,52,36,53],"pre_activation_output":0.028252073000000003,"prev_output":0.028245393227844574,"temperature":0.0001,"weights":[0.000176881,0.000349459,0.000160618,0.000336856,0.000006574],"input_errors":[-0.000021842504286484524,-0.000043153686262763954,-0.000019834263858459814,-0.000041597387952415,-8.118670143913908e-7]},{"input_size":5,"size":256,"prev_input":[40,1,52,36,53],"pre_activation_output":0.021903863,"prev_output":0.021900749714731844,"temperature":0.0001,"weights":[0.000120645,0.000042392,0.000235148,0.000007222,0.000085811],"input_errors":[-0.000016699499348737077,-0.000005867818985065218,-0.00003254888249061473,-9.996861263419252e-7,-0.00001187785918933491]},{"input_size":5,"size":256,"prev_input":[40,1,52,36,53],"pre_activation_output":0.02214323,"prev_output":0.02214001353995963,"temperature":0.0001,"weights":[0.000098226,0.000450822,0.000043914,0.000264453,0.000112444],"input_errors":[-0.000011874861741793166,-0.00005450132105887447,-0.0000053088780681679715,-0.00003197050923434843,-0.000013593724664042405]},{"input_size":5,"size":256,"prev_input":[40,1,52,36,53],"pre_activation_output":0.038860588,"prev_output":0.03884320856054864,"temperature":0.0001,"weights":[0.00011378,0.000183791,0.000314851,0.000071956,0.000286093],"input_errors":[-0.000015130340113118109,-0.00002444031584258764,-0.00004186863811718742,-0.000009568602891181494,-0.00003804445001952541]},{"input_size":5,"size":256,"prev_input":[40,1,52,36,53],"pre_activation_output":0.028612799,"prev_output":0.028605860129964935,"temperature":0.0001,"weights":[0.00009749,0.000178683,0.000180617,0.000168137,0.0001715],"input_errors":[-0.000014181301435019071,-0.000025991908631639194,-0.00002627329183269554,-0.000024457803133790402,-0.000024947024216030528]},{"input_size":5,"size":256,"prev_input":[40,1,52,36,53],"pre_activation_output":0.04194502,"prev_output":0.04192316691183438,"temperature":0.0001,"weights":[0.000319764,0.000050088,0.000023658,0.000138659,0.000431744],"input_errors":[-0.00004087660019002545,-0.000006402871070107175,-0.0000030243108228495144,-0.00001772526957381153,-0.00005519156782498416]},{"input_size":5,"size":256,"prev_input":[40,1,52,36,53],"pre_activation_output":0.04621527,"prev_output":0.04618604371462309,"temperature":0.0001,"weights":[0.000288003,0.000069688,0.000315031,0.000074008,0.000293954],"input_errors":[-0.000037381509864442475,-0.00000904525275866246,-0.00004088981089906702,-0.000009605922307230335,-0.00003815408670159494]},{"input_size":5,"size":256,"prev_input":[40,1,52,36,53],"pre_activation_output":0.037307031000000004,"prev_output":0.037291653106536586,"temperature":0.0001,"weights":[0.000105791,0.000188567,0.000465636,0.000022713,0.000148228],"input_errors":[-0.000014197027512241927,-0.000025305579000626184,-0.00006248813258547273,-0.0000030480249802880487,-0.000019892188031504997]},{"input_size":5,"size":256,"prev_input":[40,1,52,36,53],"pre_activation_output":0.064180943,"prev_output":0.06410271745474469,"temperature":0.0001,"weights":[0.000384414,0.000642974,0.000106671,0.000690523,0.000335013],"input_errors":[-0.00004215529125570003,-0.00007050915578978937,-0.000011697681171868604,-0.00007572346362886218,-0.000036738003189499574]},{"input_size":5,"size":256,"prev_input":[40,1,52,36,53],"pre_activation_output":0.064074673,"prev_output":0.06399683503317952,"temperature":0.0001,"weights":[0.000495837,0.000022597,0.000629357,0.00029734,0.000014864],"input_errors":[-0.00006055091598496886,-0.0000027595338448059594,-0.00007685645080105774,-0.00003631069127728098,-0.0000018151562801344546]},{"input_size":5,"size":256,"prev_input":[40,1,52,36,53],"pre_activation_output":0.032764074000000004,"prev_output":0.03275365647521795,"temperature":0.0001,"weights":[0.000117125,0.00016271,0.000118101,0.000147115,0.000310924],"input_errors":[-0.000015793010304914795,-0.000021939583988864033,-0.00001592468890790078,-0.000019836713821780688,-0.000041924729551040145]},{"input_size":5,"size":256,"prev_input":[40,1,52,36,53],"pre_activation_output":0.025847403999999997,"prev_output":0.025842288591616806,"temperature":0.0001,"weights":[0.000067935,0.000058163,0.000194775,0.000110724,0.000169009],"input_errors":[-0.000009849185265170853,-0.000008432366612493225,-0.00002823849070084533,-0.000016052697671343126,-0.000024502857919681687]},{"input_size":5,"size":256,"prev_input":[40,1,52,36,53],"pre_activation_output":0.140849968,"prev_output":0.14002747163520932,"temperature":0.0001,"weights":[0.001282488,0.001369318,0.001318819,0.000450708,0.000063718],"input_errors":[-0.0001360039450859458,-0.0001452118705727502,-0.00013985705799733958,-0.00004779621984243059,-0.000006757141830421234]},{"input_size":5,"size":256,"prev_input":[40,1,52,36,53],"pre_activation_output":0.017896785,"prev_output":0.017895086737107407,"temperature":0.0001,"weights":[0.00001794,0.000100885,0.000133717,0.000061218,0.000149456],"input_errors":[-0.0000024904575632316856,-0.00001400510147435044,-0.000018562988633136483,-0.000008498441192941117,-0.000020747999577799496]},{"input_size":5,"size":256,"prev_input":[40,1,52,36,53],"pre_activation_output":0.085067886,"prev_output":0.08488592563124751,"temperature":0.0001,"weights":[0.000296529,0.000499479,0.000868574,0.000221702,0.000369059],"input_errors":[-0.000034371917894107015,-0.00005789666666277299,-0.00010068031613128473,-0.0000256984524264077,-0.000042779268739422695]},{"input_size":5,"size":256,"prev_input":[40,1,52,36,53],"pre_activation_output":0.025687083,"prev_output":0.025682062175042108,"temperature":0.0001,"weights":[0.000029229,0.000004926,0.000211448,0.000006728,0.000250481],"input_errors":[-0.0000037999838536366484,-6.403399598253847e-7,-0.000027489450116222754,-8.747032914638154e-7,-0.00003256392826629372]},{"input_size":5,"size":256,"prev_input":[40,1,52,36,53],"pre_activation_output":0.06416435300000001,"prev_output":0.0640861880447455,"temperature":0.0001,"weights":[0.000257277,0.000352993,0.000592262,0.00006922,0.000381712],"input_errors":[-0.00003321279884870285,-0.000045569051102880184,-0.00007645733879144447,-0.00000893579046141841,-0.00004927668580985822]},{"input_size":5,"size":256,"prev_input":[40,1,52,36,53],"pre_activation_output":0.051765085999999995,"prev_output":0.051724023129992705,"temperature":0.0001,"weights":[0.000261819,0.000068007,0.000352154,0.000256686,0.000257955],"input_errors":[-0.00003173552611204487,-0.00000824319351275417,-0.00004268527668288566,-0.000031113300608833255,-0.00003126729618295274]},{"input_size":5,"size":256,"prev_input":[40,1,52,36,53],"pre_activation_output":0.02164642,"prev_output":0.021643415192613848,"temperature":0.0001,"weights":[0.000104111,0.000122382,0.000162778,0.000076813,0.000115658],"input_errors":[-0.000015383539771933247,-0.000018083266640009605,-0.00002405223129759596,-0.00001135000301216656,-0.00001708979474429582]},{"input_size":5,"size":256,"prev_input":[40,1,52,36,53],"pre_activation_output":0.069859274,"prev_output":0.06975842014517021,"temperature":0.0001,"weights":[0.000104297,0.000261654,0.00036341,0.000560214,0.000497372],"input_errors":[-0.000010806108044427347,-0.000027109727038220227,-0.00003765269896034559,-0.000058043239909998355,-0.00005153240337586703]},{"input_size":5,"size":256,"prev_input":[40,1,52,36,53],"pre_activation_output":0.013451639,"prev_output":0.013450917849946625,"temperature":0.0001,"weights":[0.000137299,0.000209603,0.000084344,0.00003757,0.000037956],"input_errors":[-0.00001785759630221947,-0.00002726169639401484,-0.00001097008592735445,-0.00000488642282265653,-0.000004936716297525262]},{"input_size":5,"size":256,"prev_input":[40,1,52,36,53],"pre_activation_output":0.113479852,"prev_output":0.11304870808592181,"temperature":0.0001,"weights":[0.000270953,0.000909636,0.000321338,0.000749194,0.001095312],"input_errors":[-0.000032234104147856,-0.00010821521451406917,-0.00003822828759799801,-0.00008912818102367422,-0.00013030467710126707]},{"input_size":5,"size":256,"prev_input":[40,1,52,36,53],"pre_activation_output":0.06701383,"prev_output":0.06692479312472348,"temperature":0.0001,"weights":[0.000658509,0.000028086,0.000293115,0.000526622,0.000121604],"input_errors":[-0.00007543478822414794,-0.0000032173338899532713,-0.00003357759060488291,-0.00006032656818408546,-0.000013930212608251324]},{"input_size":5,"size":256,"prev_input":[40,1,52,36,53],"pre_activation_output":0.08927168099999999,"prev_output":0.08906144107305716,"temperature":0.0001,"weights":[0.000237054,0.001035196,0.001294048,0.000210807,0.000073109],"input_errors":[-0.000027108744079912917,-0.00011838149865466796,-0.00014798350324787813,-0.00002410724335490971,-0.000008360475118542934]},{"input_size":5,"size":256,"prev_input":[40,1,52,36,53],"pre_activation_output":0.028971303999999996,"prev_output":0.028964101075489582,"temperature":0.0001,"weights":[0.000110673,0.000347126,0.000205045,0.000117751,0.000175394],"input_errors":[-0.000014680932205343581,-0.0000460465898620088,-0.00002719953905630772,-0.000015619821260071048,-0.000023266300558262984]},{"input_size":5,"size":256,"prev_input":[40,1,52,36,53],"pre_activation_output":0.10044582099999999,"prev_output":0.1001465506393136,"temperature":0.0001,"weights":[0.000061505,0.00003445,0.000597653,0.000713203,0.000777319],"input_errors":[-0.000007029430342599475,-0.000003937322506184774,-0.00006830578133056209,-0.00008151173614272165,-0.00008883978779624188]},{"input_size":5,"size":256,"prev_input":[40,1,52,36,53],"pre_activation_output":0.047954853,"prev_output":0.04792220240262838,"temperature":0.0001,"weights":[0.00006255,0.000470199,0.000410124,0.000460637,0.000133458],"input_errors":[-0.00000784242035695057,-0.000058952956578793445,-0.0000514210676557877,-0.00005775412101413786,-0.000016732912715400337]},{"input_size":5,"size":256,"prev_input":[40,1,52,36,53],"pre_activation_output":0.07267869299999999,"prev_output":0.072565143939408,"temperature":0.0001,"weights":[0.000371346,0.000133512,0.00023961,0.000243997,0.000687693],"input_errors":[-0.000042548626231673525,-0.000015297662586111255,-0.00002745446824363933,-0.000027957039549031632,-0.00007879563754127854]},{"input_size":5,"size":256,"prev_input":[40,1,52,36,53],"pre_activation_output":0.032342825000000006,"prev_output":0.032332804055209,"temperature":0.0001,"weights":[0.00006119,0.000354242,0.000269836,0.000306813,0.000084231],"input_errors":[-0.0000074346401060415406,-0.000043040557452282083,-0.000032785281390491066,-0.000037277964740268164,-0.000010234167436899563]},{"input_size":5,"size":256,"prev_input":[40,1,52,36,53],"pre_activation_output":0.053263967,"prev_output":0.053219235214049185,"temperature":0.0001,"weights":[0.000151786,0.000342242,0.000596262,0.000218535,0.000150517],