{"input_size":5,"layers":[{"input_size":5,"size":456,"prev_input":[40,1,52,36,53],"input_error":[-13.327708291283964,-28.283837359960717,-58.36239473366942,58.22276708907379,7.799657824818978],"prev_output":[-1,1,1,1,1,1,-0.16249488753507257,1,-0.21433510771676748,1,-0.1377899029807402,1,1,1,1,1,1,1,1,1,-0.19757166084998212,1,1,-0.002130959132835048,1,1,-0.1556920394552692,-0.31792489720032063,1,1,0.7171097577897576,0.17702958700260762,-0.30638389821356943,-0.12864153609411966,1,-0.24590309084442893,-0.08430299942798311,-0.10758660827668905,1,1,-0.03035055502431766,1,1,1,1,1,-0.3975095679392054,-0.3372790692627986,1,0.5350082905615442,1,0.1092316782544986,-0.39063299024859793,1,0.9991123605137336,1,1,1,-0.17802020278068226,0.18279228094359443,1,0.0352449387544804,0.05129291533478084,-0.281620229352885,-0.21525945748416148,-0.1742132748515516,-0.04465483627421978,-0.3175991380639685,1,1,1,-0.2616294322508779,1,1,0.06767493727777077,0.64440796588186,0.7903498461663111,1,-0.1890512888624666,1,-0.2902587325316851,1,1,-0.11026897179715942,-0.2263534340892026,1,1,1,-0.0327915542579749,-0.09318541722693169,1,-0.07144251064970482,0.8874021982724711,1,1,-0.186761819696761,1,-0.035487726508466884,-0.2148661381274261,-0.2490810442435534,-0.272746681716912,1,-0.2574048410517461,1,0.2394756722946861,-0.11588272028602203,-0.010386432989726333,1,1,1,-0.04824229519042592,1,1,1,1,-0.3254168442827724,-0.1171317330259475,1,1,1,0.30217232530325744,1,1,1,-0.2392767714084061,1,1,-0.140879996038809,1,1,-0.2159265110227823,0.6112481306108076,1,1,1,-0.24315407964437094,1,-0.05362648332751343,-0.11753109885348811,-0.541246341635452,1,1,-0.23183978546735248,1,1,-0.3807295008879199,0.5276364041158891,0.03115280203263347,1,-0.3253491300459768,1,1,1,1,1,1,0.24620668611908095,1,1,-0.12921184884054568,0.7098426973917632,-0.11490420086185962,-0.05612499754686797,-0.4231130397126988,1,-0.3511836125604844,1,0.7549152654709722,0.01573963350027163,-0.5767737246914952,1,0.8370365738716987,1,1,1,1,-0.3596079408490578,-0.12874154489472897,1,1,-0.1532584077421102,1,1,1,1,1,-0.3110083481062103,1,0.3577506989455989,1,1,1,1,0.9433374117629625,1,1,1,-0.041292696695138235,1,1,-0.11691973688402858,-0.3216271958252763,-0.2371495217437423,-0.2849618927518005,-0.13657622590054747,1,1,1,1,1,-0.21985726145912413,1,1,0.5243830404262765,0.5732457129480593,-0.2483231792488112,-0.20919034760893493,-0.21919817898512908,1,-0.3894222292891673,-0.3426737627325803,1,0.16320863975160807,1,1,1,0.7591668749113831,0.5386934624679591,-0.13256562196796073,1,-0.35726788471101834,1,-0.3032282168112719,1,1,1,1,1,1,0.3136793463881354,1,1,1,1,1,1,-0.21806272086149636,1,-0.1675524331588406,1,1,1,0.3726116146877347,1,1,1,-0.3906857155191169,-0.2588009877858128,-0.18893824875706222,1,1,1,1,0.5500785726039996,1,1,1,-0.05517132028952836,-0.15772676245051212,-0.07743733577063128,1,-0.001860891090630762,1,1,0.1447409140027861,-0.139230327230504,-0.11326237999559342,-0.271512037566478,-0.4975904588154899,1,-0.4406439091589484,1,1,-0.28071693308965356,1,0.13386717005158483,1,-0.5028326588237078,1,-0.2790561242402278,1,1,0.35310945518919046,0.3791858108367889,1,1,-0.7038344123970861,-0.27916284391076873,1,-1,1,1,1,-0.3179066210200138,1,1,-0.298762278807119,-0.211818702549962,1,1,-0.030633521961047648,1,0.37186874663233155,1,1,1,1,0.42325638139543426,-0.3716110227680887,1,1,-0.0593710937589959,-0.16434466967693795,-0.12498350867459322,-0.19632091787337985,0.7594083075726327,-0.5385677652662054,0.2271401204728313,1,0.9488343092878554,1,-0.2010223690543184,-1,1,-0.211032416004896,-0.23957555158477603,0.7655527438961516,-0.06219742693919114,1,1,-0.29334128764761697,-0.20375119685331683,1,1,1,1,1,1,1,-0.1112766444768674,-0.15942047688479236,1,-0.49189785558835647,-0.09225254117167689,0.7895341959218822,1,-0.11625675946522213,1,1,1,0.30036420152020266,1,-1,-0.12094694159717004,1,0.0884879689594697,1,1,1,1,1,0.15223627740446774,1,0.10465894017895339,1,1,-1,-0.17347349155281222,-0.2718758891067829,1,-0.22545818648453753,1,1,-1,0.7417433203922791,0.2349631900584149,1,1,1,1,0.46364315573399517,1,-1,0.9995810528832701,1,-0.5377958968938427,1,1,1,1,1,0.9947450912906044,1,-0.27631378892179853,0.8651389544363148,1,1,0.007639849872024938,1,-0.2045492154151767,1,1,1,-0.40673911900876075,0.22579421785073017,-1,-0.7311842607653709,1,-0.213588134957612,0.7153097553464619,1,-0.34453521663472325,1,1,1,0.994767231936538,1,1,0.08600627219341406,-0.09801735514381699,1,1,1,-0.2097967377567929,-0.17850763845001763,-0.33898041561776576,0.7650589806898831,-0.2725208779542026,1,1,-0.12485262967838275,1,-0.19984092188999816,1,1,-0.17166595364483192,-0.2037109433902465,1,-0.12071017531778773,-0.7871967491604056,-0.2634063342193174,-0.29307940186713594,-0.27816293678336906,-0.13244208186371453,0.08763504688142679,1],"prev_output_error":[1.7671667585640187,1.0205061386452796,0.9933049628582249,-0.9876095967334284,0.7781652333874791,1.1328348046721184,0.0019080247300684895,-0.9909745425809962,0.00020548607152243333,0.5079135688540249,-0.006092939062443472,-0.9570689957120508,0.911661207836709,0.9981303446162278,0.685766565702735,1.0053211168225238,0.997711134690671,0.5929983812575472,0.008939512698263243,-0.9656417053965333,0.015838143461242973,-0.7379065370783249,0.5629426708026379,-0.00005849859907657061,1.2873262429552401,0.9443688182132292,0.0035125671553103356,-0.0008464040305119383,0.9335011778385944,1.0065517284622474,0.004288334836892221,-0.0014917585229739503,-0.003215213301092308,-0.007433200156520674,0.9950066523199038,0.0008841707359038399,0.005291392787448164,0.0007271010125633102,0.6738072680736245,1.4655264816479507,0.004640939280062454,-0.9900223268670608,-0.9941842959583581,-0.6414294252077841,-0.8129897390200554,1.5061808652367092,0.0041352136092038735,0.004110361289420698,1.04061496195457,0.00342171142579421,0.8664929269760768,-0.001870864940582001,0.006771561149138679,-1.057160643069746,0.001141756333428408,0.8351871234364472,-1.0447371513814332,0.9124685779134313,0.004595933441827304,-0.003414162542758923,1.0293635257597717,0.002520503843409061,-0.0036335872179538717,-0.0019577388998137262,0.0024243002677479435,0.0006876584236020023,-0.00027606840971718073,-0.0016157364494501433,-0.594408332114384,0.9397450218221038,0.9866298096865362,0.004350069369892015,-1.2599434469274775,-1.150997853292867,-0.0029979434895973833,-0.0015861532989008553,-0.006776824901970083,1.9543352658697257,0.001818813384907065,0.5293016042419106,-0.006321883622499799,0.29494595776238697,0.6920554154958489,0.00019876502191194063,-0.0025386759881696717,-1.1828779786461363,-1.1065277624240475,0.8149016543611826,-0.0007273689928132313,0.0026566630953686974,1.0930881247805644,-0.0016348453566369088,-0.003757546525585114,1.0014063154681914,-0.9884208339123386,-0.0038765879633600358,0.7332570120566557,0.013574484816851489,-0.0037379818273056654,-0.0037027043298453032,-0.001246341665076527,-1.0012637481914013,0.0038327599390573005,0.9577510330724623,0.03183763327226022,0.004984960490404758,0.004052496755225006,1.1515373282184516,-0.4748129012601504,0.9508658216543229,-0.003490698433199627,0.477811894451533,1.0010037807789085,0.9137212863829124,-0.8656791287387944,-0.002880306614093344,-0.005867022585244234,-1.0040510670136356,1.9818446139085375,1.0027353009800828,-0.0019157191082138818,1.2998860684487277,0.978528269537635,0.981183800079583,-0.0026102813270778703,0.9286916243217629,0.9912653988624187,0.0008146015607341374,1.0273278399354198,-0.5151281583440733,-0.004500269955434152,-0.0023733296408554668,0.7429290522128027,-1.1127641445498984,0.9960103207884022,-0.004867264187338212,0.6804790180214693,0.018664346513500997,-0.005228622490701883,0.0021921812818513674,0.9045487907941969,-0.8350829968981642,-0.0015095402693820431,0.9962503328403388,1.1524010305591492,-0.0008316236264978723,0.008857744204656971,-0.004534907822501504,1.5708820776455283,-0.006521938705315309,-0.7238263138423114,1.001113898851173,0.747841745398126,0.7422478380140556,1.2474590316859928,1.0359277414404056,-0.002388367715628083,0.9973901103240156,2.0967589646944176,0.002405420391488179,-0.0021366220944895346,-0.00016518267170918094,-0.005371867486727878,0.004777483639157626,0.9938674835843367,-0.006978656388868567,0.9269048307307102,-0.00809382469774954,-0.004186308734222877,0.002946799781745399,0.507889637996924,0.0034961542643436763,0.9605060707341805,0.9990862673018781,0.8642168091728242,0.9829184713135244,0.019790466329288766,0.0036271866071942676,0.9914988503386083,0.9410901282160142,-0.007906253675143223,-1.1501073341939105,0.21048856873895394,-1.0018986072956253,1.031366982266514,-1.0418817854866635,-0.006798143420814507,1.1260599400652036,-0.006891541984815666,-0.4039510123558768,1.1679142957153414,0.9956665668570095,0.9616961931875306,0.00505651315837286,0.6557210517135483,0.9868632297431839,1.653783862897978,-0.002036566736042027,1.0012697720481087,0.8867005371766598,-0.00016605857330253626,0.0010359339108002642,-0.008391454784385438,-0.0074856750710555284,0.002307269099409602,-0.9998336102660121,0.8803245683051075,0.975706697818154,1.0018315115085463,1.0108245549181043,-0.005452669272649968,1.1156585685456217,1.2178762603635793,0.016901884597696912,-0.008109850768481634,-0.0009592361958542134,-0.00526455330444419,-0.007082654593409647,0.9145682903193021,0.0072865120399132535,0.006436207814850824,1.2701137038964299,0.001606007843273684,1.7589028996974458,1.0054233229355314,1.2812389305982292,0.019693505842103318,0.0022963833319818347,0.0016128643401531746,-0.9764291107502481,0.0044477880280199,1.0025966329280476,-0.003165006866012684,-0.9884099578362342,0.9786649470175389,0.9938049725409561,0.4125026968004012,0.8242807623753875,-0.8636319579788071,-0.00031928682224532023,-0.8891302105573952,-1.2226161272702445,0.7607045829666186,0.7581991299268681,-0.8420197707571487,0.44614072747402167,0.0028857562565903242,1.0140253641692196,-0.006206540386104854,0.9652549152798174,0.9296710603561504,1.302199399209438,-0.006135705229428404,1.0030442927771566,-0.2193631619898382,1.0923304084441778,-0.00446433059508167,0.0026755380733069463,0.0011876685204597946,1.0033947815652369,1.008705472584408,0.9092925421390432,0.022729080777159825,0.0037550505737477,-0.33468683615105715,0.8205335836249674,0.3241745232394518,0.00039520144068811813,-0.005749522753008626,-0.004548412478693503,-0.9201970339655311,-0.0010468419732969924,1.0291255949799263,-0.9767022954514233,-0.002292444754199972,0.0033642619356285784,-0.0037251703565854,0.0004192498408907483,0.005092086046437592,0.621810062859393,0.0048865455902851,1.0089313580072246,-0.6506222152163819,-0.0034335775361168455,-0.9945548301706413,0.00262185203091164,0.9398415306555716,-0.0006546142696460863,1.0008640137262095,-0.0012295549462373345,1.0011877370465783,0.9464500208368638,-0.0019637405314599185,-0.003849858926435604,1.010553710806853,-0.9873211884598169,0.005677275704794393,0.004768120590507967,0.9240973581410411,1.0493203771659863,-1.1689746297022259,0.9586896644147278,-1.214583158639796,-0.00397154869924852,0.9895291896029113,0.827559484550211,-0.007110079915261556,-0.0019537287181173755,0.6858647959217627,1.0034556956235374,0.0029815522160565456,1.00135348120321,-0.0032822647929790427,0.9975996270758871,0.031241339213461304,-0.43503483761834916,1.058742229698725,0.016454848251024168,0.0013761390508853606,1.6650834732538695,0.11475591423063558,0.014270192853018433,-0.003974616425975696,0.0041321498754576,0.005159854214799775,0.024405677156924047,-0.0015777409979805131,0.008258042061222975,1.0853979848220425,-0.0027148981224161114,0.9150789985149133,-0.0026336760200849634,0.967656786397491,0.9808196571233962,-0.003990020778493118,0.00258040608426401,0.009561758759282198,-0.0058700307470287705,-1.1594682018012001,-0.5416805653034833,-0.0012824668555265848,0.002518692891144539,1.0126589620092254,0.9908025582238743,-1.3712177224237898,-0.9893511005039946,-0.2530072365013558,-0.9766962823752583,1.1981777150991786,0.0015490869063678001,-0.005527422068910842,0.9855501765760442,0.0004273269367774847,-0.003569079039991233,-0.002550298714939986,-0.9500323861710945,-0.004458264919152874,0.971520019146989,1.1011265482147095,0.9653431597863315,-0.0032869052335399523,-0.9968056697844626,0.21864442414363738,0.0008387422464956635,1.3551473529019862,-0.004637179232497522,0.27803902682635,1.0020439589474572,0.34795922618451436,1.0030583802615372,0.6304656328850666,-0.004269467401190421,0.9995422547442391,0.003455690778157719,-0.5371170192139801,0.959655285122161,1.2587316685756615,0.0011101727315772558,0.0234178496921761,-0.03323944232281311,-0.006000624333002339,-0.25102983072483354,0.9969346921118949,0.9942931262468487,-0.005862063489930544,-0.0062581852682561424,0.6294133576219807,0.8610578873078216,0.9959427645404508,3.2208703748198957,-0.005258464522111058,1.151957426020933,0.9971270856669122,0.0005393177154545671,1.0362272877516243,0.004390383596389169,-0.023463941467790943,-3.512146540204008,0.992928970072578,0.9961116906647691,1.5573014920953925,0.0022428348298927075,1.0063022361354208,-0.002579019191202036,-0.0048939808702358235,1.0853678967366662,1.4611786698670153,0.0005574512897704924,1.2318682745882874,0.00022006755271294812,1.0777046356677258,0.6377124963336238,0.9984946873170154,0.0029806474732347724,0.009129284363411969,0.13219099669918288,0.013286477103221884,-0.5365440646420959,-0.0011087794539640437,0.02906236106013408,-0.965938585967305,0.0005246808853190834,0.591897254812832,-0.9687886164080806,-0.009786627698949495,0.03483427696824443,0.9950626626526027,1.005685216909558,0.0029852129426328373,-0.0010644753057738347,0.7634519505522979,0.6773935534841202,0.9748765988523618,0.0027617164074004432,-0.002439898757093293,0.0007251233700614145,0.00027971203865708415,-0.003126116148701674,-0.7624581825837653,0.99074362960304,-0.003098561059154706,0.854015618767904,-0.00867878351891538,0.2832164349119052,-1.0465592127150536,-0.005030809538706892,0.0036887532761468098,1.020517621276352,-0.003963642732030874,0.01395180647791626,-0.0013745505694026292,-0.004500761695779758,-0.001276150735310267,0.001708058729999098,0.0024737737006518797,-1.0764488072422533],"nodes":[{"input_size":5,"size":456,"prev_input":[40,1,52,36,53],"pre_activation_output":-27.416289261999964,"prev_output":-1,"temperature":0.0001,"weights":[8.086084094,20.65842401,16.266564168,12.761547234,-31.637643664],"input_errors":[0,0,0,0,0]},{"input_size":5,"size":456,"prev_input":[40,1,52,36,53],"pre_activation_output":1154.224784383,"prev_output":1,"temperature":0.0001,"weights":[-7.277939489,-1.444580568,13.750715829,18.632222136,1.150749519],"input_errors":[0,0,0,0,0]},{"input_size":5,"size":456,"prev_input":[40,1,52,36,53],"pre_activation_output":655.315855694,"prev_output":1,"temperature":0.0001,"weights":[0.58860765,-1.402682174,-1.68951339,23.639410623,-2.45263876],"input_errors":[0,0,0,0,0]},{"input_size":5,"size":456,"prev_input":[40,1,52,36,53],"pre_activation_output":1554.978036776,"prev_output":1,"temperature":0.0001,"weights":[14.458158695,-11.514573398,9.42506677,-1.057763688,10.115892134],"input_errors":[-0.543859875705724,0.43313400016632825,-0.35453436411315536,0.03978901687976275,-0.38052042795724844]},{"input_size":5,"size":456,"prev_input":[40,1,52,36,53],"pre_activation_output":432.76684629,"prev_output":1,"temperature":0.0001,"weights":[0.963219602,14.401826014,12.908367978,14.531845157,-15.368779704],"input_errors":[0,0,0,0,0]},{"input_size":5,"size":456,"prev_input":[40,1,52,36,53],"pre_activation_output":1433.387105457,"prev_output":1,"temperature":0.0001,"weights":[16.952594989,-7.622674912,20.576597298,5.025178037,-9.207235623],"input_errors":[0,0,0,0,0]},{"input_size":5,"size":456,"prev_input":[40,1,52,36,53],"pre_activation_output":-0.16378516700000006,"prev_output":-0.16249488753507257,"temperature":0.0001,"weights":[-0.004804486,-0.000930446,-0.004299289,0.004723248,0.001563223],"input_errors":[-0.000009167071393995984,-0.0000017753135478590582,-0.000008203143623148423,0.000009012068109621722,0.000002982665941257509]},{"input_size":5,"size":456,"prev_input":[40,1,52,36,53],"pre_activation_output":1280.698697297,"prev_output":1,"temperature":0.0001,"weights":[-6.590046038,5.839351,21.488619347,-18.508693111,20.516338373],"input_errors":[0,0,0,0,0]},{"input_size":5,"size":456,"prev_input":[40,1,52,36,53],"pre_activation_output":-0.217329423,"prev_output":-0.21433510771676748,"temperature":0.0001,"weights":[-0.001245813,-0.002066297,-0.001907689,-0.00182622,-0.000009186],"input_errors":[-2.5599617433345967e-7,-4.245935073573707e-7,-3.920018354632621e-7,-3.7526113310531914e-7,-1.8875139345748367e-9]},{"input_size":5,"size":456,"prev_input":[40,1,52,36,53],"pre_activation_output":1453.8139838129998,"prev_output":1,"temperature":0.0001,"weights":[22.490056179,-14.628054192,-4.428857176,17.737602147,3.029937485],"input_errors":[0,0,0,0,0]},{"input_size":5,"size":456,"prev_input":[40,1,52,36,53],"pre_activation_output":-0.138573322,"prev_output":-0.1377899029807402,"temperature":0.0001,"weights":[-0.000803545,-0.003740844,-0.000737276,-0.000329037,-0.000990698],"input_errors":[0.000004895934574944354,0.00002279266079798544,0.000004492159969728987,0.0000020047938895359267,0.000006036243936841277]},{"input_size":5,"size":456,"prev_input":[40,1,52,36,53],"pre_activation_output":2326.94046486,"prev_output":1,"temperature":0.0001,"weights":[-5.306332661,-24.717258786,26.274910574,14.080574181,13.032358674],"input_errors":[0.3623983459655277,1.6880789342481837,-1.7944557076228163,-0.9616411693954356,-0.8900498123551036]},{"input_size":5,"size":456,"prev_input":[40,1,52,36,53],"pre_activation_output":1359.819673726,"prev_output":1,"temperature":0.0001,"weights":[-24.247895435,0.021777249,16.546007605,7.823653198,22.408864213],"input_errors":[-3.589327571561349,0.0032235953500768877,2.4492480917389474,1.1581013778998157,3.3171098487460484]},{"input_size":5,"size":456,"prev_input":[40,1,52,36,53],"pre_activation_output":1187.2404305280002,"prev_output":1,"temperature":0.0001,"weights":[-15.839958004,-4.78806563,9.255298763,26.843132389,7.132047446],"input_errors":[0,0,0,0,0]},{"input_size":5,"size":456,"prev_input":[40,1,52,36,53],"pre_activation_output":455.240182323,"prev_output":1,"temperature":0.0001,"weights":[4.476533701,3.809108207,1.845930576,2.708664602,1.488102084],"input_errors":[0,0,0,0,0]},{"input_size":5,"size":456,"prev_input":[40,1,52,36,53],"pre_activation_output":616.167689725,"prev_output":1,"temperature":0.0001,"weights":[-4.331689803,2.121878069,-5.892233243,12.517434061,12.133620872],"input_errors":[0,0,0,0,0]},{"input_size":5,"size":456,"prev_input":[40,1,52,36,53],"pre_activation_output":379.9176782469999,"prev_output":1,"temperature":0.0001,"weights":[-2.024318744,10.983615601,15.089346502,-4.428122581,-3.308052694],"input_errors":[0,0,0,0,0]},{"input_size":5,"size":456,"prev_input":[40,1,52,36,53],"pre_activation_output":388.764882175,"prev_output":1,"temperature":0.0001,"weights":[4.201883944,7.789272388,-1.626639,6.039783043,1.510439443],"input_errors":[0,0,0,0,0]},{"input_size":5,"size":456,"prev_input":[40,1,52,36,53],"pre_activation_output":4.703010852,"prev_output":1,"temperature":0.0001,"weights":[-0.029319355,0.001951318,-0.009550694,0.016542451,0.108961162],"input_errors":[-0.00026209573665478877,0.000017443497731881662,-0.00008537692357716283,0.00014787858524660522,0.0009740412101627373]},{"input_size":5,"size":456,"prev_input":[40,1,52,36,53],"pre_activation_output":2373.342631529,"prev_output":1,"temperature":0.0001,"weights":[12.637385643,-21.436250058,14.335608234,5.518975258,17.832994687],"input_errors":[-0.021080914522971474,0.03575864391697686,-0.02391378536077138,-0.009206417779739877,-0.029747911307496915]},{"input_size":5,"size":456,"prev_input":[40,1,52,36,53],"pre_activation_output":-0.19990763100000009,"prev_output":-0.19757166084998212,"temperature":0.0001,"weights":[0.00087864,0.026836006,-0.000389903,0.013911412,-0.014008021],"input_errors":[0.000013911818667194267,0.00042490386578396803,-0.000006173470182720826,0.0002202642147485302,-0.00022179402215731741]},{"input_size":5,"size":456,"prev_input":[40,1,52,36,53],"pre_activation_output":995.9771234690002,"prev_output":1,"temperature":0.0001,"weights":[20.702286118,19.310991757,15.152428901,-30.844727451,8.887897592],"input_errors":[-0.05630021152597089,-0.052516566790975945,-0.041207281593753795,0.08388275677095158,-0.024170784385563044]},{"input_size":5,"size":456,"prev_input":[40,1,52,36,53],"pre_activation_output":274.51347906999996,"prev_output":1,"temperature":0.0001,"weights":[7.352357108,-0.547664709,0.687879013,-0.78573936,-0.500306269],"input_errors":[2.819075854621996,-0.2099862841712038,0.26375066338037356,-0.30126823940957326,-0.19183092083647438]},{"input_size":5,"size":456,"prev_input":[40,1,52,36,53],"pre_activation_output":-0.002130962000000014,"prev_output":-0.002130959132835048,"temperature":0.0001,"weights":[-0.001623978,-0.003624547,-0.003201328,-0.003497586,0.006770469],"input_errors":[9.499921979598619e-8,2.120281941018966e-7,1.8727081704568028e-7,2.0460127027415407e-7,-3.960578945713097e-7]},{"input_size":5,"size":456,"prev_input":[40,1,52,36,53],"pre_activation_output":459.750255325,"prev_output":1,"temperature":0.0001,"weights":[2.550588395,3.698200736,2.084525431,3.385290403,2.335146073],"input_errors":[0,0,0,0,0]},{"input_size":5,"size":456,"prev_input":[40,1,52,36,53],"pre_activation_output":771.447614223,"prev_output":1,"temperature":0.0001,"weights":[23.208043449,2.212244724,5.834599277,13.676633136,-18.015930637],"input_errors":[0,0,0,0,0]},{"input_size":5,"size":456,"prev_input":[40,1,52,36,53],"pre_activation_output":-0.156825564,"prev_output":-0.1556920394552692,"temperature":0.0001,"weights":[0.007445327,0.000663207,-0.004657424,-0.00512207,-0.000541911],"input_errors":[0.000026152161437425,0.000002329554677189511,-0.000016359481327737487,-0.000017991577587940706,-0.0000019034946133866414]},{"input_size":5,"size":456,"prev_input":[40,1,52,36,53],"pre_activation_output":-0.328020332,"prev_output":-0.31792489720032063,"temperature":0.0001,"weights":[-0.00212814,0.000319748,-0.001569556,-0.001352617,-0.002130252],"input_errors":[0.0000018012640619046869,-2.7063548609938373e-7,0.0000013284774933867606,0.0000011448594511984103,0.0000018030521302900388]},{"input_size":5,"size":456,"prev_input":[40,1,52,36,53],"pre_activation_output":92.313020113,"prev_output":1,"temperature":0.0001,"weights":[16.011876193,19.364901458,-0.738558684,3.403302153,-12.295108585],"input_errors":[0,0,0,0,0]},{"input_size":5,"size":456,"prev_input":[40,1,52,36,53],"pre_activation_output":1233.356432021,"prev_output":1,"temperature":0.0001,"weights":[-3.665768027,-6.763432297,-5.528590434,13.025214583,22.742067226],"input_errors":[-0.001285042166926284,-0.0023709344282639238,-0.0019380582184493741,0.004566014450650407,0.007972276283303924]},{"input_size":5,"size":456,"prev_input":[40,1,52,36,53],"pre_activation_output":0.875465318,"prev_output":0.7171097577897576,"temperature":0.0001,"weights":[-0.003405511,-0.0102803,-0.009205473,0.008143446,0.022782766],"input_errors":[-0.000014603946072837363,-0.00004408528983398893,-0.00003947608707365139,0.000034921760392447365,0.00009769997311196666]},{"input_size":5,"size":456,"prev_input":[40,1,52,36,53],"pre_activation_output":0.17870268299999997,"prev_output":0.17702958700260762,"temperature":0.0001,"weights":[-0.00008806,-0.005406554,0.000896975,-0.005499628,0.006395765],"input_errors":[1.3136192929185207e-7,0.00000806509609320342,-0.0000013380403579324254,0.000008203938025625047,-0.000009540727702815822]},{"input_size":5,"size":456,"prev_input":[40,1,52,36,53],"pre_activation_output":-0.31538020099999997,"prev_output":-0.30638389821356943,"temperature":0.0001,"weights":[0.001575022,0.000091504,-0.002516222,-0.002541116,-0.002946205],"input_errors":[-0.000005064023917163392,-2.942043400429024e-7,0.000008090178201283259,0.000008170221297575591,0.000009472663932012614]},{"input_size":5,"size":456,"prev_input":[40,1,52,36,53],"pre_activation_output":-0.12927816899999997,"prev_output":-0.12864153609411966,"temperature":0.0001,"weights":[-0.003538108,-0.001409608,0.001812665,-0.002230474,-0.000005769],"input_errors":[0.000026299356002143336,0.000010477854141114077,-0.000013473844693492052,0.00001657949189284198,4.288065984199287e-8]},{"input_size":5,"size":456,"prev_input":[40,1,52,36,53],"pre_activation_output":772.3779380420001,"prev_output":1,"temperature":0.0001,"weights":[-5.180016993,-0.505055233,-3.698104915,12.217419316,13.821849683],"input_errors":[0,0,0,0,0]},{"input_size":5,"size":456,"prev_input":[40,1,52,36,53],"pre_activation_output":-0.250463145,"prev_output":-0.24590309084442893,"temperature":0.0001,"weights":[-0.000867058,-0.002176998,-0.001687534,-0.001175764,-0.001575935],"input_errors":[-7.666250893260285e-7,-0.000001924832338621992,-0.0000014920638292512912,-0.0000010395728902233864,-0.0000013933912782850382]},{"input_size":5,"size":456,"prev_input":[40,1,52,36,53],"pre_activation_output":-0.08448122699999996,"prev_output":-0.08430299942798311,"temperature":0.0001,"weights":[-0.004237749,-0.004058847,-0.004073187,0.007752799,0.00041118],"input_errors":[-0.00002242356407180358,-0.000021476925329965103,-0.000021552806424195297,0.0000410230452421902,0.000002175711489664951]},{"input_size":5,"size":456,"prev_input":[40,1,52,36,53],"pre_activation_output":-0.10795797799999998,"prev_output":-0.10758660827668905,"temperature":0.0001,"weights":[0.002860848,-0.003521344,-0.001931669,-0.003544323,0.000173054],"input_errors":[0.0000020801090091354996,-0.0000025603523389710735,-0.0000014045072994567172,-0.0000025770603628881008,1.2582707501485422e-7]},{"input_size":5,"size":456,"prev_input":[40,1,52,36,53],"pre_activation_output":754.5030653709999,"prev_output":1,"temperature":0.0001,"weights":[-11.173743524,19.28978911,29.062469367,-9.097689425,-0.029595671],"input_errors":[0,0,0,0,0]},{"input_size":5,"size":456,"prev_input":[40,1,52,36,53],"pre_activation_output":567.94030821,"prev_output":1,"temperature":0.0001,"weights":[2.013625288,3.627659675,3.077099602,1.183797863,5.304561031],"input_errors":[0.003049694456645609,0.005494196592970938,0.004660357498300731,0.0017928964371479185,0.008033913176640777]},{"input_size":5,"size":456,"prev_input":[40,1,52,36,53],"pre_activation_output":-0.03035884300000001,"prev_output":-0.03035055502431766,"temperature":0.0001,"weights":[-0.003963956,-0.004827874,-0.003733518,0.010942362,-0.001259525],"input_errors":[-0.000018396373397117257,-0.000022405740325477188,-0.000017326933762475385,0.00005078253856165989,-0.000005845345921752364]},{"input_size":5,"size":456,"prev_input":[40,1,52,36,53],"pre_activation_output":1210.281179827,"prev_output":1,"temperature":0.0001,"weights":[-5.595283299,0.840160612,8.815812703,-5.232177062,21.946952167],"input_errors":[0.10039639616835216,-0.015075042579813633,-0.15818246376087164,0.09388122007012724,-0.39379495080322396]},{"input_size":5,"size":456,"prev_input":[40,1,52,36,53],"pre_activation_output":1526.232967512,"prev_output":1,"temperature":0.0001,"weights":[-4.164591587,-6.616782737,19.503678897,-3.236485977,15.127464269],"input_errors":[0,0,0,0,0]},{"input_size":5,"size":456,"prev_input":[40,1,52,36,53],"pre_activation_output":733.184894306,"prev_output":1,"temperature":0.0001,"weights":[-0.028432542,-0.752197756,-1.94050124,-0.933900688,16.40756383],"input_errors":[0.010731595370150544,0.283912538266288,0.7324217260174007,0.3524962862129389,-6.192845549636279]},{"input_size":5,"size":456,"prev_input":[40,1,52,36,53],"pre_activation_output":1251.922469033,"prev_output":1,"temperature":0.0001,"weights":[30.144565822,8.642423311,18.49880843,-28.226504402,1.730444018],"input_errors":[0,0,0,0,0]},{"input_size":5,"size":456,"prev_input":[40,1,52,36,53],"pre_activation_output":1932.575171101,"prev_output":1,"temperature":0.0001,"weights":[14.229345069,-20.692180091,9.024314093,13.894291809,7.823296424],"input_errors":[3.183522007235338,-4.629422975685301,2.0190074663577313,3.108538506882864,1.7503068340186092]},{"input_size":5,"size":456,"prev_input":[40,1,52,36,53],"pre_activation_output":-0.417951652,"prev_output":-0.3975095679392054,"temperature":0.0001,"weights":[-0.003966817,0.004026943,-0.001788009,0.00207727,-0.004624739],"input_errors":[-0.000016403583793017606,0.00001665221523081257,-0.00000739377548193213,0.000008589925260950355,-0.00001912422311293773]},{"input_size":5,"size":456,"prev_input":[40,1,52,36,53],"pre_activation_output":-0.349425999,"prev_output":-0.3372790692627986,"temperature":0.0001,"weights":[-0.001840287,0.00042966,-0.003353009,0.000958666,-0.002573579],"input_errors":[-0.00000756424252529822,0.0000017660567207514076,-0.00001378207630345186,0.0000039404637021822845,-0.000010578340779070906]},{"input_size":5,"size":456,"prev_input":[40,1,52,36,53],"pre_activation_output":957.3251234919998,"prev_output":1,"temperature":0.0001,"weights":[-38.966489307,11.713066863,3.915727289,27.604593001,24.658272865],"input_errors":[0,0,0,0,0]},{"input_size":5,"size":456,"prev_input":[40,1,52,36,53],"pre_activation_output":0.589372768,"prev_output":0.5350082905615442,"temperature":0.0001,"weights":[0.004898747,-0.00980502,0.003402517,0.024122089,-0.01211506],"input_errors":[0.000016760861816371328,-0.000033547466368448826,0.00001164157104217276,0.0000825327212234985,-0.000041451179466112707]},{"input_size":5,"size":456,"prev_input":[40,1,52,36,53],"pre_activation_output":662.2867039810001,"prev_output":1,"temperature":0.0001,"weights":[-6.265786614,7.060788267,6.610676137,6.348782432,6.293321766],"input_errors":[0,0,0,0,0]},{"input_size":5,"size":456,"prev_input":[40,1,52,36,53],"pre_activation_output":0.10962042299999997,"prev_output":0.1092316782544986,"temperature":0.0001,"weights":[0.001553049,-0.004652899,-0.003797115,-0.004459848,0.00773879],"input_errors":[-0.00000290549899931545,0.000008704808382586961,0.0000071037774991160675,0.000008343642113034393,-0.00001447800196578897]},{"input_size":5,"size":456,"prev_input":[40,1,52,36,53],"pre_activation_output":-0.40996581799999987,"prev_output":-0.39063299024859793,"temperature":0.0001,"weights":[-0.01491727,0.046510088,0.006166305,-0.015792589,0.007322646],"input_errors":[-0.00010100464170880337,0.00031491914480092373,0.00004175197298956032,-0.00010693139095139437,0.00004958154477607832]},{"input_size":5,"size":456,"prev_input":[40,1,52,36,53],"pre_activation_output":1571.511918488,"prev_output":1,"temperature":0.0001,"weights":[10.170502128,6.486386984,26.658306257,-24.559486025,12.37952864],"input_errors":[0,0,0,0,0]},{"input_size":5,"size":456,"prev_input":[40,1,52,36,53],"pre_activation_output":2.574706744,"prev_output":0.9991123605137336,"temperature":0.0001,"weights":[0.063020151,-0.015758974,0.015051083,-0.018524673,-0.00086997],"input_errors":[0.000071952551699176,-0.00001799263158183814,0.000017184405163793527,-0.000021150336769518433,-9.932783687663863e-7]},{"input_size":5,"size":456,"prev_input":[40,1,52,36,53],"pre_activation_output":2118.727746598,"prev_output":1,"temperature":0.0001,"weights":[11.397117553,-22.566062851,9.02324879,19.764424555,9.522280873],"input_errors":[0,0,0,0,0]},{"input_size":5,"size":456,"prev_input":[40,1,52,36,53],"pre_activation_output":1429.3285056769998,"prev_output":1,"temperature":0.0001,"weights":[-6.442865224,6.044818496,22.654503913,-11.12943482,17.049504645],"input_errors":[0.23365384393734262,-0.219218664012698,-0.8215770782483586,0.4036151857844708,-0.6183087790924684]},{"input_size":5,"size":456,"prev_input":[40,1,52,36,53],"pre_activation_output":1028.687296215,"prev_output":1,"temperature":0.0001,"weights":[-23.78554413,2.31434532,15.894502835,23.321838437,5.881026131],"input_errors":[0,0,0,0,0]},{"input_size":5,"size":456,"prev_input":[40,1,52,36,53],"pre_activation_output":-0.17972188399999997,"prev_output":-0.17802020278068226,"temperature":0.0001,"weights":[-0.002465129,-0.003615787,-0.00276343,0.002252101,-0.000280721],"input_errors":[-0.000011329554750336638,-0.00001661789625607139,-0.000012700529055094058,0.000010350493344513625,-0.000001290173545403841]},{"input_size":5,"size":456,"prev_input":[40,1,52,36,53],"pre_activation_output":0.18463632099999994,"prev_output":0.18279228094359443,"temperature":0.0001,"weights":[0.016260254,-0.004969835,-0.00775049,-0.000985495,-0.000420768],"input_errors":[-0.00005551513950547562,0.00001696782408075155,0.000026461427243746535,0.0000033646406300662284,0.0000014365709448159873]},{"input_size":5,"size":456,"prev_input":[40,1,52,36,53],"pre_activation_output":584.003727975,"prev_output":1,"temperature":0.0001,"weights":[4.588076622,3.180499961,4.270741169,-0.345194712,3.540540226],"input_errors":[0.063254351949607,0.043848526066318415,0.05887935556435572,-0.004759087510500887,0.04881231118800821]},{"input_size":5,"size":456,"prev_input":[40,1,52,36,53],"pre_activation_output":0.03525792,"prev_output":0.0352449387544804,"temperature":0.0001,"weights":[-0.001179503,-0.003153416,0.008789638,-0.001350332,-0.006091656],"input_errors":[-0.000002972934648780755,-0.000007948179930178315,0.000022154269789724762,-0.000003403508447050361,-0.00001535400965403448]},{"input_size":5,"size":456,"prev_input":[40,1,52,36,53],"pre_activation_output":0.051332958999999984,"prev_output":0.05129291533478084,"temperature":0.0001,"weights":[0.008545545,-0.005671993,0.000696407,-0.002363803,-0.004451568],"input_errors":[-0.00003105085650311266,0.000020609600804422365,-0.0000025304457658011863,0.000008589049752756933,0.000016175093225546928]},{"input_size":5,"size":456,"prev_input":[40,1,52,36,53],"pre_activation_output":-0.28854625,"prev_output":-0.281620229352885,"temperature":0.0001,"weights":[-0.004456476,-0.000065906,-0.001154073,0.005203126,-0.004481548],"input_errors":[0.000008724593926664246,1.290270508204246e-7,0.0000022593681645208677,-0.000010186335560765639,0.000008773677272365564]},{"input_size":5,"size":456,"prev_input":[40,1,52,36,53],"pre_activation_output":-0.21829337499999998,"prev_output":-0.21525945748416148,"temperature":0.0001,"weights":[-0.003096936,-0.002037125,-0.001754741,-0.000230741,0.000135366],"input_errors":[-0.000007507884122763439,-0.000004938590734880249,-0.000004254008637209406,-5.593837381431452e-7,3.281667688762598e-7]},{"input_size":5,"size":456,"prev_input":[40,1,52,36,53],"pre_activation_output":-0.17580688600000002,"prev_output":-0.1742132748515516,"temperature":0.0001,"weights":[0.003071299,-0.002466089,-0.003049205,-0.003375789,-0.000303881],"input_errors":[0.0000021119928979539876,-0.0000016958175815948074,-0.0000020967999766937605,-0.000002321376493921679,-2.0896505818476885e-7]},{"input_size":5,"size":456,"prev_input":[40,1,52,36,53],"pre_activation_output":-0.044681249000000034,"prev_output":-0.04465483627421978,"temperature":0.0001,"weights":[-0.002652197,-0.003686164,0.005186077,-0.003137405,-0.001728993],"input_errors":[7.321810543333749e-7,0.0000010176243266034607,-0.0000014316990526034448,8.661306625733965e-7,4.773160813233686e-7]},{"input_size":5,"size":456,"prev_input":[40,1,52,36,53],"pre_activation_output":-0.327662313,"prev_output":-0.3175991380639685,"temperature":0.0001,"weights":[-0.000139481,0.000768009,-0.00337917,-0.000803568,-0.002230298],"input_errors":[2.2536525779529158e-7,-0.0000012408995350586358,0.000005459847715129742,0.0000012983535497012633,0.0000036035732523150336]},{"input_size":5,"size":456,"prev_input":[40,1,52,36,53],"pre_activation_output":482.17135290699997,"prev_output":1,"temperature":0.0001,"weights":[-1.286099966,0.478475466,8.816592592,-2.931260365,3.399989329],"input_errors":[0.48863478354523354,-0.18179138009973494,-3.3497246183081235,1.1137028424452593,-1.291768622343842]},{"input_size":5,"size":456,"prev_input":[40,1,52,36,53],"pre_activation_output":1186.164189557,"prev_output":1,"temperature":0.0001,"weights":[19.367512923,-5.559853031,-19.1521694,19.993426807,13.078735272],"input_errors":[0,0,0,0,0]},{"input_size":5,"size":456,"prev_input":[40,1,52,36,53],"pre_activation_output":186.26379945999983,"prev_output":1,"temperature":0.0001,"weights":[1.464876924,11.440766652,-16.075338247,23.953535172,1.6946845],"input_errors":[0,0,0,0,0]},{"input_size":5,"size":456,"prev_input":[40,1,52,36,53],"pre_activation_output":-0.267147256,"prev_output":-0.2616294322508779,"temperature":0.0001,"weights":[-0.00032194,0.002771433,-0.000054419,-0.00433243,-0.001853657],"input_errors":[-0.00000140045789702828,0.00001205590982004719,-2.367250423753144e-7,-0.000018846348310694342,-0.000008063528155117753]},{"input_size":5,"size":456,"prev_input":[40,1,52,36,53],"pre_activation_output":1651.1747345149997,"prev_output":1,"temperature":0.0001,"weights":[30.311594759,-16.213178469,-9.955904347,12.783574582,9.668348372],"input_errors":[0,0,0,0,0]},{"input_size":5,"size":456,"prev_input":[40,1,52,36,53],"pre_activation_output":1099.853417421,"prev_output":1,"temperature":0.0001,"weights":[16.486120886,15.308290392,10.401893479,-28.856452734,17.415738285],"input_errors":[0,0,0,0,0]},{"input_size":5,"size":456,"prev_input":[40,1,52,36,53],"pre_activation_output":0.06776700699999993,"prev_output":0.06767493727777077,"temperature":0.0001,"weights":[0.022657636,0.003270292,-0.005833506,-0.007749446,-0.004895969],"input_errors":[-0.00006792628286237037,-0.000009804146540872206,0.00001748851411766388,0.000023232393904055783,0.00001467783179425155]},{"input_size":5,"size":456,"prev_input":[40,1,52,36,53],"pre_activation_output":0.749472503,"prev_output":0.64440796588186,"temperature":0.0001,"weights":[0.002184084,-0.010907723,0.018318671,0.004709665,-0.008473622],"input_errors":[-0.000003464291907844872,0.00001730131894886947,-0.000029056216366057904,-0.000007470250461172387,0.000013440461314471838]},{"input_size":5,"size":456,"prev_input":[40,1,52,36,53],"pre_activation_output":1.0289093740000004,"prev_output":0.7903498461663111,"temperature":0.0001,"weights":[-0.010632596,0.00587117,-0.014359874,-0.000732988,0.04191402],"input_errors":[0.0000720552333985757,-0.000039787891466196,0.00009731433541834368,0.000004967329499242667,-0.00028404392483434977]},{"input_size":5,"size":456,"prev_input":[40,1,52,36,53],"pre_activation_output":905.8656916049998,"prev_output":1,"temperature":0.0001,"weights":[22.596256125,3.171136289,15.548281558,-3.964822258,-12.583636404],"input_errors":[0,0,0,0,0]},{"input_size":5,"size":456,"prev_input":[40,1,52,36,53],"pre_activation_output":-0.19109402900000003,"prev_output":-0.1890512888624666,"temperature":0.0001,"weights":[0.009028279,-0.00023979,-0.003418077,-0.004144775,-0.004245915],"input_errors":[0.000016420738777111435,-4.3613372259242954e-7,-0.000006216837670659112,-0.000007538564851947394,-0.000007722519672690185]},{"input_size":5,"size":456,"prev_input":[40,1,52,36,53],"pre_activation_output":1701.235579649,"prev_output":1,"temperature":0.0001,"weights":[-7.04182459,-12.647808999,14.203112299,19.62901445,10.3839625],"input_errors":[0,0,0,0,0]},{"input_size":5,"size":456,"prev_input":[40,1,52,36,53],"pre_activation_output":-0.297864153,"prev_output":-0.2902587325316851,"temperature":0.0001,"weights":[-0.001997817,-0.000475416,-0.00220335,-0.001109142,-0.001188165],"input_errors":[0.000012629948573680516,0.000003005519119511145,0.00001392929882425631,0.000007011860075960296,0.0000075114270944469785]},{"input_size":5,"size":456,"prev_input":[40,1,52,36,53],"pre_activation_output":67.578603558,"prev_output":1,"temperature":0.0001,"weights":[1.89990308,-0.112440135,-0.252482674,0.14375134,-0.006623183],"input_errors":[0.5101445144280298,-0.030191197159810803,-0.06779447282513255,0.038598456997958774,-0.0017784035167198071]},{"input_size":5,"size":456,"prev_input":[40,1,52,36,53],"pre_activation_output":442.446627098,"prev_output":1,"temperature":0.0001,"weights":[-2.479128961,-1.220807661,2.586784195,3.021643124,5.651710615],"input_errors":[-0.895124739062791,-0.4407861334913431,0.9339978889024214,1.0909945809119537,2.040641478507909]},{"input_size":5,"size":456,"prev_input":[40,1,52,36,53],"pre_activation_output":-0.11066894799999999,"prev_output":-0.11026897179715942,"temperature":0.0001,"weights":[-0.00314039,0.004175187,-0.005210957,-0.005046296,0.008743545],"input_errors":[-6.241980871199718e-7,8.298791072926818e-7,-0.0000010357533238566267,-0.0000010030246338440995,0.0000017379065652378933]},{"input_size":5,"size":456,"prev_input":[40,1,52,36,53],"pre_activation_output":-0.22989102900000002,"prev_output":-0.2263534340892026,"temperature":0.0001,"weights":[-0.001418357,-0.002437268,-0.001329826,-0.001103222,-0.001167029],"input_errors":[0.000003600736244141544,0.000006187412175122417,0.000003375986049158461,0.0000028007152070629963,0.000002962697263612305]},{"input_size":5,"size":456,"prev_input":[40,1,52,36,53],"pre_activation_output":1670.9243059600003,"prev_output":1,"temperature":0.0001,"weights":[21.236441085,-3.969880627,9.121304494,-18.868758996,19.441585535],"input_errors":[0,0,0,0,0]},{"input_size":5,"size":456,"prev_input":[40,1,52,36,53],"pre_activation_output":2554.853262855,"prev_output":1,"temperature":0.0001,"weights":[22.578033345,-27.781769705,4.383352354,6.881975947,22.71374042],"input_errors":[0,0,0,0,0]},{"input_size":5,"size":456,"prev_input":[40,1,52,36,53],"pre_activation_output":227.5556430160001,"prev_output":1,"temperature":0.0001,"weights":[16.696561459,12.083234538,-6.242661188,20.311754025,-16.207449302],"input_errors":[0,0,0,0,0]},{"input_size":5,"size":456,"prev_input":[40,1,52,36,53],"pre_activation_output":-0.032802007999999994,"prev_output":-0.0327915542579749,"temperature":0.0001,"weights":[-0.003946273,-0.002906378,-0.002355568,-0.002834964,0.00665101],"input_errors":[0.000002870365910215161,0.00000211398665517483,0.0000017133484552487015,0.0000020620429589250223,-0.00000483768686054522]},{"input_size":5,"size":456,"prev_input":[40,1,52,36,53],"pre_activation_output":-0.093426337,"prev_output":-0.09318541722693169,"temperature":0.0001,"weights":[0.002707673,-0.003904868,0.000352491,-0.002940149,-0.002081369],"input_errors":[0.0000071933281929741235,-0.000010373850736089303,9.364448238896763e-7,-0.000007810935562603962,-0.000005529459885108419]},{"input_size":5,"size":456,"prev_input":[40,1,52,36,53],"pre_activation_output":491.4050686669997,"prev_output":1,"temperature":0.0001,"weights":[-24.170013224,13.514794905,22.533167878,24.888271171,-11.75493753],"input_errors":[0,0,0,0,0]},{"input_size":5,"size":456,"prev_input":[40,1,52,36,53],"pre_activation_output":-0.07155086100000002,"prev_output":-0.07144251064970482,"temperature":0.0001,"weights":[0.007046986,-0.003317644,-0.004241766,-0.003907492,0.000209979],"input_errors":[-0.000011520665904519754,0.000005423802938548733,0.000006934590705222103,0.0000063881082135517275,-3.4328162246283426e-7]},{"input_size":5,"size":456,"prev_input":[40,1,52,36,53],"pre_activation_output":1.3142482569999998,"prev_output":0.8874021982724711,"temperature":0.0001,"weights":[-0.013033344,-0.003353628,0.019525993,-0.012211312,0.023833797],"input_errors":[0.000048970653190544486,0.000012600708044085334,-0.00007336571474510055,0.000045882009957445376,-0.00008955158081329082]},{"input_size":5,"size":456,"prev_input":[40,1,52,36,53],"pre_activation_output":257.29359037399996,"prev_output":1,"temperature":0.0001,"weights":[-1.736274349,10.898365846,-0.256882428,19.655271913,-7.139352908],"input_errors":[0,0,0,0,0]},{"input_size":5,"size":456,"prev_input":[40,1,52,36,53],"pre_activation_output":1284.691784002,"prev_output":1,"temperature":0.0001,"weights":[15.007674185,-3.898441258,16.758730061,-9.103537709,2.727484004],"input_errors":[-0.2539127379242101,0.06595720849711627,-0.2835385686988254,0.15402156306560405,-0.04614590819970044]},{"input_size":5,"size":456,"prev_input":[40,1,52,36,53],"pre_activation_output":-0.188730272,"prev_output":-0.186761819696761,"temperature":0.0001,"weights":[0.001535194,0.00104723,-0.002355074,-0.004928888,0.000919218],"input_errors":[-0.0000059512954958621435,-0.000004059666506347597,0.00000912961920172134,0.000019107203823267734,-0.0000035634166347231582]},{"input_size":5,"size":456,"prev_input":[40,1,52,36,53],"pre_activation_output":596.881756484,"prev_output":1,"temperature":0.0001,"weights":[4.463471918,1.529469074,4.523756024,1.778678558,2.217842818],"input_errors":[0.006303079371108022,0.002159835397628795,0.006388209475502664,0.0025117558315970534,0.0031319205924142594]},{"input_size":5,"size":456,"prev_input":[40,1,52,36,53],"pre_activation_output":-0.035500977999999905,"prev_output":-0.035487726508466884,"temperature":0.0001,"weights":[-0.000129597,-0.001500776,-0.007590051,0.021627204,-0.007787038],"input_errors":[-0.0000017590620188855565,-0.000020370568342555733,-0.00010302253172346337,0.0002935537912660849,-0.00010569632608334794]},{"input_size":5,"size":456,"prev_input":[40,1,52,36,53],"pre_activation_output":-0.21788316100000002,"prev_output":-0.2148661381274261,"temperature":0.0001,"weights":[-0.002392919,-0.002848145,-0.002067369,0.000725373,-0.000715632],"input_errors":[0.00000894467038493306,0.00001064629492962017,0.000007727775016157003,-0.00000271142584186438,0.0000026750135632339145]},{"input_size":5,"size":456,"prev_input":[40,1,52,36,53],"pre_activation_output":-0.25382454600000004,"prev_output":-0.2490810442435534,"temperature":0.0001,"weights":[-0.003548765,0.000292258,0.000086696,-0.002224386,-0.0006905],"input_errors":[0.000013139999154014493,-0.000001082142555385239,-3.2100923606658083e-7,0.000008236227861186969,0.0000025567100218731074]},{"input_size":5,"size":456,"prev_input":[40,1,52,36,53],"pre_activation_output":-0.27902013,"prev_output":-0.272746681716912,"temperature":0.0001,"weights":[-0.000542349,-0.001689704,-0.001820812,-0.001527446,-0.001999362],"input_errors":[6.759503824143854e-7,0.000002105943042581833,0.0000022693480907737093,0.0000019037139946281402,0.0000024918814357834033]},{"input_size":5,"size":456,"prev_input":[40,1,52,36,53],"pre_activation_output":2518.89300031,"prev_output":1,"temperature":0.0001,"weights":[19.965319888,-28.320654646,9.078541492,10.983389359,16.624805376],"input_errors":[-0.7010418586848083,0.9944233909058108,-0.31877454755393986,-0.38565995364447625,-0.5837461352060223]},{"input_size":5,"size":456,"prev_input":[40,1,52,36,53],"pre_activation_output":-0.262652905,"prev_output":-0.2574048410517461,"temperature":0.0001,"weights":[-0.001625786,-0.002478333,-0.002286701,0.002175264,-0.002915928],"input_errors":[-0.000006231244769747404,-0.000009498852232193374,-0.000008764373875532475,0.000008337262013608458,-0.000011176048421126042]},{"input_size":5,"size":456,"prev_input":[40,1,52,36,53],"pre_activation_output":524.961195995,"prev_output":1,"temperature":0.0001,"weights":[17.527838076,18.594657058,25.586119439,-10.435201028,-21.689772791],"input_errors":[0,0,0,0,0]},{"input_size":5,"size":456,"prev_input":[40,1,52,36,53],"pre_activation_output":0.24367976700000027,"prev_output":0.2394756722946861,"temperature":0.0001,"weights":[-0.000635057,0.01605984,-0.017191408,0.05894406,-0.018396429],"input_errors":[-0.000020196621510311238,0.0005107482887251252,-0.0005467359118182219,0.0018745872062663081,-0.0005850591645960559]},{"input_size":5,"size":456,"prev_input":[40,1,52,36,53],"pre_activation_output":-0.11634727800000001,"prev_output":-0.11588272028602203,"temperature":0.0001,"weights":[0.000749356,-0.003727386,-0.001580614,0.003701926,-0.00365418],"input_errors":[0.000003735510526546572,-0.000018580868076913017,-0.000007879298307002876,0.000018453947321422866,-0.000018215941973602226]},{"input_size":5,"size":456,"prev_input":[40,1,52,36,53],"pre_activation_output":-0.010386765000000048,"prev_output":-0.010386432989726333,"temperature":0.0001,"weights":[-0.001226321,-0.005157171,-0.004631846,0.003261385,0.003156026],"input_errors":[-0.000004969657304220363,-0.000020899392951384486,-0.00001877052053458373,0.000013216735500557313,0.000012789772122213287]},{"input_size":5,"size":456,"prev_input":[40,1,52,36,53],"pre_activation_output":492.60113325399993,"prev_output":1,"temperature":0.0001,"weights":[15.444057197,14.296093728,14.399411335,-8.515238604,-10.97505751],"input_errors":[0,0,0,0,0]},{"input_size":5,"size":456,"prev_input":[40,1,52,36,53],"pre_activation_output":1272.0524877429998,"prev_output":1,"temperature":0.0001,"weights":[-6.698774327,0.252382186,17.872175612,-2.842080027,13.447411845],"input_errors":[1.8054368023911793,-0.06802185167411189,-4.816853418744833,0.7659968644722513,-3.624297954658713]},{"input_size":5,"size":456,"prev_input":[40,1,52,36,53],"pre_activation_output":444.846246847,"prev_output":1,"temperature":0.0001,"weights":[24.806648822,7.345193129,6.354185066,20.990841483,-30.959487094],"input_errors":[0,0,0,0,0]},{"input_size":5,"size":456,"prev_input":[40,1,52,36,53],"pre_activation_output":-0.048275605,"prev_output":-0.04824229519042592,"temperature":0.0001,"weights":[-0.003660259,-0.001511077,-0.005424759,0.001112716,0.006446708],"input_errors":[0.00001277684744479385,0.00000527470801696238,0.000018936178605900224,-0.000003884151078007929,-0.000022503490426713726]},{"input_size":5,"size":456,"prev_input":[40,1,52,36,53],"pre_activation_output":910.2080687359999,"prev_output":1,"temperature":0.0001,"weights":[20.544619325,3.069606855,13.665253406,-10.521328315,-4.650408847],"input_errors":[7.60124089481855,1.1357043711174235,5.055980295131894,-3.892708009486305,-1.7206001011533647]},{"input_size":5,"size":456,"prev_input":[40,1,52,36,53],"pre_activation_output":207.831031115,"prev_output":1,"temperature":0.0001,"weights":[0.118879097,-0.651078693,0.057998806,6.20593212,-0.428349968],"input_errors":[0.000045416827248859075,-0.0002487395088559328,0.000022157989254906363,0.0023709276927324175,-0.00016364774866838724]},{"input_size":5,"size":456,"prev_input":[40,1,52,36,53],"pre_activation_output":572.505594557,"prev_output":1,"temperature":0.0001,"weights":[1.171550615,3.263426877,4.515338116,2.92811497,3.437177776],"input_errors":[0,0,0,0,0]},{"input_size":5,"size":456,"prev_input":[40,1,52,36,53],"pre_activation_output":2172.476794219,"prev_output":1,"temperature":0.0001,"weights":[10.672567006,-20.216364081,13.668441085,7.464010297,14.836361716],"input_errors":[-1.1097252836725287,2.1020871863711212,-1.4212327768673496,-0.7761046147433283,-1.542671039173416]},{"input_size":5,"size":456,"prev_input":[40,1,52,36,53],"pre_activation_output":-0.336274579,"prev_output":-0.3254168442827724,"temperature":0.0001,"weights":[-0.001310028,0.004088294,0.001360364,-0.000428429,-0.006476929],"input_errors":[0.0000037732776509090006,-0.000011775524134329332,-0.000003918259313277361,0.000001234003906866981,0.000018655511745278037]},{"input_size":5,"size":456,"prev_input":[40,1,52,36,53],"pre_activation_output":-0.11761155300000001,"prev_output":-0.1171317330259475,"temperature":0.0001,"weights":[-0.002150028,-0.003799635,0.002094749,0.000587388,-0.002978938],"input_errors":[0.000012614239906053905,0.00002229250582101546,-0.000012289912370174472,-0.000003446214984342436,0.00001747746043705552]},{"input_size":5,"size":456,"prev_input":[40,1,52,36,53],"pre_activation_output":2954.403234122,"prev_output":1,"temperature":0.0001,"weights":[13.079661544,-36.208416579,13.636072749,16.416561982,22.025531597],"input_errors":[0,0,0,0,0]},{"input_size":5,"size":456,"prev_input":[40,1,52,36,53],"pre_activation_output":923.1249460989999,"prev_output":1,"temperature":0.0001,"weights":[25.235893574,-2.948976765,0.960242396,14.781098366,-12.554980488],"input_errors":[0,0,0,0,0]},{"input_size":5,"size":456,"prev_input":[40,1,52,36,53],"pre_activation_output":294.4550556679999,"prev_output":1,"temperature":0.0001,"weights":[-6.032069929,16.300285801,-5.209354343,-4.0003648,17.629002371],"input_errors":[0,0,0,0,0]},{"input_size":5,"size":456,"prev_input":[40,1,52,36,53],"pre_activation_output":0.310789454,"prev_output":0.30217232530325744,"temperature":0.0001,"weights":[-0.009392783,0.0038795,-0.00850577,-0.001221508,0.022054634],"input_errors":[0.000017993917429068382,-0.00000743202469454074,0.000016294649266299422,0.0000023400641749712805,-0.00004225044123396665]},{"input_size":5,"size":456,"prev_input":[40,1,52,36,53],"pre_activation_output":1712.135819848,"prev_output":1,"temperature":0.0001,"weights":[10.531938262,-16.015191215,24.346092173,22.122703237,-14.255483565],"input_errors":[0,0,0,0,0]},{"input_size":5,"size":456,"prev_input":[40,1,52,36,53],"pre_activation_output":597.436167054,"prev_output":1,"temperature":0.0001,"weights":[20.496424529,10.351796412,-21.934174156,7.815366638,11.819834842],"input_errors":[0,0,0,0,0]},{"input_size":5,"size":456,"prev_input":[40,1,52,36,53],"pre_activation_output":1109.427470718,"prev_output":1,"temperature":0.0001,"weights":[-7.567949236,-2.665715506,13.008336747,13.187903439,4.973832472],"input_errors":[0,0,0,0,0]},{"input_size":5,"size":456,"prev_input":[40,1,52,36,53],"pre_activation_output":-0.24347016700000002,"prev_output":-0.2392767714084061,"temperature":0.0001,"weights":[-0.003390827,0.003222383,-0.004320535,-0.003950744,0.004827078],"input_errors":[0.000008850993858240663,-0.000008411309253320668,0.000011277788176985575,0.000010312533896285515,-0.000012600004519952695]},{"input_size":5,"size":456,"prev_input":[40,1,52,36,53],"pre_activation_output":1309.5895329,"prev_output":1,"temperature":0.0001,"weights":[-7.909784308,-2.530829045,12.769315142,8.238926607,12.601999793],"input_errors":[-0.0008058469311015897,-0.00025784025635580644,0.0013009347697766774,0.000839379866926247,0.0012838887229915665]},{"input_size":5,"size":456,"prev_input":[40,1,52,36,53],"pre_activation_output":312.018774337,"prev_output":1,"temperature":0.0001,"weights":[-11.151609959,17.926283056,16.677593899,7.002628221,-7.154200171],"input_errors":[0,0,0,0,0]},{"input_size":5,"size":456,"prev_input":[40,1,52,36,53],"pre_activation_output":-0.14171771999999996,"prev_output":-0.140879996038809,"temperature":0.0001,"weights":[0.010538553,0.001018869,-0.000060263,-0.005631817,-0.006762257],"input_errors":[0.000008584717578646342,8.299717653456738e-7,-4.909005087784119e-8,-0.000004587684945095383,-0.000005508542586313256]},{"input_size":5,"size":456,"prev_input":[40,1,52,36,53],"pre_activation_output":317.40249603600023,"prev_output":1,"temperature":0.0001,"weights":[11.831801174,16.455571408,14.875693038,16.442357299,-29.014830624],"input_errors":[0,0,0,0,0]},{"input_size":5,"size":456,"prev_input":[40,1,52,36,53],"pre_activation_output":363.41256360200003,"prev_output":1,"temperature":0.0001,"weights":[-0.568540677,-0.424041531,0.818536977,-0.917142243,7.113800569],"input_errors":[0.21486612393909285,0.16025763878182978,-0.30934521077449767,0.34661580048666324,-2.6884726993474657]},{"input_size":5,"size":456,"prev_input":[40,1,52,36,53],"pre_activation_output":-0.218989229,"prev_output":-0.2159265110227823,"temperature":0.0001,"weights":[-0.003305834,-0.000758959,-0.001083375,-0.001435922,0.000415694],"input_errors":[0.000014877108213206201,0.0000034155130059308932,0.000004875465935236263,0.000006462022868110934,-0.0000018707316600478305]},{"input_size":5,"size":456,"prev_input":[40,1,52,36,53],"pre_activation_output":0.697896736,"prev_output":0.6112481306108076,"temperature":0.0001,"weights":[-0.00388715,-0.007769493,0.021697806,0.001732424,-0.006216999],"input_errors":[0.000009225474147562308,0.000018439541059213418,-0.00005149596963021878,-0.000004111608100574062,0.000014754965438034284]},{"input_size":5,"size":456,"prev_input":[40,1,52,36,53],"pre_activation_output":910.91657319,"prev_output":1,"temperature":0.0001,"weights":[15.495633703,4.034597452,18.736041455,-9.624528133,-6.428953118],"input_errors":[5.309810879254479,1.3825038507473626,6.420202708539849,-3.2979524942317995,-2.202988359570599]},{"input_size":5,"size":456,"prev_input":[40,1,52,36,53],"pre_activation_output":1004.694854645,"prev_output":1,"temperature":0.0001,"weights":[-0.378500491,13.373518604,23.623313386,-20.549738915,9.770559633],"input_errors":[0.0006775554235886056,-0.023939996545390214,-0.04228819843129344,0.03678618172568473,-0.01749032206581024]},{"input_size":5,"size":456,"prev_input":[40,1,52,36,53],"pre_activation_output":890.9835693120001,"prev_output":1,"temperature":0.0001,"weights":[-11.010454495,6.361581346,-2.925954737,11.823257402,19.840614106],"input_errors":[0,0,0,0,0]},{"input_size":5,"size":456,"prev_input":[40,1,52,36,53],"pre_activation_output":-0.247559447,"prev_output":-0.24315407964437094,"temperature":0.0001,"weights":[-0.00220409,-0.002032641,-0.000112985,-0.001090042,-0.002117858],"input_errors":[0.000010727856012908302,0.00000989337253972993,5.49928037576494e-7,0.0000053055070657345995,0.000010308143054136037]},{"input_size":5,"size":456,"prev_input":[40,1,52,36,53],"pre_activation_output":676.064980868,"prev_output":1,"temperature":0.0001,"weights":[4.813605937,5.265869926,6.00724482,-4.739153921,6.348824226],"input_errors":[0.9875584284932398,1.080339498228491,1.2324471649054476,-0.9722774846331096,1.3025275129515814]},{"input_size":5,"size":456,"prev_input":[40,1,52,36,53],"pre_activation_output":-0.05367225100000006,"prev_output":-0.05362648332751343,"temperature":0.0001,"weights":[0.010550682,0.011234453,-0.018935456,0.025737986,-0.008091656],"input_errors":[0.00019686501954255717,0.00020962340923783175,-0.000353316461609352,0.0004802444329844194,-0.00015098213498754667]},{"input_size":5,"size":456,"prev_input":[40,1,52,36,53],"pre_activation_output":-0.11801586900000002,"prev_output":-0.11753109885348811,"temperature":0.0001,"weights":[-0.002439361,-0.001831891,0.000093767,-0.003223924,0.001746714],"input_errors":[0.000012754408329504297,0.00000957820037125158,-4.90268828835011e-7,0.000016856567367722725,-0.00000913284390893899]},{"input_size":5,"size":456,"prev_input":[40,1,52,36,53],"pre_activation_output":-0.597809899,"prev_output":-0.541246341635452,"temperature":0.0001,"weights":[-0.008001307,0.024662812,-0.00246087,-0.003707486,-0.000773315],"input_errors":[-0.000017539550864003334,0.000054062995212642993,-0.000005394438317462775,-0.000008127126616419425,-0.0000016951729402606557]},{"input_size":5,"size":456,"prev_input":[40,1,52,36,53],"pre_activation_output":969.8868208490001,"prev_output":1,"temperature":0.0001,"weights":[-6.136214975,2.162330818,17.233159299,22.689711967,-9.429826893],"input_errors":[0,0,0,0,0]},{"input_size":5,"size":456,"prev_input":[40,1,52,36,53],"pre_activation_output":1299.1953420219997,"prev_output":1,"temperature":0.0001,"weights":[16.059923168,5.652069937,25.268671676,-17.234822145,-0.799452539],"input_errors":[-2.1947882530711817,-0.7724281903467216,-3.4532744988906163,2.3553631120356253,0.10925490899748186]},{"input_size":5,"size":456,"prev_input":[40,1,52,36,53],"pre_activation_output":-0.23564644199999998,"prev_output":-0.23183978546735248,"temperature":0.0001,"weights":[0.006083446,-0.001193038,-0.006237371,0.003880524,-0.005531072],"input_errors":[-0.000009183177677878166,0.000001800932728006449,0.000009415531654931855,-0.000005857788921507343,0.00000834934850388668]},{"input_size":5,"size":456,"prev_input":[40,1,52,36,53],"pre_activation_output":379.456564532,"prev_output":1,"temperature":0.0001,"weights":[21.380338106,2.516545637,-6.051026783,19.881092769,-16.591310421],"input_errors":[0,0,0,0,0]},{"input_size":5,"size":456,"prev_input":[40,1,52,36,53],"pre_activation_output":665.068058564,"prev_output":1,"temperature":0.0001,"weights":[3.355987463,0.378003665,3.580937973,3.791789163,3.919573055],"input_errors":[0.0003570955807000549,0.00004022167524575329,0.0003810315562666482,0.0004034672844281576,0.0004170641975428239]},{"input_size":5,"size":456,"prev_input":[40,1,52,36,53],"pre_activation_output":-0.39854284199999995,"prev_output":-0.3807295008879199,"temperature":0.0001,"weights":[-0.010507718,0.022408469,-0.003261425,-0.007530241,0.008302645],"input_errors":[0.000008738360567248208,-0.000018635185959344793,0.00000271224495866179,0.00000626225051904565,-0.0000069045915842142365]},{"input_size":5,"size":456,"prev_input":[40,1,52,36,53],"pre_activation_output":0.5794908450000001,"prev_output":0.5276364041158891,"temperature":0.0001,"weights":[-0.000867129,-0.010520119,0.006160802,0.013976063,-0.003751016],"input_errors":[-0.000007680741550053309,-0.00009318374980770026,0.00005457037304639445,0.00012379535769839432,-0.00003322527513649045]},{"input_size":5,"size":456,"prev_input":[40,1,52,36,53],"pre_activation_output":0.031161765000000008,"prev_output":0.03115280203263347,"temperature":0.0001,"weights":[-0.004132195,-0.001226838,-0.00362935,-0.003847364,0.009903919],"input_errors":[0.000018738932341187736,0.000005563541656485678,0.00001645860240434212,0.000017447267075167633,-0.000044912904703869274]},{"input_size":5,"size":456,"prev_input":[40,1,52,36,53],"pre_activation_output":544.408235482,"prev_output":1,"temperature":0.0001,"weights":[4.03753679,1.763092898,2.311016527,2.988235902,2.894232436],"input_errors":[2.293161943529484e-11,1.001367355157142e-11,1.3125664053200264e-11,1.69720034934517e-11,1.6438100812957454e-11]},{"input_size":5,"size":456,"prev_input":[40,1,52,36,53],"pre_activation_output":-0.336199798,"prev_output":-0.3253491300459768,"temperature":0.0001,"weights":[-0.001249221,0.000395721,-0.003042225,-0.001060664,-0.001702775],"input_errors":[0.000008147337282249481,-0.0000025808668442906553,0.00001984119455668477,0.000006917584863976965,0.000011105387795210253]},{"input_size":5,"size":456,"prev_input":[40,1,52,36,53],"pre_activation_output":1599.888722624,"prev_output":1,"temperature":0.0001,"weights":[13.527911472,4.23646291,20.114404127,-23.768533181,16.306678882],"input_errors":[0,0,0,0,0]},{"input_size":5,"size":456,"prev_input":[40,1,52,36,53],"pre_activation_output":57.91744111300011,"prev_output":1,"temperature":0.0001,"weights":[2.999325272,12.880323932,-5.476895366,25.637839498,-13.454708615],"input_errors":[0,0,0,0,0]},{"input_size":5,"size":456,"prev_input":[40,1,52,36,53],"pre_activation_output":1395.5257281620002,"prev_output":1,"temperature":0.0001,"weights":[22.672851516,-10.003720416,-24.646900223,6.263866321,29.335000226],"input_errors":[7.243925281886671,-3.196141761016846,-7.874649550171261,2.0012708002614334,9.372511791838038]},{"input_size":5,"size":456,"prev_input":[40,1,52,36,53],"pre_activation_output":865.9515630550001,"prev_output":1,"temperature":0.0001,"weights":[-9.967755843,7.322127194,-7.539818061,18.307443536,18.685702669],"input_errors":[0,0,0,0,0]},{"input_size":5,"size":456,"prev_input":[40,1,52,36,53],"pre_activation_output":1437.707953593,"prev_output":1,"temperature":0.0001,"weights":[-12.243789215,-3.072063243,12.241573131,8.185254157,18.854728924],"input_errors":[-0.6562586243535814,-0.1646602509020539,0.6561401251427547,0.43872320289778977,1.0106012278362357]},{"input_size":5,"size":456,"prev_input":[40,1,52,36,53],"pre_activation_output":1443.313869163,"prev_output":1,"temperature":0.0001,"weights":[-33.501818544,-0.354431312,20.123924623,26.065635179,15.074228215],"input_errors":[0,0,0,0,0]},{"input_size":5,"size":456,"prev_input":[40,1,52,36,53],"pre_activation_output":0.2507840499999999,"prev_output":0.24620668611908095,"temperature":0.0001,"weights":[-0.001258142,-0.006797403,-0.005490011,0.005428745,0.007508545],"input_errors":[0.0000030049045691185573,0.000016234690808545117,0.000013112159078372055,-0.000012965833809357361,-0.00001793315719399901]},{"input_size":5,"size":456,"prev_input":[40,1,52,36,53],"pre_activation_output":236.48276350099997,"prev_output":1,"temperature":0.0001,"weights":[-2.342848807,11.632298632,-3.027741028,20.247344819,-4.771650243],"input_errors":[0,0,0,0,0]},{"input_size":5,"size":456,"prev_input":[40,1,52,36,53],"pre_activation_output":740.9371076109999,"prev_output":1,"temperature":0.0001,"weights":[18.294063593,8.616316566,15.29722543,-5.191959211,-11.471451763],"input_errors":[0,0,0,0,0]},{"input_size":5,"size":456,"prev_input":[40,1,52,36,53],"pre_activation_output":-0.12985703999999998,"prev_output":-0.12921184884054568,"temperature":0.0001,"weights":[-0.006032376,-0.001275148,-0.000810761,0.007560513,-0.002213316],"input_errors":[-0.000014510338514350797,-0.000003067254729127495,-0.0000019502132444382216,0.000018186132232547494,-0.00000532393322899687]},{"input_size":5,"size":456,"prev_input":[40,1,52,36,53],"pre_activation_output":0.8619038250000002,"prev_output":0.7098426973917632,"temperature":0.0001,"weights":[0.027336552,-0.001852237,0.015148817,-0.009128302,-0.01299671],"input_errors":[-0.00005840787545153776,0.000003957530340664282,-0.00003236729322762202,0.000019503732383488463,0.000027769053979562056]},{"input_size":5,"size":456,"prev_input":[40,1,52,36,53],"pre_activation_output":-0.11535703200000003,"prev_output":-0.11490420086185962,"temperature":0.0001,"weights":[0.005435179,-0.000099369,0.001189981,-0.005885197,-0.003446731],"input_errors":[-8.977939870498568e-7,1.6414029892018338e-8,-1.9656345241461216e-7,9.721289129836333e-7,5.693380630137165e-7]},{"input_size":5,"size":456,"prev_input":[40,1,52,36,53],"pre_activation_output":-0.056177473000000006,"prev_output":-0.05612499754686797,"temperature":0.0001,"weights":[0.001652791,-0.004542694,-0.004979436,-0.000089239,0.002724469],"input_errors":[-0.000008878541521019089,0.000024402662984054793,0.000026748770094715117,4.793756863253272e-7,-0.00001463543238889703]},{"input_size":5,"size":456,"prev_input":[40,1,52,36,53],"pre_activation_output":-0.448100083,"prev_output":-0.4231130397126988,"temperature":0.0001,"weights":[-0.002127575,0.005219887,-0.003216937,-0.002785462,-0.001899238],"input_errors":[-0.00001016445341570994,0.000024937920921072506,-0.000015368865095472386,-0.000013307494436936055,-0.000009073577218792193]},{"input_size":5,"size":456,"prev_input":[40,1,52,36,53],"pre_activation_output":565.264491427,"prev_output":1,"temperature":0.0001,"weights":[-5.832672301,13.605078612,22.024620911,-7.027155384,-2.025214881],"input_errors":[-0.00021000115827193543,0.0004898410397592761,0.0007929805867172443,-0.0002530076596402544,-0.00007291640074662923]},{"input_size":5,"size":456,"prev_input":[40,1,52,36,53],"pre_activation_output":-0.364976421,"prev_output":-0.3511836125604844,"temperature":0.0001,"weights":[-0.001941726,0.000840843,-0.002378288,-0.001706094,-0.001944488],"input_errors":[0.000013550624972715888,-0.000005867953080246475,0.000016597241082674156,0.000011906235308911075,0.000013569898823111473]},{"input_size":5,"size":456,"prev_input":[40,1,52,36,53],"pre_activation_output":164.2570411279999,"prev_output":1,"temperature":0.0001,"weights":[14.41486592,13.263968213,-31.46085265,22.549875319,7.520137027],"input_errors":[0,0,0,0,0]},{"input_size":5,"size":456,"prev_input":[40,1,52,36,53],"pre_activation_output":0.950424868,"prev_output":0.7549152654709722,"temperature":0.0001,"weights":[0.013469384,-0.010109208,0.01023331,-0.011659819,0.00583736],"input_errors":[-0.0001090140846546564,0.00008181860836962087,-0.00008282300787584595,0.0000943684466317257,-0.00004724450289511503]},{"input_size":5,"size":456,"prev_input":[40,1,52,36,53],"pre_activation_output":0.015740789000000033,"prev_output":0.01573963350027163,"temperature":0.0001,"weights":[-0.000806936,-0.00435276,-0.004826966,-0.000865964,0.006312225],"input_errors":[0.0000033780591091544502,0.00001822187418924176,0.000020207034905140564,0.000003625166770221654,-0.000026424744629515816]},{"input_size":5,"size":456,"prev_input":[40,1,52,36,53],"pre_activation_output":-0.647280186,"prev_output":-0.5767737246914952,"temperature":0.0001,"weights":[0.000196696,0.013822762,-0.004819081,-0.004105332,-0.005105408],"input_errors":[5.796171666404545e-7,0.00004073250193014887,-0.000014200726485909687,-0.0000120974685785437,-0.000015044466903239679]},{"input_size":5,"size":456,"prev_input":[40,1,52,36,53],"pre_activation_output":1305.22289767,"prev_output":1,"temperature":0.0001,"weights":[-8.628828593,-5.878724683,14.863116065,19.646257995,3.322781941],"input_errors":[0,0,0,0,0]},{"input_size":5,"size":456,"prev_input":[40,1,52,36,53],"pre_activation_output":1.1494092550000004,"prev_output":0.8370365738716987,"temperature":0.0001,"weights":[0.060073946,-0.005803967,-0.009613245,0.000030136,-0.014130958],"input_errors":[0.0002100191847498733,-0.000020290732519639815,-0.00003360801372285111,1.0535592976702784e-7,-0.0000494019895020304]},{"input_size":5,"size":456,"prev_input":[40,1,52,36,53],"pre_activation_output":1096.63336231,"prev_output":1,"temperature":0.0001,"weights":[-4.984297214,-3.53964601,19.711797576,24.326723906,-11.343974296],"input_errors":[0,0,0,0,0]},{"input_size":5,"size":456,"prev_input":[40,1,52,36,53],"pre_activation_output":782.1439772010002,"prev_output":1,"temperature":0.0001,"weights":[17.650028754,-5.539830186,-6.078349681,23.952622214,-8.764859605],"input_errors":[0,0,0,0,0]},{"input_size":5,"size":456,"prev_input":[40,1,52,36,53],"pre_activation_output":1660.905696783,"prev_output":1,"temperature":0.0001,"weights":[-1.14226398,-12.950676089,20.298830798,12.701584942,3.900956088],"input_errors":[-0.00550283576430266,-0.062389637193524146,0.09778924864536193,0.06118964294532592,0.018792785726788615]},{"input_size":5,"size":456,"prev_input":[40,1,52,36,53],"pre_activation_output":513.338713168,"prev_output":1,"temperature":0.0001,"weights":[4.21232119,3.283649172,1.23994642,1.482317209,4.221161944],"input_errors":[0.00033827193372487933,0.0002636946003742008,0.00009957433314110503,0.00011903800419952417,0.00033898189397061804]},{"input_size":5,"size":456,"prev_input":[40,1,52,36,53],"pre_activation_output":-0.3744722610000003,"prev_output":-0.3596079408490578,"temperature":0.0001,"weights":[-0.011221948,0.019677197,-0.009650606,0.030802719,-0.01042147],"input_errors":[-0.00022199883618706612,0.0003892651081633119,-0.00019091371156727447,0.0006093561859507825,-0.0002061634025165712]},{"input_size":5,"size":456,"prev_input":[40,1,52,36,53],"pre_activation_output":-0.129379673,"prev_output":-0.12874154489472897,"temperature":0.0001,"weights":[-0.002897905,-0.003959465,0.000860874,0.001715822,-0.002189416],"input_errors":[-0.000010511227606692276,-0.000014361697583241968,0.000003122547676446275,0.0000062235971076828625,-0.000007941408130125022]},{"input_size":5,"size":456,"prev_input":[40,1,52,36,53],"pre_activation_output":609.372889966,"prev_output":1,"temperature":0.0001,"weights":[21.343087925,0.118388801,-9.079283333,15.653503229,-6.337215071],"input_errors":[0,0,0,0,0]},{"input_size":5,"size":456,"prev_input":[40,1,52,36,53],"pre_activation_output":714.1316523970004,"prev_output":1,"temperature":0.0001,"weights":[28.250764685,9.431460664,8.785406616,-15.380838955,-6.197383723],"input_errors":[3.2230064885081133,1.0759912528537616,1.0022896259759781,-1.754726405729553,-0.7070336805453544]},{"input_size":5,"size":456,"prev_input":[40,1,52,36,53],"pre_activation_output":-0.15433914399999998,"prev_output":-0.1532584077421102,"temperature":0.0001,"weights":[0.001480737,-0.002008346,-0.00334084,-0.003696438,0.00179689],"input_errors":[-0.000011707002972086366,0.000015878395281371785,0.00002641335153441011,0.00002922479317459099,-0.000014206572405781883]},{"input_size":5,"size":456,"prev_input":[40,1,52,36,53],"pre_activation_output":1787.2220414930002,"prev_output":1,"temperature":0.0001,"weights":[13.37548179,-10.949343903,15.700617566,-3.039709995,10.493387928],"input_errors":[-0.11707506320771383,0.0958391943490689,-0.13742687509152643,0.026606468845071802,-0.09184819753734032]},{"input_size":5,"size":456,"prev_input":[40,1,52,36,53],"pre_activation_output":933.70062363,"prev_output":1,"temperature":0.0001,"weights":[-8.020271328,10.385319508,-0.064135173,-0.047346231,23.569163218],"input_errors":[0,0,0,0,0]},{"input_size":5,"size":456,"prev_input":[40,1,52,36,53],"pre_activation_output":1665.3059815220004,"prev_output":1,"temperature":0.0001,"weights":[23.327428326,-11.374492491,4.616391733,-9.809243276,16.163466581],"input_errors":[0,0,0,0,0]},{"input_size":5,"size":456,"prev_input":[40,1,52,36,53],"pre_activation_output":1509.7422928580002,"prev_output":1,"temperature":0.0001,"weights":[-28.122801435,4.244942217,25.529304991,7.996140895,19.151405213],"input_errors":[0,0,0,0,0]},{"input_size":5,"size":456,"prev_input":[40,1,52,36,53],"pre_activation_output":1750.2563258660002,"prev_output":1,"temperature":0.0001,"weights":[-4.659349269,2.663195857,25.132755155,-22.065567037,26.819325397],"input_errors":[0,0,0,0,0]},{"input_size":5,"size":456,"prev_input":[40,1,52,36,53],"pre_activation_output":-0.32043436000000003,"prev_output":-0.3110083481062103,"temperature":0.0001,"weights":[-0.001850384,0.000699312,-0.00059844,-0.002669476,-0.002262232],"input_errors":[0.000012579150541962965,-0.000004754013939511286,0.00000406827132759023,0.00001814745340358972,0.00001537894887953929]},{"input_size":5,"size":456,"prev_input":[40,1,52,36,53],"pre_activation_output":490.317231182,"prev_output":1,"temperature":0.0001,"weights":[2.523856986,3.010633157,2.222046817,2.481637076,3.423904705],"input_errors":[0,0,0,0,0]},{"input_size":5,"size":456,"prev_input":[40,1,52,36,53],"pre_activation_output":0.37237382899999993,"prev_output":0.3577506989455989,"temperature":0.0001,"weights":[0.000612593,-0.002647058,-0.006873436,-0.006899356,0.018043635],"input_errors":[-0.000004221621828271391,0.000018241920955921584,0.0000473675576717584,0.00004754619104350377,-0.0001243457910966748]},{"input_size":5,"size":456,"prev_input":[40,1,52,36,53],"pre_activation_output":1554.2990771569998,"prev_output":1,"temperature":0.0001,"weights":[8.402520927,-0.05540676,27.285985301,-18.570185671,8.828473497],"input_errors":[0,0,0,0,0]},{"input_size":5,"size":456,"prev_input":[40,1,52,36,53],"pre_activation_output":2004.897151513,"prev_output":1,"temperature":0.0001,"weights":[25.776761596,-17.966952643,20.856410851,5.761399715,-5.663209692],"input_errors":[6.389057120769706,-4.453282598887885,5.16950370169375,1.4280156870632503,-1.403694742511716]},{"input_size":5,"size":456,"prev_input":[40,1,52,36,53],"pre_activation_output":220.78152518,"prev_output":1,"temperature":0.0001,"weights":[6.286081325,1.739754001,-4.086003086,11.484835812,-4.403460577],"input_errors":[0,0,0,0,0]},{"input_size":5,"size":456,"prev_input":[40,1,52,36,53],"pre_activation_output":315.62123787099995,"prev_output":1,"temperature":0.0001,"weights":[27.050133964,15.629370258,-37.782908269,6.916870445,17.616800057],"input_errors":[0,0,0,0,0]},{"input_size":5,"size":456,"prev_input":[40,1,52,36,53],"pre_activation_output":1.5879052480000002,"prev_output":0.9433374117629625,"temperature":0.0001,"weights":[-0.012881631,-0.011792107,-0.011813778,0.031875166,0.029844775],"input_errors":[-0.00006513208973487499,-0.00005962323418266791,-0.0000597328142464379,0.0001611671586771283,0.00015090113799176021]},{"input_size":5,"size":456,"prev_input":[40,1,52,36,53],"pre_activation_output":485.73692689999996,"prev_output":1,"temperature":0.0001,"weights":[1.376878901,4.081460997,3.366622451,5.038601727,1.323137363],"input_errors":[0,0,0,0,0]},{"input_size":5,"size":456,"prev_input":[40,1,52,36,53],"pre_activation_output":276.81589346300007,"prev_output":1,"temperature":0.0001,"weights":[0.472186431,18.043939657,-20.585722388,16.498421172,13.51696035],"input_errors":[0,0,0,0,0]},{"input_size":5,"size":456,"prev_input":[40,1,52,36,53],"pre_activation_output":755.720661473,"prev_output":1,"temperature":0.0001,"weights":[-43.973962829,20.675810833,23.765365014,7.651507046,18.542455272],"input_errors":[0,0,0,0,0]},{"input_size":5,"size":456,"prev_input":[40,1,52,36,53],"pre_activation_output":-0.04131357799999999,"prev_output":-0.041292696695138235,"temperature":0.0001,"weights":[0.00105557,-0.003982919,-0.004531031,-0.001172186,0.003740733],"input_errors":[-0.000002149728287374845,0.000008111438388290668,0.00000922769883264182,0.000002387222340647986,-0.00000761821085682389]},{"input_size":5,"size":456,"prev_input":[40,1,52,36,53],"pre_activation_output":897.0345302259998,"prev_output":1,"temperature":0.0001,"weights":[-47.421401936,20.507473471,30.380028588,11.296175746,14.848289071],"input_errors":[0,0,0,0,0]},{"input_size":5,"size":456,"prev_input":[40,1,52,36,53],"pre_activation_output":378.2036882880001,"prev_output":1,"temperature":0.0001,"weights":[-4.94317692,16.083769499,-2.516688893,-8.975681964,19.129044693],"input_errors":[-0.9112399253972417,2.964916755923744,-0.46393459476490523,-1.6545941301195861,3.5263147044725818]},{"input_size":5,"size":456,"prev_input":[40,1,52,36,53],"pre_activation_output":-0.11739694300000003,"prev_output":-0.11691973688402858,"temperature":0.0001,"weights":[-0.004181609,-0.001326983,-0.00073034,-0.003255466,0.003893752],"input_errors":[6.943865847088356e-7,2.203551266987158e-7,1.2127828412526557e-7,5.405938418424495e-7,-6.465858317552311e-7]},{"input_size":5,"size":456,"prev_input":[40,1,52,36,53],"pre_activation_output":-0.332094427,"prev_output":-0.3216271958252763,"temperature":0.0001,"weights":[-0.002331996,-0.000230978,-0.003636029,0.00162213,-0.002035977],"input_errors":[-0.000002415793391803513,-2.3927742076419796e-7,-0.000003766685595826213,0.0000016804190716811865,-0.0000021091376205428845]},{"input_size":5,"size":456,"prev_input":[40,1,52,36,53],"pre_activation_output":-0.24122966,"prev_output":-0.2371495217437423,"temperature":0.0001,"weights":[-0.000673342,-0.002513993,-0.002229331,-0.000595089,-0.001404407],"input_errors":[0.000005650302934964111,0.00002109601233793345,0.000018707286119384582,0.0000049936502796630505,0.000011784991552994213]},{"input_size":5,"size":456,"prev_input":[40,1,52,36,53],"pre_activation_output":-0.292145468,"prev_output":-0.2849618927518005,"temperature":0.0001,"weights":[-0.001682471,-0.000643339,-0.000133249,-0.001900755,-0.002808437],"input_errors":[0.00001259440234742382,0.000004815820168530193,9.974601476385777e-7,0.000014228405985448722,0.000021022998763555014]},{"input_size":5,"size":456,"prev_input":[40,1,52,36,53],"pre_activation_output":-0.137338982,"prev_output":-0.13657622590054747,"temperature":0.0001,"weights":[-0.004358689,0.000509351,0.007287582,-0.003556469,-0.004045701],"input_errors":[-0.000010056640281780595,0.0000011752064430265271,0.000016814367216563295,-0.000008205706864716459,-0.000009334496224492645]},{"input_size":5,"size":456,"prev_input":[40,1,52,36,53],"pre_activation_output":1394.511225025,"prev_output":1,"temperature":0.0001,"weights":[-9.628464896,7.202904851,24.542563228,-13.120817443,18.275152002],"input_errors":[0.0013198424900657808,-0.0009873536444441056,-0.0033642245235976386,0.0017985642185831714,-0.002505105677354579]},{"input_size":5,"size":456,"prev_input":[40,1,52,36,53],"pre_activation_output":782.1013060540001,"prev_output":1,"temperature":0.0001,"weights":[5.808447261,7.590586885,-29.554898667,16.479419553,28.033367085],"input_errors":[0,0,0,0,0]},{"input_size":5,"size":456,"prev_input":[40,1,52,36,53],"pre_activation_output":998.7372692459999,"prev_output":1,"temperature":0.0001,"weights":[2.972542771,-0.907664318,-14.855377136,14.574497019,21.293225304],"input_errors":[0,0,0,0,0]},{"input_size":5,"size":456,"prev_input":[40,1,52,36,53],"pre_activation_output":1088.179923091,"prev_output":1,"temperature":0.0001,"weights":[-1.65599341,-2.509062514,-8.08991183,15.705565358,19.098184609],"input_errors":[0,0,0,0,0]},{"input_size":5,"size":456,"prev_input":[40,1,52,36,53],"pre_activation_output":608.2977899710002,"prev_output":1,"temperature":0.0001,"weights":[-7.623516526,12.588540704,-14.831979926,20.474526718,17.638300087],"input_errors":[0,0,0,0,0]},{"input_size":5,"size":456,"prev_input":[40,1,52,36,53],"pre_activation_output":-0.22309350400000003,"prev_output":-0.21985726145912413,"temperature":0.0001,"weights":[0.007838563,-0.000320046,-0.003735816,-0.003657092,-0.003969778],"input_errors":[-0.00004274105498897088,0.0000017451061621442859,0.000020370148534665883,0.00001994090174344112,0.000021645867139585675]},{"input_size":5,"size":456,"prev_input":[40,1,52,36,53],"pre_activation_output":1941.415167788,"prev_output":1,"temperature":0.0001,"weights":[16.290999457,-22.476292892,8.093828726,29.079932274,-2.934059872],"input_errors":[0,0,0,0,0]},{"input_size":5,"size":456,"prev_input":[40,1,52,36,53],"pre_activation_output":411.46495428699996,"prev_output":1,"temperature":0.0001,"weights":[-10.681144554,17.277735937,14.835192925,11.540578133,-6.895431026],"input_errors":[0,0,0,0,0]},{"input_size":5,"size":456,"prev_input":[40,1,52,36,53],"pre_activation_output":0.5751595460000003,"prev_output":0.5243830404262765,"temperature":0.0001,"weights":[-0.01155318,-0.001388904,-0.005347226,0.047635397,-0.00751213],"input_errors":[-0.000195192706821985,-0.00002346572607314951,-0.00009034218505820145,0.0008048067095821231,-0.0001269185957639579]},{"input_size":5,"size":456,"prev_input":[40,1,52,36,53],"pre_activation_output":0.642252932,"prev_output":0.5732457129480593,"temperature":0.0001,"weights":[-0.007203498,-0.006725018,0.013018838,-0.005786829,0.008838946],"input_errors":[0.00005841753767196113,0.00005453726358479777,-0.00010557765603162694,0.000046928919702530755,-0.0000716803738696187]},{"input_size":5,"size":456,"prev_input":[40,1,52,36,53],"pre_activation_output":-0.253022479,"prev_output":-0.2483231792488112,"temperature":0.0001,"weights":[0.001140016,-0.001273606,-0.002669758,-0.001876674,-0.001716261],"input_errors":[-0.0000010935419243710284,0.0000012216862321374352,0.0000025609234951934586,0.0000018001702560125952,0.0000016462962518225593]},{"input_size":5,"size":456,"prev_input":[40,1,52,36,53],"pre_activation_output":-0.21197068400000002,"prev_output":-0.20919034760893493,"temperature":0.0001,"weights":[0.00043518,-0.003055568,-0.001710719,-0.000070948,-0.0025436],"input_errors":[-0.0000022910250441105145,0.000016086177005947664,0.000009006155366952671,3.735099234933595e-7,0.000013390893110807129]},{"input_size":5,"size":456,"prev_input":[40,1,52,36,53],"pre_activation_output":-0.222404868,"prev_output":-0.21919817898512908,"temperature":0.0001,"weights":[-0.002482607,-0.000915892,-0.001789538,-0.002390816,0.001074352],"input_errors":[0.000017583375275898858,0.0000064869212261168095,0.000012674627622833094,0.000016933257718901506,-0.000007609231092589744]},{"input_size":5,"size":456,"prev_input":[40,1,52,36,53],"pre_activation_output":1466.993247673,"prev_output":1,"temperature":0.0001,"weights":[-9.275855945,-7.927774184,17.982642637,14.598234452,7.270215137],"input_errors":[0,0,0,0,0]},{"input_size":5,"size":456,"prev_input":[40,1,52,36,53],"pre_activation_output":-0.408564405,"prev_output":-0.3894222292891673,"temperature":0.0001,"weights":[-0.005446486,0.005619893,-0.005282711,0.008598026,-0.004361374],"input_errors":[-0.00003968487266828476,0.00004094836905451561,-0.000038491556800716436,0.00006264800876946225,-0.00003177839454387145]},{"input_size":5,"size":456,"prev_input":[40,1,52,36,53],"pre_activation_output":-0.35544156299999996,"prev_output":-0.3426737627325803,"temperature":0.0001,"weights":[-0.005299003,0.002640279,-0.004417337,0.006173922,-0.00261663],"input_errors":[-0.00003410521204300104,0.000016993250615328533,-0.00002843067892281294,0.00003973632158924345,-0.000016841045667382118]},{"input_size":5,"size":456,"prev_input":[40,1,52,36,53],"pre_activation_output":227.68476712300017,"prev_output":1,"temperature":0.0001,"weights":[13.020572231,12.559458895,-24.21268443,20.931981639,3.770012648],"input_errors":[0,0,0,0,0]},{"input_size":5,"size":456,"prev_input":[40,1,52,36,53],"pre_activation_output":0.16451616900000005,"prev_output":0.16320863975160807,"temperature":0.0001,"weights":[0.003607955,-0.004444694,-0.002997876,0.012572915,-0.005133825],"input_errors":[0.000005794285060112601,-0.000007138066232093681,-0.000004814513431981543,0.000020191782117829492,-0.000008244793027333116]},{"input_size":5,"size":456,"prev_input":[40,1,52,36,53],"pre_activation_output":1628.6358864060003,"prev_output":1,"temperature":0.0001,"weights":[6.073954264,-12.688357727,28.25585213,17.54003149,-13.252440959],"input_errors":[0,0,0,0,0]},{"input_size":5,"size":456,"prev_input":[40,1,52,36,53],"pre_activation_output":997.9682876540003,"prev_output":1,"temperature":0.0001,"weights":[6.122971725,0.329057683,23.643052131,20.666421727,-23.032255321],"input_errors":[0,0,0,0,0]},{"input_size":5,"size":456,"prev_input":[40,1,52,36,53],"pre_activation_output":757.830126241,"prev_output":1,"temperature":0.0001,"weights":[2.878621735,0.67583472,0.07844425,3.707399255,9.518187697],"input_errors":[0.004875383872300751,0.0011446288763256626,0.00013285727470794525,0.006279044356150161,0.016120499408760345]},{"input_size":5,"size":456,"prev_input":[40,1,52,36,53],"pre_activation_output":0.9593755339999996,"prev_output":0.7591668749113831,"temperature":0.0001,"weights":[0.035243948,-0.004911703,-0.012900294,0.027380171,-0.014346067],"input_errors":[0.0006939068968320854,-0.00009670491923639673,-0.00025398982258232353,0.0005390791514747009,-0.0002824552366782705]},{"input_size":5,"size":456,"prev_input":[40,1,52,36,53],"pre_activation_output":0.594348597,"prev_output":0.5386934624679591,"temperature":0.0001,"weights":[0.004700863,-0.008789688,-0.003685239,0.005763673,0.007532905],"input_errors":[0.000010794982980636147,-0.000020184491012118563,-0.000008462720504409793,0.000013235601555930922,0.00001729843738883247]},{"input_size":5,"size":456,"prev_input":[40,1,52,36,53],"pre_activation_output":-0.13326271199999998,"prev_output":-0.13256562196796073,"temperature":0.0001,"weights":[-0.002131813,-0.003036475,-0.00151925,-0.001839744,0.001892039],"input_errors":[-0.000003438303644165427,-0.000004897390479795421,-0.0000024503280842108137,-0.000002967238254396509,0.000003051582099463408]},{"input_size":5,"size":456,"prev_input":[40,1,52,36,53],"pre_activation_output":2231.614011398,"prev_output":1,"temperature":0.0001,"weights":[18.055910291,-18.337524377,14.769664056,-7.12717214,19.174920571],"input_errors":[0,0,0,0,0]},{"input_size":5,"size":456,"prev_input":[40,1,52,36,53],"pre_activation_output":-0.371828778,"prev_output":-0.35726788471101834,"temperature":0.0001,"weights":[0.005331964,0.005572629,-0.004820993,-0.004456015,-0.003388147],"input_errors":[0.000023715438550269832,0.00002478586259580695,-0.000021442746791734614,-0.000019819400103709076,-0.000015069754066729137]},{"input_size":5,"size":456,"prev_input":[40,1,52,36,53],"pre_activation_output":206.61329182499998,"prev_output":1,"temperature":0.0001,"weights":[-3.589575966,10.253176578,0.987124538,16.123047564,-5.505981781],"input_errors":[0,0,0,0,0]},{"input_size":5,"size":456,"prev_input":[40,1,52,36,53],"pre_activation_output":-0.311939332,"prev_output":-0.3032282168112719,"temperature":0.0001,"weights":[-0.002705893,0.000123968,-0.003386102,0.000428708,-0.000814788],"input_errors":[0.000008564168061057317,-3.9235941645237526e-7,0.000010717035328464134,-0.0000013568627400682575,0.00000257880977735115]},{"input_size":5,"size":456,"prev_input":[40,1,52,36,53],"pre_activation_output":999.8092775969999,"prev_output":1,"temperature":0.0001,"weights":[15.638386307,7.662047853,6.038292595,-17.403574993,12.814137024],"input_errors":[-0.24791418319505443,-0.12146592496304426,-0.09572459442713772,0.27589772902707055,-0.20314151957097437]},{"input_size":5,"size":456,"prev_input":[40,1,52,36,53],"pre_activation_output":1336.107448067,"prev_output":1,"temperature":0.0001,"weights":[8.669151867,-11.732680117,15.780163419,24.939697134,-13.534406436],"input_errors":[0,0,0,0,0]},{"input_size":5,"size":456,"prev_input":[40,1,52,36,53],"pre_activation_output":357.33520529299994,"prev_output":1,"temperature":0.0001,"weights":[7.462582383,6.643731764,-22.067691684,12.763286227,13.966600785],"input_errors":[0,0,0,0,0]},{"input_size":5,"size":456,"prev_input":[40,1,52,36,53],"pre_activation_output":205.01049274700006,"prev_output":1,"temperature":0.0001,"weights":[-12.851350444,21.60472781,16.784588064,12.465556006,-11.775449299],"input_errors":[0,0,0,0,0]},{"input_size":5,"size":456,"prev_input":[40,1,52,36,53],"pre_activation_output":639.638437772,"prev_output":1,"temperature":0.0001,"weights":[-9.928323553,13.624383066,-5.797763342,9.13120424,18.79070449],"input_errors":[0,0,0,0,0]},{"input_size":5,"size":456,"prev_input":[40,1,52,36,53],"pre_activation_output":1374.5116396570002,"prev_output":1,"temperature":0.0001,"weights":[-6.133634814,-3.106994454,15.845186317,-0.931149664,15.708221247],"input_errors":[1.302201984515253,0.6596341454127832,-3.3640082346835345,0.19768917039794573,-3.334924944196341]},{"input_size":5,"size":456,"prev_input":[40,1,52,36,53],"pre_activation_output":0.3233600340000001,"prev_output":0.3136793463881354,"temperature":0.0001,"weights":[0.00825148,-0.006752367,0.00901154,-0.005236995,-0.005283303],"input_errors":[-0.000002634561460951174,0.0000021559192387474736,-0.0000028772360121413206,0.000001672086021060489,0.0000016868716216214185]},{"input_size":5,"size":456,"prev_input":[40,1,52,36,53],"pre_activation_output":1082.441087561,"prev_output":1,"temperature":0.0001,"weights":[22.468445506,8.38868067,21.06924372,-20.26586575,-3.598394713],"input_errors":[-6.238717995924716,-2.329264915087559,-5.85019457331635,5.627187013450345,0.999146841035068]},{"input_size":5,"size":456,"prev_input":[40,1,52,36,53],"pre_activation_output":1754.452206031,"prev_output":1,"temperature":0.0001,"weights":[5.275239033,-6.944954038,20.481717765,-10.826237723,16.510996849],"input_errors":[0,0,0,0,0]},{"input_size":5,"size":456,"prev_input":[40,1,52,36,53],"pre_activation_output":2288.840543448,"prev_output":1,"temperature":0.0001,"weights":[13.505961617,-23.705280325,11.785582181,16.854559529,10.428168729],"input_errors":[0.5926213233006832,-1.0401510236141727,0.5171338374684592,0.7395517350132272,0.4575726923131381]},{"input_size":5,"size":456,"prev_input":[40,1,52,36,53],"pre_activation_output":521.4613997429999,"prev_output":1,"temperature":0.0001,"weights":[-10.135901763,9.405913212,-3.435919884,24.102726239,4.310589555],"input_errors":[0,0,0,0,0]},{"input_size":5,"size":456,"prev_input":[40,1,52,36,53],"pre_activation_output":906.895712923,"prev_output":1,"temperature":0.0001,"weights":[20.730418336,21.29903771,16.468407362,-33.887476511,7.923998365],"input_errors":[0,0,0,0,0]},{"input_size":5,"size":456,"prev_input":[40,1,52,36,53],"pre_activation_output":2631.912744374,"prev_output":1,"temperature":0.0001,"weights":[3.371089034,-31.082393642,16.114647536,23.09046447,16.206286488],"input_errors":[1.0112006969032143,-9.323489092761031,4.833803485064368,6.926209721715765,4.861302018513229]},{"input_size":5,"size":456,"prev_input":[40,1,52,36,53],"pre_activation_output":-0.22121892999999998,"prev_output":-0.21806272086149636,"temperature":0.0001,"weights":[-0.00041072,-0.002866277,-0.000995103,-0.00058572,-0.002435709],"input_errors":[-0.0000011852361367805755,-0.000008271356154215246,-0.0000028716187106419168,-0.0000016902395692079735,-0.000007028845576716914]},{"input_size":5,"size":456,"prev_input":[40,1,52,36,53],"pre_activation_output":505.98512821199995,"prev_output":1,"temperature":0.0001,"weights":[-9.379521907,9.980439558,11.90108605,18.864720576,-8.052846234],"input_errors":[0,0,0,0,0]},{"input_size":5,"size":456,"prev_input":[40,1,52,36,53],"pre_activation_output":-0.16896832,"prev_output":-0.1675524331588406,"temperature":0.0001,"weights":[-0.001149364,0.00031966,0.004189658,-0.003729463,-0.003904056],"input_errors":[0.000007133556904575411,-0.0000019839784758213055,-0.000026003218669275278,0.000023147016541345232,0.000024230621689587455]},{"input_size":5,"size":456,"prev_input":[40,1,52,36,53],"pre_activation_output":601.9455887439999,"prev_output":1,"temperature":0.0001,"weights":[21.821203908,3.676141433,-6.29249011,-5.726209847,4.882534551],"input_errors":[1.4436754485476857,0.24321053628436703,-0.41630692463440383,-0.37884119970759045,0.32302536022693623]},{"input_size":5,"size":456,"prev_input":[40,1,52,36,53],"pre_activation_output":1837.189897607,"prev_output":1,"temperature":0.0001,"weights":[-4.093731905,-16.628739829,13.344280508,15.863504098,14.199607164],"input_errors":[-0.5018952463461539,-2.0386925940224234,1.6360225041202947,1.9448723674946753,1.7408879251488645]},{"input_size":5,"size":456,"prev_input":[40,1,52,36,53],"pre_activation_output":470.34141892099996,"prev_output":1,"temperature":0.0001,"weights":[8.55815314,5.319407536,-2.476614704,7.659092164,-0.457499387],"input_errors":[0,0,0,0,0]},{"input_size":5,"size":456,"prev_input":[40,1,52,36,53],"pre_activation_output":0.389245745,"prev_output":0.3726116146877347,"temperature":0.0001,"weights":[-0.003763259,-0.005883517,0.001203627,-0.004950769,0.012477334],"input_errors":[0.000023089648084566707,0.000036098593701860886,-0.000007384907281167857,0.00003037567607357863,-0.00007655524496303243]},{"input_size":5,"size":456,"prev_input":[40,1,52,36,53],"pre_activation_output":188.91394218,"prev_output":1,"temperature":0.0001,"weights":[-4.905209919,10.852002955,-4.009205772,17.066465628,-0.597051443],"input_errors":[0,0,0,0,0]},{"input_size":5,"size":456,"prev_input":[40,1,52,36,53],"pre_activation_output":965.973150345,"prev_output":1,"temperature":0.0001,"weights":[-9.045069126,17.477247129,19.716123532,-15.55810784,15.946266544],"input_errors":[1.9158562060782007,-3.7019133991364144,-4.1761088937849475,3.295419756281598,-3.3776034468732603]},{"input_size":5,"size":456,"prev_input":[40,1,52,36,53],"pre_activation_output":2259.337326805,"prev_output":1,"temperature":0.0001,"weights":[-11.999989692,-20.946910435,19.762608768,21.415666063,18.144607372],"input_errors":[-0.9400855643568561,-1.6409890007984589,1.5482142349958241,1.6777104451019005,1.4214598465711703]},{"input_size":5,"size":456,"prev_input":[40,1,52,36,53],"pre_activation_output":-0.410026877,"prev_output":-0.3906857155191169,"temperature":0.0001,"weights":[-0.002813323,0.003651097,-0.000627403,-0.002869548,-0.00311729],"input_errors":[0.000012559602791083825,-0.000016299705143035546,0.000002800932637275451,0.00001281060981047492,0.000013916608313940893]},{"input_size":5,"size":456,"prev_input":[40,1,52,36,53],"pre_activation_output":-0.264137167,"prev_output":-0.2588009877858128,"temperature":0.0001,"weights":[0.000659938,-0.00067745,-0.00011625,-0.002584826,-0.003599217],"input_errors":[0.0000017656841412946337,-0.0000018125401951634587,-3.110300960843465e-7,-0.000006915784640678556,-0.000009629822729816697]},{"input_size":5,"size":456,"prev_input":[40,1,52,36,53],"pre_activation_output":-0.19097727700000003,"prev_output":-0.18893824875706222,"temperature":0.0001,"weights":[0.002816448,-0.001565044,-0.004251048,-0.00201731,-0.000158349],"input_errors":[0.000003344998725242219,-0.0000018587495167941736,-0.000005048825288739879,-0.000002395890701587284,-1.88065968861396e-7]},{"input_size":5,"size":456,"prev_input":[40,1,52,36,53],"pre_activation_output":31.19883464400003,"prev_output":1,"temperature":0.0001,"weights":[9.107349677,8.855441499,-2.802742235,-2.5200364,-1.990314855],"input_errors":[0,0,0,0,0]},{"input_size":5,"size":456,"prev_input":[40,1,52,36,53],"pre_activation_output":270.3329758279999,"prev_output":1,"temperature":0.0001,"weights":[-9.00805159,22.327638199,-1.137475121,-3.874614437,15.225702401],"input_errors":[0,0,0,0,0]},{"input_size":5,"size":456,"prev_input":[40,1,52,36,53],"pre_activation_output":996.9992185440001,"prev_output":1,"temperature":0.0001,"weights":[5.101425109,0.43315253,23.804303299,20.767310256,-22.50826187],"input_errors":[0,0,0,0,0]},{"input_size":5,"size":456,"prev_input":[40,1,52,36,53],"pre_activation_output":10.152342364999999,"prev_output":1,"temperature":0.0001,"weights":[-0.039484948,-0.051166522,0.04544762,0.091649266,0.115476547],"input_errors":[-0.0008970220752627636,-0.0011624043337332256,0.0010324827071958454,0.0020820935554720288,0.0026234059666027693]},{"input_size":5,"size":456,"prev_input":[40,1,52,36,53],"pre_activation_output":0.6098776359999998,"prev_output":0.5500785726039996,"temperature":0.0001,"weights":[0.037792048,-0.002260117,-0.006269379,0.00475466,-0.014051023],"input_errors":[0.00014190451248903075,-0.000008486462189113152,-0.000023540753277656056,0.00001785316401726979,-0.000052759876055134585]},{"input_size":5,"size":456,"prev_input":[40,1,52,36,53],"pre_activation_output":870.8437668079999,"prev_output":1,"temperature":0.0001,"weights":[19.850076656,17.856541764,22.428215856,-26.022815977,-3.216258312],"input_errors":[-5.628325063933563,-5.063109187310523,-6.359320686005222,7.378621194635231,0.9119395655182418]},{"input_size":5,"size":456,"prev_input":[40,1,52,36,53],"pre_activation_output":1417.377772466,"prev_output":1,"temperature":0.0001,"weights":[-1.465894776,-8.65377251,28.918581127,22.769552554,-15.826467444],"input_errors":[0,0,0,0,0]},{"input_size":5,"size":456,"prev_input":[40,1,52,36,53],"pre_activation_output":730.188540054,"prev_output":1,"temperature":0.0001,"weights":[-6.034542753,2.791203842,12.79478912,-1.889608979,7.008979912],"input_errors":[-1.7475281864719503,0.8082921420784106,3.705219656320798,-0.5472020808302274,2.0297218299339166]},{"input_size":5,"size":456,"prev_input":[40,1,52,36,53],"pre_activation_output":-0.05522116299999999,"prev_output":-0.05517132028952836,"temperature":0.0001,"weights":[-0.003279488,-0.001888766,0.005868901,-0.001074128,-0.003559757],"input_errors":[-0.0000012960558604847685,-7.464414668947385e-7,0.000002319393709867688,-4.2449607256339906e-7,-0.0000014068183092646578]},{"input_size":5,"size":456,"prev_input":[40,1,52,36,53],"pre_activation_output":-0.158905738,"prev_output":-0.15772676245051212,"temperature":0.0001,"weights":[0.000752199,-0.003467351,-0.001132304,-0.00260344,-0.000621183],"input_errors":[-0.000004324755050669417,0.000019935480814703354,0.000006510163348799245,0.000014968439132683976,0.0000035714797547756167]},{"input_size":5,"size":456,"prev_input":[40,1,52,36,53],"pre_activation_output":-0.07757538300000003,"prev_output":-0.07743733577063128,"temperature":0.0001,"weights":[-0.003344906,-0.002210286,0.006559525,-0.003526751,-0.002937757],"input_errors":[0.000015213911009054452,0.000010053224360839044,-0.000029835219983366495,0.00001604101034044219,0.000013362039731198453]},{"input_size":5,"size":456,"prev_input":[40,1,52,36,53],"pre_activation_output":1387.237887423,"prev_output":1,"temperature":0.0001,"weights":[18.746718772,2.331958684,12.821705834,-13.289357733,8.428780243],"input_errors":[-3.4888117382637263,-0.4339853425888901,-2.3861483048261074,2.473197786223866,-1.568612924754884]},{"input_size":5,"size":456,"prev_input":[40,1,52,36,53],"pre_activation_output":-0.00186089300000003,"prev_output":-0.001860891090630762,"temperature":0.0001,"weights":[-0.008155803,0.007852538,0.013977735,-0.008336668,-0.002079311],"input_errors":[0.000008537827188788559,-0.000008220357599907984,-0.000014632463253609972,0.000008727164049428406,0.0000021767078955781506]},{"input_size":5,"size":456,"prev_input":[40,1,52,36,53],"pre_activation_output":324.8206747480001,"prev_output":1,"temperature":0.0001,"weights":[8.43168113,11.977631861,11.73440701,13.294481968,-21.004051277],"input_errors":[0,0,0,0,0]},{"input_size":5,"size":456,"prev_input":[40,1,52,36,53],"pre_activation_output":1126.6727148699997,"prev_output":1,"temperature":0.0001,"weights":[0.401041117,19.083429446,15.753459334,-31.946904151,26.838798204],"input_errors":[0,0,0,0,0]},{"input_size":5,"size":456,"prev_input":[40,1,52,36,53],"pre_activation_output":0.145649984,"prev_output":0.1447409140027861,"temperature":0.0001,"weights":[-0.00573174,-0.002660563,-0.003624606,-0.001961907,0.012012987],"input_errors":[0.000013139571237583519,0.000006099135356669952,0.000008309129947403506,0.0000044975204343682,-0.000027538845787556568]},{"input_size":5,"size":456,"prev_input":[40,1,52,36,53],"pre_activation_output":-0.14003875500000001,"prev_output":-0.139230327230504,"temperature":0.0001,"weights":[0.00083197,-0.003651375,0.000776932,-0.001211017,-0.003140944],"input_errors":[0.0000027989553971662667,-0.000012284138149855221,0.000002613794647645907,-0.000004074163261046159,-0.000010566922295295742]},{"input_size":5,"size":456,"prev_input":[40,1,52,36,53],